<?xml version="1.0"?>
<opencv_storage>
<cascade>
  <stageType>BOOST</stageType>
  <featureType>HAAR</featureType>
  <height>24</height>
  <width>24</width>
  <stageParams>
    <boostType>GAB</boostType>
    <minHitRate>9.9000000953674316e-01</minHitRate>
    <maxFalseAlarm>2.5000000000000000e-01</maxFalseAlarm>
    <weightTrimRate>9.4999999999999996e-01</weightTrimRate>
    <maxDepth>1</maxDepth>
    <maxWeakCount>100</maxWeakCount></stageParams>
  <featureParams>
    <maxCatCount>0</maxCatCount>
    <featSize>1</featSize>
    <mode>BASIC</mode></featureParams>
  <stageNum>20</stageNum>
  <stages>
    <!-- stage 0 -->
    <_>
      <maxWeakCount>9</maxWeakCount>
      <stageThreshold>-1.0136450529098511e+00</stageThreshold>
      <weakClassifiers>
        <_>
          <internalNodes>
            0 -1 511 7.8794412314891815e-02</internalNodes>
          <leafValues>
            -7.1506351232528687e-01 7.2361809015274048e-01</leafValues></_>
        <_>
          <internalNodes>
            0 -1 1198 -2.0682606846094131e-02</internalNodes>
          <leafValues>
            -8.9235907793045044e-01 4.7922387719154358e-01</leafValues></_>
        <_>
          <internalNodes>
            0 -1 413 2.2101462818682194e-03</internalNodes>
          <leafValues>
            -4.6819993853569031e-01 4.8714083433151245e-01</leafValues></_>
        <_>
          <internalNodes>
            0 -1 1303 -8.3936527371406555e-02</internalNodes>
          <leafValues>
            -9.5776885747909546e-01 2.1134893596172333e-01</leafValues></_>
        <_>
          <internalNodes>
            0 -1 668 -4.7299731522798538e-03</internalNodes>
          <leafValues>
            6.8412756919860840e-01 -2.1267373859882355e-01</leafValues></_>
        <_>
          <internalNodes>
            0 -1 574 3.7790103815495968e-03</internalNodes>
          <leafValues>
            -2.4060872197151184e-01 6.7089396715164185e-01</leafValues></_>
        <_>
          <internalNodes>
            0 -1 181 -9.0584475547075272e-03</internalNodes>
          <leafValues>
            5.7359230518341064e-01 -1.9251212477684021e-01</leafValues></_>
        <_>
          <internalNodes>
            0 -1 1537 -2.8175204060971737e-03</internalNodes>
          <leafValues>
            5.3757154941558838e-01 -2.0501570403575897e-01</leafValues></_>
        <_>
          <internalNodes>
            0 -1 1261 1.1878705117851496e-03</internalNodes>
          <leafValues>
            -2.3103059828281403e-01 4.2677265405654907e-01</leafValues></_></weakClassifiers></_>
    <!-- stage 1 -->
    <_>
      <maxWeakCount>31</maxWeakCount>
      <stageThreshold>-1.3462315797805786e+00</stageThreshold>
      <weakClassifiers>
        <_>
          <internalNodes>
            0 -1 395 5.4892253130674362e-02</internalNodes>
          <leafValues>
            -6.6634649038314819e-01 4.2193174362182617e-01</leafValues></_>
        <_>
          <internalNodes>
            0 -1 5 3.8639698177576065e-03</internalNodes>
          <leafValues>
            -2.6986443996429443e-01 5.5317229032516479e-01</leafValues></_>
        <_>
          <internalNodes>
            0 -1 569 -2.4473814293742180e-02</internalNodes>
          <leafValues>
            5.0434428453445435e-01 -2.1869783103466034e-01</leafValues></_>
        <_>
          <internalNodes>
            0 -1 18 -4.0893394500017166e-02</internalNodes>
          <leafValues>
            -2.1341608464717865e-01 4.0551814436912537e-01</leafValues></_>
        <_>
          <internalNodes>
            0 -1 1295 6.7871632054448128e-03</internalNodes>
          <leafValues>
            -1.9387958943843842e-01 3.9080014824867249e-01</leafValues></_>
        <_>
          <internalNodes>
            0 -1 68 -1.9724346697330475e-02</internalNodes>
          <leafValues>
            5.8035314083099365e-01 -1.3272801041603088e-01</leafValues></_>
        <_>
          <internalNodes>
            0 -1 1045 9.8275276832282543e-04</internalNodes>
          <leafValues>
            1.9513489305973053e-01 -4.1630324721336365e-01</leafValues></_>
        <_>
          <internalNodes>
            0 -1 303 -5.7468220591545105e-02</internalNodes>
          <leafValues>
            7.3599886894226074e-01 -9.2796072363853455e-02</leafValues></_>
        <_>
          <internalNodes>
            0 -1 141 1.8301548436284065e-02</internalNodes>
          <leafValues>
            -1.6012470424175262e-01 4.3428027629852295e-01</leafValues></_>
        <_>
          <internalNodes>
            0 -1 674 -2.6123300194740295e-03</internalNodes>
          <leafValues>
            2.6646634936332703e-01 -2.3998330533504486e-01</leafValues></_>
        <_>
          <internalNodes>
            0 -1 376 6.8525259848684072e-04</internalNodes>
          <leafValues>
            -1.7601440846920013e-01 3.8993778824806213e-01</leafValues></_>
        <_>
          <internalNodes>
            0 -1 356 -2.7939569205045700e-02</internalNodes>
          <leafValues>
            -9.1508269309997559e-01 7.0367462933063507e-02</leafValues></_>
        <_>
          <internalNodes>
            0 -1 210 4.2290072888135910e-02</internalNodes>
          <leafValues>
            -2.7680367231369019e-01 2.3236753046512604e-01</leafValues></_>
        <_>
          <internalNodes>
            0 -1 338 -6.8738609552383423e-03</internalNodes>
          <leafValues>
            5.0098174810409546e-01 -1.2386105209589005e-01</leafValues></_>
        <_>
          <internalNodes>
            0 -1 1517 -1.6055658459663391e-02</internalNodes>
          <leafValues>
            5.1440250873565674e-01 -1.0868208855390549e-01</leafValues></_>
        <_>
          <internalNodes>
            0 -1 1339 9.4976887106895447e-02</internalNodes>
          <leafValues>
            -1.1277924478054047e-01 5.4537665843963623e-01</leafValues></_>
        <_>
          <internalNodes>
            0 -1 1311 3.0041537247598171e-03</internalNodes>
          <leafValues>
            -1.3797974586486816e-01 3.0555427074432373e-01</leafValues></_>
        <_>
          <internalNodes>
            0 -1 12 1.5118931187316775e-03</internalNodes>
          <leafValues>
            -1.5457713603973389e-01 2.8638929128646851e-01</leafValues></_>
        <_>
          <internalNodes>
            0 -1 1430 -7.9624552745372057e-04</internalNodes>
          <leafValues>
            3.8342228531837463e-01 -1.2052305787801743e-01</leafValues></_>
        <_>
          <internalNodes>
            0 -1 748 -7.6684489846229553e-02</internalNodes>
          <leafValues>
            3.4178674221038818e-01 -1.3609075546264648e-01</leafValues></_>
        <_>
          <internalNodes>
            0 -1 479 -9.7507320344448090e-02</internalNodes>
          <leafValues>
            -7.5481571257114410e-02 6.7411077022552490e-01</leafValues></_>
        <_>
          <internalNodes>
            0 -1 51 -1.9678004086017609e-02</internalNodes>
          <leafValues>
            3.9718678593635559e-01 -1.0781171917915344e-01</leafValues></_>
        <_>
          <internalNodes>
            0 -1 1149 1.2558739632368088e-02</internalNodes>
          <leafValues>
            -1.0196962207555771e-01 4.0823540091514587e-01</leafValues></_>
        <_>
          <internalNodes>
            0 -1 1331 1.0727831395342946e-03</internalNodes>
          <leafValues>
            -1.2523403763771057e-01 3.6174896359443665e-01</leafValues></_>
        <_>
          <internalNodes>
            0 -1 1144 2.7220696210861206e-03</internalNodes>
          <leafValues>
            -1.3066023588180542e-01 3.4877157211303711e-01</leafValues></_>
        <_>
          <internalNodes>
            0 -1 714 -1.2616342306137085e-01</internalNodes>
          <leafValues>
            6.6642045974731445e-01 -6.8899355828762054e-02</leafValues></_>
        <_>
          <internalNodes>
            0 -1 776 -4.9580093473196030e-03</internalNodes>
          <leafValues>
            3.0881655216217041e-01 -1.4382021129131317e-01</leafValues></_>
        <_>
          <internalNodes>
            0 -1 978 7.7447379007935524e-03</internalNodes>
          <leafValues>
            7.9070381820201874e-02 -6.1196261644363403e-01</leafValues></_>
        <_>
          <internalNodes>
            0 -1 994 -6.3830219209194183e-02</internalNodes>
          <leafValues>
            -9.3319255113601685e-01 3.7902850657701492e-02</leafValues></_>
        <_>
          <internalNodes>
            0 -1 1564 2.7902303263545036e-03</internalNodes>
          <leafValues>
            -1.2367841601371765e-01 4.0074816346168518e-01</leafValues></_>
        <_>
          <internalNodes>
            0 -1 1086 8.9066330110654235e-04</internalNodes>
          <leafValues>
            -1.1236798763275146e-01 3.6530655622482300e-01</leafValues></_></weakClassifiers></_>
    <!-- stage 2 -->
    <_>
      <maxWeakCount>52</maxWeakCount>
      <stageThreshold>-1.1864042282104492e+00</stageThreshold>
      <weakClassifiers>
        <_>
          <internalNodes>
            0 -1 293 1.2111178040504456e-01</internalNodes>
          <leafValues>
            -5.1436465978622437e-01 4.1136363148689270e-01</leafValues></_>
        <_>
          <internalNodes>
            0 -1 568 -1.1841893196105957e-02</internalNodes>
          <leafValues>
            3.3340510725975037e-01 -3.0595421791076660e-01</leafValues></_>
        <_>
          <internalNodes>
            0 -1 824 -8.8016044173855335e-05</internalNodes>
          <leafValues>
            1.9678436219692230e-01 -3.2029464840888977e-01</leafValues></_>
        <_>
          <internalNodes>
            0 -1 612 -8.0019794404506683e-03</internalNodes>
          <leafValues>
            -3.9909189939498901e-01 1.4236697554588318e-01</leafValues></_>
        <_>
          <internalNodes>
            0 -1 1082 -5.7737845927476883e-03</internalNodes>
          <leafValues>
            3.3358436822891235e-01 -1.6273850202560425e-01</leafValues></_>
        <_>
          <internalNodes>
            0 -1 787 -1.0589876212179661e-02</internalNodes>
          <leafValues>
            2.3928198218345642e-01 -2.1467207372188568e-01</leafValues></_>
        <_>
          <internalNodes>
            0 -1 304 -5.6832797825336456e-02</internalNodes>
          <leafValues>
            5.9661877155303955e-01 -8.1574611365795135e-02</leafValues></_>
        <_>
          <internalNodes>
            0 -1 9 4.0620017796754837e-02</internalNodes>
          <leafValues>
            -7.6632857322692871e-02 5.7502943277359009e-01</leafValues></_>
        <_>
          <internalNodes>
            0 -1 70 -2.8780560940504074e-02</internalNodes>
          <leafValues>
            5.3336483240127563e-01 -6.6411279141902924e-02</leafValues></_>
        <_>
          <internalNodes>
            0 -1 365 1.3708755373954773e-01</internalNodes>
          <leafValues>
            -2.2852285206317902e-01 2.1677982807159424e-01</leafValues></_>
        <_>
          <internalNodes>
            0 -1 640 -6.3770994544029236e-02</internalNodes>
          <leafValues>
            -1.1245638132095337e-01 4.7215893864631653e-01</leafValues></_>
        <_>
          <internalNodes>
            0 -1 1234 -1.1362346820533276e-02</internalNodes>
          <leafValues>
            3.9385402202606201e-01 -1.2832534313201904e-01</leafValues></_>
        <_>
          <internalNodes>
            0 -1 667 -1.8159323371946812e-03</internalNodes>
          <leafValues>
            3.8520142436027527e-01 -8.1085301935672760e-02</leafValues></_>
        <_>
          <internalNodes>
            0 -1 771 6.7215948365628719e-04</internalNodes>
          <leafValues>
            -1.3608917593955994e-01 3.4381160140037537e-01</leafValues></_>
        <_>
          <internalNodes>
            0 -1 1189 -8.0180615186691284e-02</internalNodes>
          <leafValues>
            -8.7987625598907471e-01 4.1321251541376114e-02</leafValues></_>
        <_>
          <internalNodes>
            0 -1 354 -7.2558072861284018e-04</internalNodes>
          <leafValues>
            1.9586247205734253e-01 -1.9964005053043365e-01</leafValues></_>
        <_>
          <internalNodes>
            0 -1 27 -1.2351806461811066e-01</internalNodes>
          <leafValues>
            -7.6322013139724731e-01 5.2856493741273880e-02</leafValues></_>
        <_>
          <internalNodes>
            0 -1 808 6.5490882843732834e-03</internalNodes>
          <leafValues>
            -2.3297014832496643e-01 1.7559979856014252e-01</leafValues></_>
        <_>
          <internalNodes>
            0 -1 1499 -1.3912671245634556e-02</internalNodes>
          <leafValues>
            4.1502940654754639e-01 -8.6347900331020355e-02</leafValues></_>
        <_>
          <internalNodes>
            0 -1 422 9.9312849342823029e-02</internalNodes>
          <leafValues>
            -9.3412615358829498e-02 4.2709565162658691e-01</leafValues></_>
        <_>
          <internalNodes>
            0 -1 237 -1.6106788534671068e-03</internalNodes>
          <leafValues>
            3.7933409214019775e-01 -1.0486685484647751e-01</leafValues></_>
        <_>
          <internalNodes>
            0 -1 1409 8.5889804176986217e-04</internalNodes>
          <leafValues>
            -1.8985506892204285e-01 1.7747843265533447e-01</leafValues></_>
        <_>
          <internalNodes>
            0 -1 1377 1.4457606012001634e-03</internalNodes>
          <leafValues>
            -1.4242008328437805e-01 2.5388815999031067e-01</leafValues></_>
        <_>
          <internalNodes>
            0 -1 602 -2.9738519806414843e-03</internalNodes>
          <leafValues>
            3.5662236809730530e-01 -9.5905549824237823e-02</leafValues></_>
        <_>
          <internalNodes>
            0 -1 508 -4.1816341690719128e-03</internalNodes>
          <leafValues>
            2.8827032446861267e-01 -1.1776437610387802e-01</leafValues></_>
        <_>
          <internalNodes>
            0 -1 246 5.9761404991149902e-03</internalNodes>
          <leafValues>
            -9.5245890319347382e-02 3.3556398749351501e-01</leafValues></_>
        <_>
          <internalNodes>
            0 -1 1502 2.9064619913697243e-02</internalNodes>
          <leafValues>
            -6.6337354481220245e-02 4.6989458799362183e-01</leafValues></_>
        <_>
          <internalNodes>
            0 -1 835 1.4124352484941483e-02</internalNodes>
          <leafValues>
            6.2232993543148041e-02 -5.0303900241851807e-01</leafValues></_>
        <_>
          <internalNodes>
            0 -1 585 1.4033344388008118e-01</internalNodes>
          <leafValues>
            3.4521132707595825e-02 -8.0232632160186768e-01</leafValues></_>
        <_>
          <internalNodes>
            0 -1 861 6.5054325386881828e-03</internalNodes>
          <leafValues>
            -1.6227528452873230e-01 2.0347651839256287e-01</leafValues></_>
        <_>
          <internalNodes>
            0 -1 362 -9.3279667198657990e-02</internalNodes>
          <leafValues>
            -6.4866900444030762e-01 4.7907970845699310e-02</leafValues></_>
        <_>
          <internalNodes>
            0 -1 1033 -1.6522727906703949e-02</internalNodes>
          <leafValues>
            3.8133683800697327e-01 -8.9777506887912750e-02</leafValues></_>
        <_>
          <internalNodes>
            0 -1 333 8.6167361587285995e-04</internalNodes>
          <leafValues>
            -1.6959325969219208e-01 2.0119550824165344e-01</leafValues></_>
        <_>
          <internalNodes>
            0 -1 328 -1.4646565541625023e-02</internalNodes>
          <leafValues>
            3.6716419458389282e-01 -8.2862623035907745e-02</leafValues></_>
        <_>
          <internalNodes>
            0 -1 1477 -1.7928743734955788e-02</internalNodes>
          <leafValues>
            3.5192859172821045e-01 -8.9767962694168091e-02</leafValues></_>
        <_>
          <internalNodes>
            0 -1 97 -4.5462808338925242e-04</internalNodes>
          <leafValues>
            3.3735510706901550e-01 -9.2954635620117188e-02</leafValues></_>
        <_>
          <internalNodes>
            0 -1 85 4.5261802151799202e-03</internalNodes>
          <leafValues>
            -1.9809812307357788e-01 1.5702877938747406e-01</leafValues></_>
        <_>
          <internalNodes>
            0 -1 258 -8.3508901298046112e-05</internalNodes>
          <leafValues>
            -2.4374057352542877e-01 1.2004863470792770e-01</leafValues></_>
        <_>
          <internalNodes>
            0 -1 1056 -5.8815767988562584e-04</internalNodes>
          <leafValues>
            -4.7866666316986084e-01 6.0088671743869781e-02</leafValues></_>
        <_>
          <internalNodes>
            0 -1 1202 -8.6549986153841019e-03</internalNodes>
          <leafValues>
            3.3916878700256348e-01 -8.7806224822998047e-02</leafValues></_>
        <_>
          <internalNodes>
            0 -1 351 -5.7961321435868740e-03</internalNodes>
          <leafValues>
            2.5874578952789307e-01 -1.0340924561023712e-01</leafValues></_>
        <_>
          <internalNodes>
            0 -1 573 1.7947952728718519e-03</internalNodes>
          <leafValues>
            -1.3183556497097015e-01 3.1457072496414185e-01</leafValues></_>
        <_>
          <internalNodes>
            0 -1 1481 -1.1717440560460091e-02</internalNodes>
          <leafValues>
            3.2971090078353882e-01 -9.4133257865905762e-02</leafValues></_>
        <_>
          <internalNodes>
            0 -1 611 -4.4705101754516363e-04</internalNodes>
          <leafValues>
            2.6017838716506958e-01 -1.1519198864698410e-01</leafValues></_>
        <_>
          <internalNodes>
            0 -1 86 -3.8990056514739990e-01</internalNodes>
          <leafValues>
            -8.3093607425689697e-01 3.8317035883665085e-02</leafValues></_>
        <_>
          <internalNodes>
            0 -1 1046 5.1234299317002296e-03</internalNodes>
          <leafValues>
            6.0308881103992462e-02 -4.0930089354515076e-01</leafValues></_>
        <_>
          <internalNodes>
            0 -1 1500 -5.4308932274580002e-02</internalNodes>
          <leafValues>
            -5.2222043275833130e-01 4.7335911542177200e-02</leafValues></_>
        <_>
          <internalNodes>
            0 -1 77 4.1242032311856747e-03</internalNodes>
          <leafValues>
            -9.2536866664886475e-02 3.0034101009368896e-01</leafValues></_>
        <_>
          <internalNodes>
            0 -1 40 -4.7490196302533150e-03</internalNodes>
          <leafValues>
            3.0837696790695190e-01 -1.0216084867715836e-01</leafValues></_>
        <_>
          <internalNodes>
            0 -1 1156 -2.9614181257784367e-03</internalNodes>
          <leafValues>
            -5.7517910003662109e-01 4.9707978963851929e-02</leafValues></_>
        <_>
          <internalNodes>
            0 -1 0 -2.5556785985827446e-03</internalNodes>
          <leafValues>
            -9.5369800925254822e-02 2.9731106758117676e-01</leafValues></_>
        <_>
          <internalNodes>
            0 -1 800 -1.9642412662506104e-03</internalNodes>
          <leafValues>
            6.9701358675956726e-02 -5.5803352594375610e-01</leafValues></_></weakClassifiers></_>
    <!-- stage 3 -->
    <_>
      <maxWeakCount>73</maxWeakCount>
      <stageThreshold>-1.1167627573013306e+00</stageThreshold>
      <weakClassifiers>
        <_>
          <internalNodes>
            0 -1 1264 1.6064006835222244e-02</internalNodes>
          <leafValues>
            -5.2751678228378296e-01 4.7368422150611877e-02</leafValues></_>
        <_>
          <internalNodes>
            0 -1 668 -7.5599635019898415e-03</internalNodes>
          <leafValues>
            3.9541754126548767e-01 -1.9697000086307526e-01</leafValues></_>
        <_>
          <internalNodes>
            0 -1 965 -6.2646836042404175e-02</internalNodes>
          <leafValues>
            -6.7826725542545319e-02 6.4829611778259277e-01</leafValues></_>
        <_>
          <internalNodes>
            0 -1 302 3.2771234400570393e-03</internalNodes>
          <leafValues>
            -2.5781685113906860e-01 2.1655827760696411e-01</leafValues></_>
        <_>
          <internalNodes>
            0 -1 1230 -1.8881492316722870e-02</internalNodes>
          <leafValues>
            2.4448885023593903e-01 -1.8359324336051941e-01</leafValues></_>
        <_>
          <internalNodes>
            0 -1 38 7.2866324335336685e-03</internalNodes>
          <leafValues>
            -8.6984440684318542e-02 4.6585008502006531e-01</leafValues></_>
        <_>
          <internalNodes>
            0 -1 1205 -8.0224415287375450e-03</internalNodes>
          <leafValues>
            -2.7641251683235168e-01 1.6303521394729614e-01</leafValues></_>
        <_>
          <internalNodes>
            0 -1 711 4.4599026441574097e-03</internalNodes>
          <leafValues>
            -1.5705712139606476e-01 2.6270237565040588e-01</leafValues></_>
        <_>
          <internalNodes>
            0 -1 1157 3.7305830046534538e-03</internalNodes>
          <leafValues>
            9.9208913743495941e-02 -4.3267321586608887e-01</leafValues></_>
        <_>
          <internalNodes>
            0 -1 1159 -2.1399276331067085e-02</internalNodes>
          <leafValues>
            -5.7406353950500488e-01 3.3170342445373535e-02</leafValues></_>
        <_>
          <internalNodes>
            0 -1 340 -7.6807122677564621e-03</internalNodes>
          <leafValues>
            2.8963416814804077e-01 -1.1486041545867920e-01</leafValues></_>
        <_>
          <internalNodes>
            0 -1 462 3.1733820214867592e-03</internalNodes>
          <leafValues>
            -9.5237135887145996e-02 3.6326861381530762e-01</leafValues></_>
        <_>
          <internalNodes>
            0 -1 159 8.2814022898674011e-03</internalNodes>
          <leafValues>
            5.3130071610212326e-02 -7.4378699064254761e-01</leafValues></_>
        <_>
          <internalNodes>
            0 -1 1447 8.9847296476364136e-04</internalNodes>
          <leafValues>
            -1.5873295068740845e-01 1.9579258561134338e-01</leafValues></_>
        <_>
          <internalNodes>
            0 -1 1393 -7.0793032646179199e-02</internalNodes>
          <leafValues>
            3.9981126785278320e-01 -7.5639627873897552e-02</leafValues></_>
        <_>
          <internalNodes>
            0 -1 804 -4.6828034101054072e-04</internalNodes>
          <leafValues>
            2.7815076708793640e-01 -9.9777124822139740e-02</leafValues></_>
        <_>
          <internalNodes>
            0 -1 44 -5.8622077107429504e-02</internalNodes>
          <leafValues>
            3.4153294563293457e-01 -7.6706431806087494e-02</leafValues></_>
        <_>
          <internalNodes>
            0 -1 421 3.0145701020956039e-02</internalNodes>
          <leafValues>
            -1.1073410511016846e-01 2.4986915290355682e-01</leafValues></_>
        <_>
          <internalNodes>
            0 -1 720 2.6452662423253059e-03</internalNodes>
          <leafValues>
            -1.1946641653776169e-01 2.4987238645553589e-01</leafValues></_>
        <_>
          <internalNodes>
            0 -1 885 -9.9896661937236786e-02</internalNodes>
          <leafValues>
            5.5330771207809448e-01 -6.3986971974372864e-02</leafValues></_>
        <_>
          <internalNodes>
            0 -1 154 3.0288074165582657e-02</internalNodes>
          <leafValues>
            -1.2273311614990234e-01 2.9207614064216614e-01</leafValues></_>
        <_>
          <internalNodes>
            0 -1 1110 2.1708466112613678e-02</internalNodes>
          <leafValues>
            -9.7908787429332733e-02 2.9186245799064636e-01</leafValues></_>
        <_>
          <internalNodes>
            0 -1 1164 -2.1057667210698128e-02</internalNodes>
          <leafValues>
            3.4865936636924744e-01 -7.4805155396461487e-02</leafValues></_>
        <_>
          <internalNodes>
            0 -1 1066 7.9300306970253587e-04</internalNodes>
          <leafValues>
            4.8404179513454437e-02 -5.6273341178894043e-01</leafValues></_>
        <_>
          <internalNodes>
            0 -1 684 -8.4860976785421371e-03</internalNodes>
          <leafValues>
            3.3768090605735779e-01 -8.1619024276733398e-02</leafValues></_>
        <_>
          <internalNodes>
            0 -1 1151 -3.0270759016275406e-02</internalNodes>
          <leafValues>
            -7.8991675376892090e-01 3.1937345862388611e-02</leafValues></_>
        <_>
          <internalNodes>
            0 -1 1178 1.7124818405136466e-03</internalNodes>
          <leafValues>
            -1.1026685684919357e-01 2.3127631843090057e-01</leafValues></_>
        <_>
          <internalNodes>
            0 -1 18 -2.3275095969438553e-02</internalNodes>
          <leafValues>
            -7.8728534281253815e-02 3.0730667710304260e-01</leafValues></_>
        <_>
          <internalNodes>
            0 -1 1075 2.2256495431065559e-03</internalNodes>
          <leafValues>
            -9.6476145088672638e-02 2.6457467675209045e-01</leafValues></_>
        <_>
          <internalNodes>
            0 -1 1017 -5.3479969501495361e-03</internalNodes>
          <leafValues>
            2.9801943898200989e-01 -1.1332254111766815e-01</leafValues></_>
        <_>
          <internalNodes>
            0 -1 132 -2.2560139186680317e-03</internalNodes>
          <leafValues>
            -3.7195679545402527e-01 6.9748178124427795e-02</leafValues></_>
        <_>
          <internalNodes>
            0 -1 779 2.9570464976131916e-03</internalNodes>
          <leafValues>
            3.7592418491840363e-02 -5.9646689891815186e-01</leafValues></_>
        <_>
          <internalNodes>
            0 -1 700 2.1946802735328674e-03</internalNodes>
          <leafValues>
            -6.8464033305644989e-02 3.6373686790466309e-01</leafValues></_>
        <_>
          <internalNodes>
            0 -1 11 -6.0321753844618797e-03</internalNodes>
          <leafValues>
            1.8419943749904633e-01 -1.3465866446495056e-01</leafValues></_>
        <_>
          <internalNodes>
            0 -1 39 4.4022672809660435e-03</internalNodes>
          <leafValues>
            -9.9463880062103271e-02 2.4071493744850159e-01</leafValues></_>
        <_>
          <internalNodes>
            0 -1 290 2.7943950146436691e-02</internalNodes>
          <leafValues>
            4.0713112801313400e-02 -7.4930739402770996e-01</leafValues></_>
        <_>
          <internalNodes>
            0 -1 1025 5.8805884327739477e-04</internalNodes>
          <leafValues>
            -1.3198782503604889e-01 1.8095949292182922e-01</leafValues></_>
        <_>
          <internalNodes>
            0 -1 1578 -7.1595199406147003e-03</internalNodes>
          <leafValues>
            4.4708731770515442e-01 -5.1687523722648621e-02</leafValues></_>
        <_>
          <internalNodes>
            0 -1 1480 -1.2397342361509800e-02</internalNodes>
          <leafValues>
            -6.2985765933990479e-01 4.1875753551721573e-02</leafValues></_>
        <_>
          <internalNodes>
            0 -1 1141 2.4577046278864145e-03</internalNodes>
          <leafValues>
            -9.5167540013790131e-02 2.4093846976757050e-01</leafValues></_>
        <_>
          <internalNodes>
            0 -1 803 4.2081303894519806e-02</internalNodes>
          <leafValues>
            6.4143709838390350e-02 -4.2162719368934631e-01</leafValues></_>
        <_>
          <internalNodes>
            0 -1 1246 -5.9598195366561413e-04</internalNodes>
          <leafValues>
            -3.5204172134399414e-01 5.7487137615680695e-02</leafValues></_>
        <_>
          <internalNodes>
            0 -1 331 -2.0459860097616911e-03</internalNodes>
          <leafValues>
            3.8649696111679077e-01 -5.9802416712045670e-02</leafValues></_>
        <_>
          <internalNodes>
            0 -1 614 1.7572514712810516e-02</internalNodes>
          <leafValues>
            -9.5542132854461670e-02 2.3085300624370575e-01</leafValues></_>
        <_>
          <internalNodes>
            0 -1 166 -7.9485711466986686e-05</internalNodes>
          <leafValues>
            -2.2688965499401093e-01 1.0085523873567581e-01</leafValues></_>
        <_>
          <internalNodes>
            0 -1 733 -2.3071537725627422e-03</internalNodes>
          <leafValues>
            -4.2570063471794128e-01 5.4275352507829666e-02</leafValues></_>
        <_>
          <internalNodes>
            0 -1 735 1.8894945969805121e-04</internalNodes>
          <leafValues>
            1.0240810364484787e-01 -2.5108179450035095e-01</leafValues></_>
        <_>
          <internalNodes>
            0 -1 23 2.5997000932693481e-01</internalNodes>
          <leafValues>
            7.3233149945735931e-02 -3.5818359255790710e-01</leafValues></_>
        <_>
          <internalNodes>
            0 -1 31 -2.9311574995517731e-02</internalNodes>
          <leafValues>
            -5.3104424476623535e-01 4.7587294131517410e-02</leafValues></_>
        <_>
          <internalNodes>
            0 -1 1508 3.3317141234874725e-02</internalNodes>
          <leafValues>
            3.7866491824388504e-02 -5.7656598091125488e-01</leafValues></_>
        <_>
          <internalNodes>
            0 -1 1513 1.4827370177954435e-03</internalNodes>
          <leafValues>
            1.0884323716163635e-01 -2.0881566405296326e-01</leafValues></_>
        <_>
          <internalNodes>
            0 -1 294 2.4748633801937103e-01</internalNodes>
          <leafValues>
            -9.8517179489135742e-02 2.3989807069301605e-01</leafValues></_>
        <_>
          <internalNodes>
            0 -1 204 -4.2420616373419762e-03</internalNodes>
          <leafValues>
            2.8560480475425720e-01 -8.0290421843528748e-02</leafValues></_>
        <_>
          <internalNodes>
            0 -1 826 -1.2037405744194984e-02</internalNodes>
          <leafValues>
            -4.3784946203231812e-01 4.5795738697052002e-02</leafValues></_>
        <_>
          <internalNodes>
            0 -1 1539 5.3466302342712879e-03</internalNodes>
          <leafValues>
            -5.1650654524564743e-02 3.8115978240966797e-01</leafValues></_>
        <_>
          <internalNodes>
            0 -1 344 -1.5007358044385910e-02</internalNodes>
          <leafValues>
            -9.0129518508911133e-01 2.2570550441741943e-02</leafValues></_>
        <_>
          <internalNodes>
            0 -1 615 1.9934268202632666e-03</internalNodes>
          <leafValues>
            -9.7482815384864807e-02 1.9824092090129852e-01</leafValues></_>
        <_>
          <internalNodes>
            0 -1 721 -1.6301597934216261e-03</internalNodes>
          <leafValues>
            2.2805184125900269e-01 -8.9581802487373352e-02</leafValues></_>
        <_>
          <internalNodes>
            0 -1 346 -9.1196835041046143e-02</internalNodes>
          <leafValues>
            -7.7391348779201508e-02 2.4993552267551422e-01</leafValues></_>
        <_>
          <internalNodes>
            0 -1 1358 -6.7010624334216118e-03</internalNodes>
          <leafValues>
            3.6833804100751877e-02 -6.3108098506927490e-01</leafValues></_>
        <_>
          <internalNodes>
            0 -1 1306 -1.3937942683696747e-01</internalNodes>
          <leafValues>
            -5.6452959775924683e-01 2.8694191947579384e-02</leafValues></_>
        <_>
          <internalNodes>
            0 -1 1519 9.7227087244391441e-03</internalNodes>
          <leafValues>
            -7.0990473031997681e-02 2.9736268520355225e-01</leafValues></_>
        <_>
          <internalNodes>
            0 -1 1050 -7.1725929155945778e-03</internalNodes>
          <leafValues>
            -6.7979717254638672e-01 2.9751859605312347e-02</leafValues></_>
        <_>
          <internalNodes>
            0 -1 928 1.0198499076068401e-03</internalNodes>
          <leafValues>
            -7.5390480458736420e-02 2.6104074716567993e-01</leafValues></_>
        <_>
          <internalNodes>
            0 -1 1307 1.9554616883397102e-03</internalNodes>
          <leafValues>
            2.7081938460469246e-02 -7.0946025848388672e-01</leafValues></_>
        <_>
          <internalNodes>
            0 -1 1567 -2.2871693363413215e-04</internalNodes>
          <leafValues>
            -2.5076624751091003e-01 7.0619054138660431e-02</leafValues></_>
        <_>
          <internalNodes>
            0 -1 1097 2.7802125259768218e-05</internalNodes>
          <leafValues>
            -2.0268543064594269e-01 9.3368962407112122e-02</leafValues></_>
        <_>
          <internalNodes>
            0 -1 1204 -6.5393734257668257e-04</internalNodes>
          <leafValues>
            2.6524764299392700e-01 -7.9342983663082123e-02</leafValues></_>
        <_>
          <internalNodes>
            0 -1 526 -1.9239810109138489e-01</internalNodes>
          <leafValues>
            -7.4964898824691772e-01 2.9021065682172775e-02</leafValues></_>
        <_>
          <internalNodes>
            0 -1 465 -1.1505806818604469e-02</internalNodes>
          <leafValues>
            2.8114870190620422e-01 -7.9299911856651306e-02</leafValues></_>
        <_>
          <internalNodes>
            0 -1 460 5.5168550461530685e-03</internalNodes>
          <leafValues>
            5.1237415522336960e-02 -4.8757460713386536e-01</leafValues></_>
        <_>
          <internalNodes>
            0 -1 833 2.9766452498733997e-03</internalNodes>
          <leafValues>
            3.2150357961654663e-02 -5.3826254606246948e-01</leafValues></_>
        <_>
          <internalNodes>
            0 -1 589 -8.4445541724562645e-03</internalNodes>
          <leafValues>
            -6.8996822834014893e-01 2.4933828040957451e-02</leafValues></_></weakClassifiers></_>
    <!-- stage 4 -->
    <_>
      <maxWeakCount>94</maxWeakCount>
      <stageThreshold>-1.0407788753509521e+00</stageThreshold>
      <weakClassifiers>
        <_>
          <internalNodes>
            0 -1 5 6.3673285767436028e-03</internalNodes>
          <leafValues>
            -4.3840986490249634e-01 7.1120686829090118e-02</leafValues></_>
        <_>
          <internalNodes>
            0 -1 740 4.9716578796505928e-03</internalNodes>
          <leafValues>
            9.5278508961200714e-02 -4.3813902139663696e-01</leafValues></_>
        <_>
          <internalNodes>
            0 -1 569 -2.4316933006048203e-02</internalNodes>
          <leafValues>
            2.6102066040039063e-01 -1.7338594794273376e-01</leafValues></_>
        <_>
          <internalNodes>
            0 -1 712 -3.5925056785345078e-02</internalNodes>
          <leafValues>
            -1.1088552325963974e-01 2.8401246666908264e-01</leafValues></_>
        <_>
          <internalNodes>
            0 -1 1074 -8.6913760751485825e-03</internalNodes>
          <leafValues>
            1.8540999293327332e-01 -2.2093348205089569e-01</leafValues></_>
        <_>
          <internalNodes>
            0 -1 864 -1.2180458754301071e-01</internalNodes>
          <leafValues>
            -3.7936132401227951e-02 6.1530053615570068e-01</leafValues></_>
        <_>
          <internalNodes>
            0 -1 80 5.0136232748627663e-03</internalNodes>
          <leafValues>
            -1.3772630691528320e-01 2.9673206806182861e-01</leafValues></_>
        <_>
          <internalNodes>
            0 -1 1545 -6.2244469299912453e-03</internalNodes>
          <leafValues>
            3.2270243763923645e-01 -1.0443767160177231e-01</leafValues></_>
        <_>
          <internalNodes>
            0 -1 609 5.7680185884237289e-02</internalNodes>
          <leafValues>
            7.1658976376056671e-02 -3.8526886701583862e-01</leafValues></_>
        <_>
          <internalNodes>
            0 -1 397 -1.9213862717151642e-01</internalNodes>
          <leafValues>
            7.5829839706420898e-01 -3.4057062119245529e-02</leafValues></_>
        <_>
          <internalNodes>
            0 -1 16 9.6883159130811691e-03</internalNodes>
          <leafValues>
            -1.9360131025314331e-01 1.4423972368240356e-01</leafValues></_>
        <_>
          <internalNodes>
            0 -1 119 -9.7428506705909967e-04</internalNodes>
          <leafValues>
            2.3050455749034882e-01 -1.3009126484394073e-01</leafValues></_>
        <_>
          <internalNodes>
            0 -1 241 8.3196731284260750e-03</internalNodes>
          <leafValues>
            -9.5299966633319855e-02 2.3499171435832977e-01</leafValues></_>
        <_>
          <internalNodes>
            0 -1 987 -3.4413645043969154e-03</internalNodes>
          <leafValues>
            -6.8602347373962402e-01 3.2997343689203262e-02</leafValues></_>
        <_>
          <internalNodes>
            0 -1 943 -1.3887064531445503e-02</internalNodes>
          <leafValues>
            3.4005290269851685e-01 -7.8850418329238892e-02</leafValues></_>
        <_>
          <internalNodes>
            0 -1 1087 1.2071011587977409e-03</internalNodes>
          <leafValues>
            -1.1534668505191803e-01 2.8418251872062683e-01</leafValues></_>
        <_>
          <internalNodes>
            0 -1 958 1.1003080289810896e-03</internalNodes>
          <leafValues>
            -1.1212087422609329e-01 2.3750641942024231e-01</leafValues></_>
        <_>
          <internalNodes>
            0 -1 888 -3.1396236736327410e-03</internalNodes>
          <leafValues>
            2.5326377153396606e-01 -1.0999841988086700e-01</leafValues></_>
        <_>
          <internalNodes>
            0 -1 1304 3.4595634788274765e-03</internalNodes>
          <leafValues>
            -7.7534265816211700e-02 2.8141832351684570e-01</leafValues></_>
        <_>
          <internalNodes>
            0 -1 1257 -2.9864856041967869e-03</internalNodes>
          <leafValues>
            3.2716211676597595e-01 -6.6348150372505188e-02</leafValues></_>
        <_>
          <internalNodes>
            0 -1 1461 1.0118676349520683e-02</internalNodes>
          <leafValues>
            -8.6141578853130341e-02 2.4732421338558197e-01</leafValues></_>
        <_>
          <internalNodes>
            0 -1 1376 -1.0009947232902050e-02</internalNodes>
          <leafValues>
            1.9611877202987671e-01 -1.3801363110542297e-01</leafValues></_>
        <_>
          <internalNodes>
            0 -1 332 -2.1076116710901260e-02</internalNodes>
          <leafValues>
            2.9807931184768677e-01 -7.0743128657341003e-02</leafValues></_>
        <_>
          <internalNodes>
            0 -1 168 -7.0748827420175076e-03</internalNodes>
          <leafValues>
            -3.5844255238771439e-02 5.9488421678543091e-01</leafValues></_>
        <_>
          <internalNodes>
            0 -1 1249 8.3945214748382568e-02</internalNodes>
          <leafValues>
            -1.5293747186660767e-01 1.4438924193382263e-01</leafValues></_>
        <_>
          <internalNodes>
            0 -1 1183 -5.3432630375027657e-03</internalNodes>
          <leafValues>
            -8.2997441291809082e-01 2.3336576297879219e-02</leafValues></_>
        <_>
          <internalNodes>
            0 -1 734 -1.3819151790812612e-03</internalNodes>
          <leafValues>
            1.5848013758659363e-01 -1.2394299358129501e-01</leafValues></_>
        <_>
          <internalNodes>
            0 -1 661 1.7031151801347733e-03</internalNodes>
          <leafValues>
            -1.0967559367418289e-01 1.8770386278629303e-01</leafValues></_>
        <_>
          <internalNodes>
            0 -1 975 9.1152702225372195e-04</internalNodes>
          <leafValues>
            7.0973545312881470e-02 -2.7496999502182007e-01</leafValues></_>
        <_>
          <internalNodes>
            0 -1 510 -3.5892263054847717e-02</internalNodes>
          <leafValues>
            -3.1469890475273132e-01 6.3284240663051605e-02</leafValues></_>
        <_>
          <internalNodes>
            0 -1 1403 3.1236236914992332e-02</internalNodes>
          <leafValues>
            3.2689351588487625e-02 -6.3018465042114258e-01</leafValues></_>
        <_>
          <internalNodes>
            0 -1 938 -5.7680677622556686e-02</internalNodes>
          <leafValues>
            -7.5365346670150757e-01 1.9814357161521912e-02</leafValues></_>
        <_>
          <internalNodes>
            0 -1 1415 3.7757486104965210e-02</internalNodes>
          <leafValues>
            -3.4572973847389221e-02 5.7852596044540405e-01</leafValues></_>
        <_>
          <internalNodes>
            0 -1 1180 1.4323322102427483e-03</internalNodes>
          <leafValues>
            3.1425181776285172e-02 -6.7104214429855347e-01</leafValues></_>
        <_>
          <internalNodes>
            0 -1 1337 4.2652944102883339e-03</internalNodes>
          <leafValues>
            -1.0008598864078522e-01 1.9689744710922241e-01</leafValues></_>
        <_>
          <internalNodes>
            0 -1 690 -2.1428546309471130e-01</internalNodes>
          <leafValues>
            -6.1196219921112061e-01 2.8378810733556747e-02</leafValues></_>
        <_>
          <internalNodes>
            0 -1 933 3.9106500335037708e-03</internalNodes>
          <leafValues>
            1.8047066405415535e-02 -7.8827536106109619e-01</leafValues></_>
        <_>
          <internalNodes>
            0 -1 1596 -5.2159383893013000e-02</internalNodes>
          <leafValues>
            3.0692607164382935e-01 -6.8644002079963684e-02</leafValues></_>
        <_>
          <internalNodes>
            0 -1 1592 -2.0621721632778645e-03</internalNodes>
          <leafValues>
            -5.9714909642934799e-02 3.4294170141220093e-01</leafValues></_>
        <_>
          <internalNodes>
            0 -1 957 -2.9507367871701717e-03</internalNodes>
          <leafValues>
            2.6684125885367393e-02 -8.1247913837432861e-01</leafValues></_>
        <_>
          <internalNodes>
            0 -1 1570 2.8791779186576605e-03</internalNodes>
          <leafValues>
            -6.8591818213462830e-02 2.9149428009986877e-01</leafValues></_>
        <_>
          <internalNodes>
            0 -1 1382 -8.1012882292270660e-03</internalNodes>
          <leafValues>
            2.8207573294639587e-01 -6.4488865435123444e-02</leafValues></_>
        <_>
          <internalNodes>
            0 -1 1385 3.6056404933333397e-03</internalNodes>
          <leafValues>
            -7.4275009334087372e-02 2.7898162603378296e-01</leafValues></_>
        <_>
          <internalNodes>
            0 -1 265 -4.1184850852005184e-04</internalNodes>
          <leafValues>
            -2.6571279764175415e-01 6.5907448530197144e-02</leafValues></_>
        <_>
          <internalNodes>
            0 -1 1570 -2.9114272911101580e-03</internalNodes>
          <leafValues>
            3.0754891037940979e-01 -5.8178532868623734e-02</leafValues></_>
        <_>
          <internalNodes>
            0 -1 1059 1.3403884368017316e-03</internalNodes>
          <leafValues>
            3.8757704198360443e-02 -4.4472745060920715e-01</leafValues></_>
        <_>
          <internalNodes>
            0 -1 228 1.6931989230215549e-03</internalNodes>
          <leafValues>
            -8.2894511520862579e-02 2.1372137963771820e-01</leafValues></_>
        <_>
          <internalNodes>
            0 -1 130 -4.9701612442731857e-03</internalNodes>
          <leafValues>
            2.0660895109176636e-01 -9.6897035837173462e-02</leafValues></_>
        <_>
          <internalNodes>
            0 -1 35 -4.4754904508590698e-01</internalNodes>
          <leafValues>
            3.3263394236564636e-01 -4.8497360199689865e-02</leafValues></_>
        <_>
          <internalNodes>
            0 -1 1441 9.2449020594358444e-03</internalNodes>
          <leafValues>
            -8.9260868728160858e-02 2.0667587220668793e-01</leafValues></_>
        <_>
          <internalNodes>
            0 -1 1142 5.4779080674052238e-03</internalNodes>
          <leafValues>
            -6.5625913441181183e-02 2.6207363605499268e-01</leafValues></_>
        <_>
          <internalNodes>
            0 -1 234 -1.7335520684719086e-01</internalNodes>
          <leafValues>
            -3.9484694600105286e-02 4.6040898561477661e-01</leafValues></_>
        <_>
          <internalNodes>
            0 -1 1244 -1.6265193698927760e-03</internalNodes>
          <leafValues>
            3.1132078170776367e-01 -5.8787774294614792e-02</leafValues></_>
        <_>
          <internalNodes>
            0 -1 1536 -1.4998110942542553e-02</internalNodes>
          <leafValues>
            -3.1894573569297791e-01 6.1252623796463013e-02</leafValues></_>
        <_>
          <internalNodes>
            0 -1 1036 -2.0340226590633392e-02</internalNodes>
          <leafValues>
            4.6880733966827393e-01 -4.0485385805368423e-02</leafValues></_>
        <_>
          <internalNodes>
            0 -1 202 7.0804312825202942e-02</internalNodes>
          <leafValues>
            -1.9741767644882202e-01 1.0161451250314713e-01</leafValues></_>
        <_>
          <internalNodes>
            0 -1 416 -3.7609197199344635e-02</internalNodes>
          <leafValues>
            4.3248146772384644e-01 -5.1654156297445297e-02</leafValues></_>
        <_>
          <internalNodes>
            0 -1 1167 -9.0779655147343874e-04</internalNodes>
          <leafValues>
            1.2546139955520630e-01 -1.5425218641757965e-01</leafValues></_>
        <_>
          <internalNodes>
            0 -1 1591 -6.7887369368690997e-05</internalNodes>
          <leafValues>
            -1.8880318105220795e-01 9.6470400691032410e-02</leafValues></_>
        <_>
          <internalNodes>
            0 -1 196 -1.4602993614971638e-03</internalNodes>
          <leafValues>
            2.2244830429553986e-01 -8.0271206796169281e-02</leafValues></_>
        <_>
          <internalNodes>
            0 -1 206 -5.7358834892511368e-03</internalNodes>
          <leafValues>
            2.9564294219017029e-01 -5.8616667985916138e-02</leafValues></_>
        <_>
          <internalNodes>
            0 -1 922 -1.8141612410545349e-02</internalNodes>
          <leafValues>
            -5.5697923898696899e-01 3.3866573125123978e-02</leafValues></_>
        <_>
          <internalNodes>
            0 -1 41 -3.8381814956665039e-02</internalNodes>
          <leafValues>
            -5.1843643188476563e-01 2.8096590191125870e-02</leafValues></_>
        <_>
          <internalNodes>
            0 -1 1181 1.1626058258116245e-03</internalNodes>
          <leafValues>
            2.8055870905518532e-02 -5.5010813474655151e-01</leafValues></_>
        <_>
          <internalNodes>
            0 -1 443 2.9365703463554382e-01</internalNodes>
          <leafValues>
            -2.5138460099697113e-02 7.2047770023345947e-01</leafValues></_>
        <_>
          <internalNodes>
            0 -1 1319 4.3015042319893837e-03</internalNodes>
          <leafValues>
            6.4443245530128479e-02 -2.6723039150238037e-01</leafValues></_>
        <_>
          <internalNodes>
            0 -1 1417 -3.4635610878467560e-02</internalNodes>
          <leafValues>
            4.2909279465675354e-01 -4.8986025154590607e-02</leafValues></_>
        <_>
          <internalNodes>
            0 -1 1070 -3.1170521397143602e-03</internalNodes>
          <leafValues>
            1.5313754975795746e-01 -1.0559935122728348e-01</leafValues></_>
        <_>
          <internalNodes>
            0 -1 165 -3.3727695699781179e-04</internalNodes>
          <leafValues>
            -2.6826900243759155e-01 5.9287488460540771e-02</leafValues></_>
        <_>
          <internalNodes>
            0 -1 1072 -4.2096920311450958e-02</internalNodes>
          <leafValues>
            2.0499858260154724e-01 -8.5266016423702240e-02</leafValues></_>
        <_>
          <internalNodes>
            0 -1 1456 -3.8297711871564388e-03</internalNodes>
          <leafValues>
            -4.3998613953590393e-01 3.9888609200716019e-02</leafValues></_>
        <_>
          <internalNodes>
            0 -1 565 6.4484175527468324e-04</internalNodes>
          <leafValues>
            -8.3086654543876648e-02 2.0970761775970459e-01</leafValues></_>
        <_>
          <internalNodes>
            0 -1 691 1.3967279810458422e-03</internalNodes>
          <leafValues>
            -8.3534061908721924e-02 1.9710981845855713e-01</leafValues></_>
        <_>
          <internalNodes>
            0 -1 1013 -2.8150985017418861e-03</internalNodes>
          <leafValues>
            -5.4297912120819092e-01 3.0607137829065323e-02</leafValues></_>
        <_>
          <internalNodes>
            0 -1 473 -9.0248780325055122e-03</internalNodes>
          <leafValues>
            -7.7740579843521118e-01 1.7334654927253723e-02</leafValues></_>
        <_>
          <internalNodes>
            0 -1 102 1.1988250538706779e-02</internalNodes>
          <leafValues>
            4.0354777127504349e-02 -3.5344222187995911e-01</leafValues></_>
        <_>
          <internalNodes>
            0 -1 29 2.3775381967425346e-02</internalNodes>
          <leafValues>
            -4.7189194709062576e-02 3.3501166105270386e-01</leafValues></_>
        <_>
          <internalNodes>
            0 -1 905 -6.0102239251136780e-02</internalNodes>
          <leafValues>
            4.4535630941390991e-01 -3.6337200552225113e-02</leafValues></_>
        <_>
          <internalNodes>
            0 -1 1401 -6.2612514011561871e-04</internalNodes>
          <leafValues>
            1.2322617322206497e-01 -1.3786999881267548e-01</leafValues></_>
        <_>
          <internalNodes>
            0 -1 961 -7.4550688266754150e-02</internalNodes>
          <leafValues>
            -6.0861825942993164e-02 3.1075161695480347e-01</leafValues></_>
        <_>
          <internalNodes>
            0 -1 775 -3.1179292127490044e-03</internalNodes>
          <leafValues>
            1.6039521992206573e-01 -1.0416601598262787e-01</leafValues></_>
        <_>
          <internalNodes>
            0 -1 1231 1.0660646948963404e-03</internalNodes>
          <leafValues>
            -1.2044697254896164e-01 1.7393580079078674e-01</leafValues></_>
        <_>
          <internalNodes>
            0 -1 840 -1.3821083121001720e-02</internalNodes>
          <leafValues>
            -9.0694326162338257e-01 1.7666988074779510e-02</leafValues></_>
        <_>
          <internalNodes>
            0 -1 913 7.4902502819895744e-04</internalNodes>
          <leafValues>
            6.9858565926551819e-02 -2.3561213910579681e-01</leafValues></_>
        <_>
          <internalNodes>
            0 -1 1579 1.2787322048097849e-03</internalNodes>
          <leafValues>
            -6.7334823310375214e-02 2.7652603387832642e-01</leafValues></_>
        <_>
          <internalNodes>
            0 -1 402 1.3228688621893525e-03</internalNodes>
          <leafValues>
            -1.0220707952976227e-01 1.6374069452285767e-01</leafValues></_>
        <_>
          <internalNodes>
            0 -1 1349 1.5069094300270081e-01</internalNodes>
          <leafValues>
            2.1451100707054138e-02 -7.3674607276916504e-01</leafValues></_>
        <_>
          <internalNodes>
            0 -1 10 -4.4302842579782009e-03</internalNodes>
          <leafValues>
            3.8633716106414795e-01 -4.4205963611602783e-02</leafValues></_>
        <_>
          <internalNodes>
            0 -1 670 -4.8077693209052086e-03</internalNodes>
          <leafValues>
            -4.7165411710739136e-01 3.6879498511552811e-02</leafValues></_>
        <_>
          <internalNodes>
            0 -1 1588 6.2260805862024426e-05</internalNodes>
          <leafValues>
            9.0961270034313202e-02 -1.7922009527683258e-01</leafValues></_>
        <_>
          <internalNodes>
            0 -1 1268 3.8469280116260052e-03</internalNodes>
          <leafValues>
            3.8663830608129501e-02 -3.8864424824714661e-01</leafValues></_>
        <_>
          <internalNodes>
            0 -1 320 -2.9665641486644745e-03</internalNodes>
          <leafValues>
            3.2139363884925842e-01 -4.8652742058038712e-02</leafValues></_>
        <_>
          <internalNodes>
            0 -1 1116 1.9226199015974998e-02</internalNodes>
          <leafValues>
            2.1591102704405785e-02 -7.5178498029708862e-01</leafValues></_>
        <_>
          <internalNodes>
            0 -1 1457 -1.0820203460752964e-03</internalNodes>
          <leafValues>
            2.3071786761283875e-01 -7.0297650992870331e-02</leafValues></_></weakClassifiers></_>
    <!-- stage 5 -->
    <_>
      <maxWeakCount>85</maxWeakCount>
      <stageThreshold>-1.0113168954849243e+00</stageThreshold>
      <weakClassifiers>
        <_>
          <internalNodes>
            0 -1 512 1.3840492069721222e-01</internalNodes>
          <leafValues>
            -5.7103574275970459e-01 3.0073350667953491e-01</leafValues></_>
        <_>
          <internalNodes>
            0 -1 754 -1.5337350964546204e-01</internalNodes>
          <leafValues>
            3.0629697442054749e-01 -2.5278335809707642e-01</leafValues></_>
        <_>
          <internalNodes>
            0 -1 406 5.6131258606910706e-03</internalNodes>
          <leafValues>
            -1.6131354868412018e-01 2.5730606913566589e-01</leafValues></_>
        <_>
          <internalNodes>
            0 -1 955 -2.1221111528575420e-03</internalNodes>
          <leafValues>
            7.2812914848327637e-02 -5.8704751729965210e-01</leafValues></_>
        <_>
          <internalNodes>
            0 -1 323 9.8833642899990082e-02</internalNodes>
          <leafValues>
            -3.4422624856233597e-02 6.2451750040054321e-01</leafValues></_>
        <_>
          <internalNodes>
            0 -1 560 -1.8929988145828247e-02</internalNodes>
          <leafValues>
            2.4633105099201202e-01 -1.0883679240942001e-01</leafValues></_>
        <_>
          <internalNodes>
            0 -1 567 3.6907461471855640e-03</internalNodes>
          <leafValues>
            -1.2829248607158661e-01 2.8778380155563354e-01</leafValues></_>
        <_>
          <internalNodes>
            0 -1 1115 6.2852324917912483e-03</internalNodes>
          <leafValues>
            7.2496131062507629e-02 -4.6385794878005981e-01</leafValues></_>
        <_>
          <internalNodes>
            0 -1 1244 9.0240279678255320e-04</internalNodes>
          <leafValues>
            -8.9668281376361847e-02 2.7433517575263977e-01</leafValues></_>
        <_>
          <internalNodes>
            0 -1 1154 -1.8604041542857885e-03</internalNodes>
          <leafValues>
            -3.9140716195106506e-01 5.3290024399757385e-02</leafValues></_>
        <_>
          <internalNodes>
            0 -1 1237 -2.6081199757754803e-03</internalNodes>
          <leafValues>
            2.5446113944053650e-01 -9.3271397054195404e-02</leafValues></_>
        <_>
          <internalNodes>
            0 -1 219 -9.1454321518540382e-03</internalNodes>
          <leafValues>
            1.6595859080553055e-02 -9.6767640113830566e-01</leafValues></_>
        <_>
          <internalNodes>
            0 -1 876 -8.6456261575222015e-02</internalNodes>
          <leafValues>
            -2.9413971304893494e-01 7.8075289726257324e-02</leafValues></_>
        <_>
          <internalNodes>
            0 -1 638 -6.2387347221374512e-02</internalNodes>
          <leafValues>
            -7.5902301073074341e-01 4.1456647217273712e-02</leafValues></_>
        <_>
          <internalNodes>
            0 -1 780 2.2559268400073051e-03</internalNodes>
          <leafValues>
            -1.0820288956165314e-01 2.1349100768566132e-01</leafValues></_>
        <_>
          <internalNodes>
            0 -1 858 4.8956857062876225e-03</internalNodes>
          <leafValues>
            2.4740064516663551e-02 -7.4070614576339722e-01</leafValues></_>
        <_>
          <internalNodes>
            0 -1 862 -7.7234525233507156e-03</internalNodes>
          <leafValues>
            1.4436544477939606e-01 -1.4809292554855347e-01</leafValues></_>
        <_>
          <internalNodes>
            0 -1 21 -6.3736088573932648e-02</internalNodes>
          <leafValues>
            -4.7048661112785339e-01 3.6622509360313416e-02</leafValues></_>
        <_>
          <internalNodes>
            0 -1 888 2.7454877272248268e-03</internalNodes>
          <leafValues>
            -1.1346562206745148e-01 1.7745512723922729e-01</leafValues></_>
        <_>
          <internalNodes>
            0 -1 755 9.7559543792158365e-04</internalNodes>
          <leafValues>
            7.2248004376888275e-02 -2.8386294841766357e-01</leafValues></_>
        <_>
          <internalNodes>
            0 -1 1170 1.3775235041975975e-02</internalNodes>
          <leafValues>
            -1.0025525838136673e-01 2.2491888701915741e-01</leafValues></_>
        <_>
          <internalNodes>
            0 -1 433 1.6625447571277618e-01</internalNodes>
          <leafValues>
            -5.8144409209489822e-02 3.3863073587417603e-01</leafValues></_>
        <_>
          <internalNodes>
            0 -1 900 4.0381401777267456e-02</internalNodes>
          <leafValues>
            -4.3159496039152145e-02 5.2431380748748779e-01</leafValues></_>
        <_>
          <internalNodes>
            0 -1 601 2.6117092929780483e-03</internalNodes>
          <leafValues>
            -7.0671536028385162e-02 3.0724075436592102e-01</leafValues></_>
        <_>
          <internalNodes>
            0 -1 898 2.4891146458685398e-03</internalNodes>
          <leafValues>
            -2.0020687580108643e-01 1.0654857009649277e-01</leafValues></_>
        <_>
          <internalNodes>
            0 -1 1093 -2.6260975748300552e-02</internalNodes>
          <leafValues>
            3.8364329934120178e-01 -5.6722987443208694e-02</leafValues></_>
        <_>
          <internalNodes>
            0 -1 524 -2.0580381155014038e-02</internalNodes>
          <leafValues>
            4.2221475392580032e-02 -5.3271889686584473e-01</leafValues></_>
        <_>
          <internalNodes>
            0 -1 157 -3.1014476553536952e-04</internalNodes>
          <leafValues>
            -2.6584878563880920e-01 7.4089333415031433e-02</leafValues></_>
        <_>
          <internalNodes>
            0 -1 336 5.2662151865661144e-03</internalNodes>
          <leafValues>
            -6.1358503997325897e-02 3.8081279397010803e-01</leafValues></_>
        <_>
          <internalNodes>
            0 -1 139 -1.4439810765907168e-03</internalNodes>
          <leafValues>
            2.6353055238723755e-01 -8.2156419754028320e-02</leafValues></_>
        <_>
          <internalNodes>
            0 -1 483 -5.0325423479080200e-02</internalNodes>
          <leafValues>
            -4.7264444828033447e-01 4.2281404137611389e-02</leafValues></_>
        <_>
          <internalNodes>
            0 -1 902 3.4352738875895739e-03</internalNodes>
          <leafValues>
            2.8990987688302994e-02 -5.7635223865509033e-01</leafValues></_>
        <_>
          <internalNodes>
            0 -1 906 9.3669892521575093e-04</internalNodes>
          <leafValues>
            5.5277019739151001e-02 -3.3085179328918457e-01</leafValues></_>
        <_>
          <internalNodes>
            0 -1 223 1.2416851520538330e-01</internalNodes>
          <leafValues>
            -3.3726904541254044e-02 6.8779659271240234e-01</leafValues></_>
        <_>
          <internalNodes>
            0 -1 1173 -8.3772502839565277e-03</internalNodes>
          <leafValues>
            1.9655068218708038e-01 -9.2931210994720459e-02</leafValues></_>
        <_>
          <internalNodes>
            0 -1 697 -9.0176239609718323e-03</internalNodes>
          <leafValues>
            2.8855389356613159e-01 -7.3920220136642456e-02</leafValues></_>
        <_>
          <internalNodes>
            0 -1 1207 -2.5168505962938070e-03</internalNodes>
          <leafValues>
            1.7609429359436035e-01 -1.1197532713413239e-01</leafValues></_>
        <_>
          <internalNodes>
            0 -1 895 2.5848770141601563e-01</internalNodes>
          <leafValues>
            -2.4995705112814903e-02 7.0803076028823853e-01</leafValues></_>
        <_>
          <internalNodes>
            0 -1 1103 -3.1830484658712521e-05</internalNodes>
          <leafValues>
            1.3382571935653687e-01 -1.5215875208377838e-01</leafValues></_>
        <_>
          <internalNodes>
            0 -1 1524 -1.0229692794382572e-02</internalNodes>
          <leafValues>
            4.2994844913482666e-01 -4.4613167643547058e-02</leafValues></_>
        <_>
          <internalNodes>
            0 -1 1582 6.7903632298111916e-03</internalNodes>
          <leafValues>
            -5.0729911774396896e-02 3.3873203396797180e-01</leafValues></_>
        <_>
          <internalNodes>
            0 -1 173 1.6208953456953168e-04</internalNodes>
          <leafValues>
            1.1786032468080521e-01 -1.5545219182968140e-01</leafValues></_>
        <_>
          <internalNodes>
            0 -1 1328 -7.4950922280550003e-03</internalNodes>
          <leafValues>
            -5.9661281108856201e-01 2.5180662050843239e-02</leafValues></_>
        <_>
          <internalNodes>
            0 -1 61 -2.5040858983993530e-01</internalNodes>
          <leafValues>
            -3.3603124320507050e-02 6.2639188766479492e-01</leafValues></_>
        <_>
          <internalNodes>
            0 -1 1147 -2.8442349284887314e-02</internalNodes>
          <leafValues>
            4.3310701847076416e-02 -5.5382299423217773e-01</leafValues></_>
        <_>
          <internalNodes>
            0 -1 950 -1.0267715901136398e-02</internalNodes>
          <leafValues>
            2.9798144102096558e-01 -7.4120625853538513e-02</leafValues></_>
        <_>
          <internalNodes>
            0 -1 285 -5.6562747340649366e-04</internalNodes>
          <leafValues>
            2.6106086373329163e-01 -7.1078650653362274e-02</leafValues></_>
        <_>
          <internalNodes>
            0 -1 461 -8.2130945520475507e-04</internalNodes>
          <leafValues>
            3.2627892494201660e-01 -5.4951570928096771e-02</leafValues></_>
        <_>
          <internalNodes>
            0 -1 147 2.3321051150560379e-02</internalNodes>
          <leafValues>
            -5.3372651338577271e-02 3.3321031928062439e-01</leafValues></_>
        <_>
          <internalNodes>
            0 -1 169 1.2781683355569839e-02</internalNodes>
          <leafValues>
            2.1776599809527397e-02 -8.6069226264953613e-01</leafValues></_>
        <_>
          <internalNodes>
            0 -1 349 -1.0069039650261402e-02</internalNodes>
          <leafValues>
            -4.7579449415206909e-01 3.1443316489458084e-02</leafValues></_>
        <_>
          <internalNodes>
            0 -1 257 -1.6370857134461403e-02</internalNodes>
          <leafValues>
            1.6893343627452850e-01 -1.0554170608520508e-01</leafValues></_>
        <_>
          <internalNodes>
            0 -1 378 -4.8292014002799988e-01</internalNodes>
          <leafValues>
            5.9220570325851440e-01 -3.0931266024708748e-02</leafValues></_>
        <_>
          <internalNodes>
            0 -1 439 -2.0133987069129944e-01</internalNodes>
          <leafValues>
            5.7257401943206787e-01 -2.6262890547513962e-02</leafValues></_>
        <_>
          <internalNodes>
            0 -1 617 -1.4110355637967587e-02</internalNodes>
          <leafValues>
            -2.3378571867942810e-01 7.4666157364845276e-02</leafValues></_>
        <_>
          <internalNodes>
            0 -1 1547 -2.1365288645029068e-02</internalNodes>
          <leafValues>
            -2.3645830154418945e-01 6.7555785179138184e-02</leafValues></_>
        <_>
          <internalNodes>
            0 -1 830 -2.5355797260999680e-03</internalNodes>
          <leafValues>
            -4.4213098287582397e-01 3.3925235271453857e-02</leafValues></_>
        <_>
          <internalNodes>
            0 -1 79 1.8408568575978279e-02</internalNodes>
          <leafValues>
            2.7264541015028954e-02 -5.1105761528015137e-01</leafValues></_>
        <_>
          <internalNodes>
            0 -1 207 3.3366632123943418e-05</internalNodes>
          <leafValues>
            -1.9355638325214386e-01 8.8533982634544373e-02</leafValues></_>
        <_>
          <internalNodes>
            0 -1 65 4.0842844173312187e-03</internalNodes>
          <leafValues>
            2.4814404547214508e-02 -5.8087807893753052e-01</leafValues></_>
        <_>
          <internalNodes>
            0 -1 1032 -5.4943113354966044e-04</internalNodes>
          <leafValues>
            1.9013515114784241e-01 -8.8280260562896729e-02</leafValues></_>
        <_>
          <internalNodes>
            0 -1 507 -3.3180774189531803e-03</internalNodes>
          <leafValues>
            2.8757053613662720e-01 -5.3556606173515320e-02</leafValues></_>
        <_>
          <internalNodes>
            0 -1 1129 -4.0058813989162445e-02</internalNodes>
          <leafValues>
            -5.5944627523422241e-01 3.0861129984259605e-02</leafValues></_>
        <_>
          <internalNodes>
            0 -1 559 -1.1663574725389481e-02</internalNodes>
          <leafValues>
            2.2869786247611046e-02 -6.1247009038925171e-01</leafValues></_>
        <_>
          <internalNodes>
            0 -1 455 -1.4896069653332233e-02</internalNodes>
          <leafValues>
            -6.7614817619323730e-01 2.1052801981568336e-02</leafValues></_>
        <_>
          <internalNodes>
            0 -1 64 -1.9705237355083227e-03</internalNodes>
          <leafValues>
            2.5272813439369202e-01 -6.5387234091758728e-02</leafValues></_>
        <_>
          <internalNodes>
            0 -1 104 -2.0833900198340416e-03</internalNodes>
          <leafValues>
            -4.0507343411445618e-01 3.6311440169811249e-02</leafValues></_>
        <_>
          <internalNodes>
            0 -1 1387 -5.2508962107822299e-04</internalNodes>
          <leafValues>
            1.7393659055233002e-01 -8.4864422678947449e-02</leafValues></_>
        <_>
          <internalNodes>
            0 -1 1390 7.1795992553234100e-03</internalNodes>
          <leafValues>
            2.5775799527764320e-02 -5.9642148017883301e-01</leafValues></_>
        <_>
          <internalNodes>
            0 -1 1504 1.3308140914887190e-03</internalNodes>
          <leafValues>
            -1.2404415011405945e-01 1.1613600701093674e-01</leafValues></_>
        <_>
          <internalNodes>
            0 -1 1311 1.7135515809059143e-02</internalNodes>
          <leafValues>
            2.4272767826914787e-02 -6.7365640401840210e-01</leafValues></_>
        <_>
          <internalNodes>
            0 -1 1601 -4.3589435517787933e-04</internalNodes>
          <leafValues>
            -1.5358640253543854e-01 9.8951883614063263e-02</leafValues></_>
        <_>
          <internalNodes>
            0 -1 1589 7.9771867603994906e-05</internalNodes>
          <leafValues>
            9.0404421091079712e-02 -1.7481745779514313e-01</leafValues></_>
        <_>
          <internalNodes>
            0 -1 431 8.1982207484543324e-04</internalNodes>
          <leafValues>
            6.6611230373382568e-02 -2.2960689663887024e-01</leafValues></_>
        <_>
          <internalNodes>
            0 -1 1299 7.5461203232407570e-04</internalNodes>
          <leafValues>
            -8.4543168544769287e-02 1.8629899621009827e-01</leafValues></_>
        <_>
          <internalNodes>
            0 -1 532 -3.1968366820365191e-03</internalNodes>
          <leafValues>
            -4.1986215114593506e-01 3.8384817540645599e-02</leafValues></_>
        <_>
          <internalNodes>
            0 -1 1489 3.3772285096347332e-03</internalNodes>
          <leafValues>
            -7.0936612784862518e-02 2.0830333232879639e-01</leafValues></_>
        <_>
          <internalNodes>
            0 -1 1381 -1.6437698155641556e-02</internalNodes>
          <leafValues>
            2.3061546683311462e-01 -9.5602430403232574e-02</leafValues></_>
        <_>
          <internalNodes>
            0 -1 971 9.4515946693718433e-04</internalNodes>
          <leafValues>
            5.9039454907178879e-02 -2.6522555947303772e-01</leafValues></_>
        <_>
          <internalNodes>
            0 -1 591 -2.6362374424934387e-02</internalNodes>
          <leafValues>
            4.0735563635826111e-01 -3.8974978029727936e-02</leafValues></_>
        <_>
          <internalNodes>
            0 -1 487 7.4078058823943138e-03</internalNodes>
          <leafValues>
            -9.6853546798229218e-02 1.8453095853328705e-01</leafValues></_>
        <_>
          <internalNodes>
            0 -1 472 -3.7157273618504405e-04</internalNodes>
          <leafValues>
            -2.6053684949874878e-01 5.8043371886014938e-02</leafValues></_>
        <_>
          <internalNodes>
            0 -1 881 -1.9976464682258666e-04</internalNodes>
          <leafValues>
            1.6542679071426392e-01 -9.0655259788036346e-02</leafValues></_>
        <_>
          <internalNodes>
            0 -1 538 3.1667097937315702e-04</internalNodes>
          <leafValues>
            7.0064179599285126e-02 -2.1670730412006378e-01</leafValues></_>
        <_>
          <internalNodes>
            0 -1 992 -6.8595656193792820e-04</internalNodes>
          <leafValues>
            2.0738618075847626e-01 -7.8117795288562775e-02</leafValues></_></weakClassifiers></_>
    <!-- stage 6 -->
    <_>
      <maxWeakCount>91</maxWeakCount>
      <stageThreshold>-9.5334661006927490e-01</stageThreshold>
      <weakClassifiers>
        <_>
          <internalNodes>
            0 -1 387 2.7447807788848877e-01</internalNodes>
          <leafValues>
            -4.4961637258529663e-01 4.3728813529014587e-01</leafValues></_>
        <_>
          <internalNodes>
            0 -1 831 1.7091875197365880e-03</internalNodes>
          <leafValues>
            6.2773451209068298e-02 -5.3723901510238647e-01</leafValues></_>
        <_>
          <internalNodes>
            0 -1 1158 3.2145353034138680e-03</internalNodes>
          <leafValues>
            6.4811624586582184e-02 -5.8427125215530396e-01</leafValues></_>
        <_>
          <internalNodes>
            0 -1 1158 3.3602197654545307e-03</internalNodes>
          <leafValues>
            -1.2468278873711824e-04 9.1371452808380127e-01</leafValues></_>
        <_>
          <internalNodes>
            0 -1 1158 3.3804150298237801e-03</internalNodes>
          <leafValues>
            3.0408301972784102e-04 -7.5776875019073486e-01</leafValues></_>
        <_>
          <internalNodes>
            0 -1 1121 4.6081675100140274e-04</internalNodes>
          <leafValues>
            6.3254192471504211e-02 -4.8138272762298584e-01</leafValues></_>
        <_>
          <internalNodes>
            0 -1 1187 -9.1208880767226219e-03</internalNodes>
          <leafValues>
            2.2133216261863708e-01 -1.4452567696571350e-01</leafValues></_>
        <_>
          <internalNodes>
            0 -1 1108 -1.3572846353054047e-01</internalNodes>
          <leafValues>
            -8.6987549066543579e-01 3.8124881684780121e-02</leafValues></_>
        <_>
          <internalNodes>
            0 -1 1043 6.2636425718665123e-04</internalNodes>
          <leafValues>
            5.9536650776863098e-02 -4.6685495972633362e-01</leafValues></_>
        <_>
          <internalNodes>
            0 -1 689 1.5509339049458504e-02</internalNodes>
          <leafValues>
            -9.8268307745456696e-02 2.8304982185363770e-01</leafValues></_>
        <_>
          <internalNodes>
            0 -1 1246 7.2681077290326357e-04</internalNodes>
          <leafValues>
            2.1468048915266991e-02 -4.7543054819107056e-01</leafValues></_>
        <_>
          <internalNodes>
            0 -1 36 3.8980555534362793e-01</internalNodes>
          <leafValues>
            3.1203279271721840e-02 -7.4457275867462158e-01</leafValues></_>
        <_>
          <internalNodes>
            0 -1 931 6.6846911795437336e-04</internalNodes>
          <leafValues>
            5.0683487206697464e-02 -4.2767643928527832e-01</leafValues></_>
        <_>
          <internalNodes>
            0 -1 376 5.7201338931918144e-03</internalNodes>
          <leafValues>
            -6.1948526650667191e-02 3.6702048778533936e-01</leafValues></_>
        <_>
          <internalNodes>
            0 -1 1105 -5.3598228987539187e-05</internalNodes>
          <leafValues>
            1.0983997583389282e-01 -2.1973575651645660e-01</leafValues></_>
        <_>
          <internalNodes>
            0 -1 1041 -3.0001388862729073e-02</internalNodes>
          <leafValues>
            -4.3848213553428650e-01 4.3612789362668991e-02</leafValues></_>
        <_>
          <internalNodes>
            0 -1 1247 -4.3120579794049263e-03</internalNodes>
          <leafValues>
            -6.8590468168258667e-01 3.0730910599231720e-02</leafValues></_>
        <_>
          <internalNodes>
            0 -1 425 -4.7880718484520912e-03</internalNodes>
          <leafValues>
            -7.2841995954513550e-01 2.5161523371934891e-02</leafValues></_>
        <_>
          <internalNodes>
            0 -1 179 -2.3331260308623314e-03</internalNodes>
          <leafValues>
            1.9326335191726685e-01 -9.9190525710582733e-02</leafValues></_>
        <_>
          <internalNodes>
            0 -1 997 -4.8060500994324684e-03</internalNodes>
          <leafValues>
            -6.8382948637008667e-01 2.6846906170248985e-02</leafValues></_>
        <_>
          <internalNodes>
            0 -1 1063 -1.4062267728149891e-03</internalNodes>
          <leafValues>
            -4.7060269117355347e-01 3.8541793823242188e-02</leafValues></_>
        <_>
          <internalNodes>
            0 -1 875 -9.0461187064647675e-03</internalNodes>
          <leafValues>
            3.2029587030410767e-01 -6.1377368867397308e-02</leafValues></_>
        <_>
          <internalNodes>
            0 -1 942 8.2540456205606461e-03</internalNodes>
          <leafValues>
            -9.2056237161159515e-02 2.4491307139396667e-01</leafValues></_>
        <_>
          <internalNodes>
            0 -1 492 -5.9224732220172882e-02</internalNodes>
          <leafValues>
            -3.2969895005226135e-01 6.7209899425506592e-02</leafValues></_>
        <_>
          <internalNodes>
            0 -1 1166 9.1228261590003967e-04</internalNodes>
          <leafValues>
            5.4026231169700623e-02 -3.8389447331428528e-01</leafValues></_>
        <_>
          <internalNodes>
            0 -1 252 -2.4584494531154633e-04</internalNodes>
          <leafValues>
            -1.7625476419925690e-01 1.1602170020341873e-01</leafValues></_>
        <_>
          <internalNodes>
            0 -1 165 4.0898256702348590e-04</internalNodes>
          <leafValues>
            6.7436732351779938e-02 -3.1463381648063660e-01</leafValues></_>
        <_>
          <internalNodes>
            0 -1 1012 -2.1136673167347908e-03</internalNodes>
          <leafValues>
            4.2802710086107254e-02 -4.6432814002037048e-01</leafValues></_>
        <_>
          <internalNodes>
            0 -1 112 3.1985868699848652e-03</internalNodes>
          <leafValues>
            -1.1292371898889542e-01 1.7672905325889587e-01</leafValues></_>
        <_>
          <internalNodes>
            0 -1 187 -2.4455791711807251e-01</internalNodes>
          <leafValues>
            -5.2686151117086411e-02 4.0478831529617310e-01</leafValues></_>
        <_>
          <internalNodes>
            0 -1 384 -1.8350357422605157e-03</internalNodes>
          <leafValues>
            1.9374988973140717e-01 -9.5586024224758148e-02</leafValues></_>
        <_>
          <internalNodes>
            0 -1 1538 -3.4822863526642323e-03</internalNodes>
          <leafValues>
            -5.4688245058059692e-01 2.9568972066044807e-02</leafValues></_>
        <_>
          <internalNodes>
            0 -1 185 -6.6827103495597839e-02</internalNodes>
          <leafValues>
            -4.7446855902671814e-01 3.5307463258504868e-02</leafValues></_>
        <_>
          <internalNodes>
            0 -1 94 -1.5467294491827488e-02</internalNodes>
          <leafValues>
            2.2678673267364502e-01 -8.6319595575332642e-02</leafValues></_>
        <_>
          <internalNodes>
            0 -1 163 4.7923717647790909e-03</internalNodes>
          <leafValues>
            -1.0723365098237991e-01 1.7290967702865601e-01</leafValues></_>
        <_>
          <internalNodes>
            0 -1 218 -2.8138004243373871e-02</internalNodes>
          <leafValues>
            -3.5895851254463196e-01 5.7667296379804611e-02</leafValues></_>
        <_>
          <internalNodes>
            0 -1 1316 -5.2482285536825657e-04</internalNodes>
          <leafValues>
            1.4255957305431366e-01 -1.4353401958942413e-01</leafValues></_>
        <_>
          <internalNodes>
            0 -1 743 8.5995829431340098e-04</internalNodes>
          <leafValues>
            5.4898455739021301e-02 -3.3029142022132874e-01</leafValues></_>
        <_>
          <internalNodes>
            0 -1 686 6.2357764691114426e-03</internalNodes>
          <leafValues>
            2.2770341485738754e-02 -7.8689932823181152e-01</leafValues></_>
        <_>
          <internalNodes>
            0 -1 164 1.0112135671079159e-02</internalNodes>
          <leafValues>
            -7.2114303708076477e-02 2.8044441342353821e-01</leafValues></_>
        <_>
          <internalNodes>
            0 -1 1367 -3.4282386768609285e-03</internalNodes>
          <leafValues>
            -3.4586700797080994e-01 5.3287375718355179e-02</leafValues></_>
        <_>
          <internalNodes>
            0 -1 767 2.5780205614864826e-03</internalNodes>
          <leafValues>
            -9.1191448271274567e-02 1.9594138860702515e-01</leafValues></_>
        <_>
          <internalNodes>
            0 -1 1531 -3.5691063385456800e-04</internalNodes>
          <leafValues>
            -2.4827009439468384e-01 7.4279703199863434e-02</leafValues></_>
        <_>
          <internalNodes>
            0 -1 466 1.0238805785775185e-02</internalNodes>
          <leafValues>
            2.4751700460910797e-02 -6.6277784109115601e-01</leafValues></_>
        <_>
          <internalNodes>
            0 -1 1290 -1.2911786325275898e-03</internalNodes>
          <leafValues>
            3.4585541486740112e-01 -5.4706312716007233e-02</leafValues></_>
        <_>
          <internalNodes>
            0 -1 892 3.8222193717956543e-02</internalNodes>
          <leafValues>
            -3.4149307757616043e-02 5.6423139572143555e-01</leafValues></_>
        <_>
          <internalNodes>
            0 -1 1392 3.1189937144517899e-03</internalNodes>
          <leafValues>
            -1.0461267083883286e-01 1.6610004007816315e-01</leafValues></_>
        <_>
          <internalNodes>
            0 -1 1026 -6.1680199578404427e-03</internalNodes>
          <leafValues>
            -5.5266791582107544e-01 3.2657209783792496e-02</leafValues></_>
        <_>
          <internalNodes>
            0 -1 1245 -6.6150544444099069e-04</internalNodes>
          <leafValues>
            1.9101339578628540e-01 -9.6192114055156708e-02</leafValues></_>
        <_>
          <internalNodes>
            0 -1 1236 -1.6089717391878366e-03</internalNodes>
          <leafValues>
            1.2160012125968933e-01 -1.5128928422927856e-01</leafValues></_>
        <_>
          <internalNodes>
            0 -1 1415 -5.2314775530248880e-04</internalNodes>
          <leafValues>
            1.1610990017652512e-01 -1.5318366885185242e-01</leafValues></_>
        <_>
          <internalNodes>
            0 -1 1518 -4.1501503437757492e-03</internalNodes>
          <leafValues>
            3.0054715275764465e-01 -6.0260131955146790e-02</leafValues></_>
        <_>
          <internalNodes>
            0 -1 778 1.9682520069181919e-03</internalNodes>
          <leafValues>
            3.8929443806409836e-02 -4.6147912740707397e-01</leafValues></_>
        <_>
          <internalNodes>
            0 -1 1334 5.7490998879075050e-03</internalNodes>
          <leafValues>
            -4.9849513918161392e-02 3.3938631415367126e-01</leafValues></_>
        <_>
          <internalNodes>
            0 -1 813 2.6999590918421745e-03</internalNodes>
          <leafValues>
            -1.4697685837745667e-01 1.2509210407733917e-01</leafValues></_>
        <_>
          <internalNodes>
            0 -1 390 1.1648510117083788e-03</internalNodes>
          <leafValues>
            -7.4394702911376953e-02 2.2663477063179016e-01</leafValues></_>
        <_>
          <internalNodes>
            0 -1 65 -5.4102612193673849e-04</internalNodes>
          <leafValues>
            -2.5975760817527771e-01 6.2670029699802399e-02</leafValues></_>
        <_>
          <internalNodes>
            0 -1 150 -2.6337219402194023e-02</internalNodes>
          <leafValues>
            -5.0717520713806152e-01 3.0024513602256775e-02</leafValues></_>
        <_>
          <internalNodes>
            0 -1 342 -5.4500987753272057e-03</internalNodes>
          <leafValues>
            -4.1330808401107788e-01 3.8477811962366104e-02</leafValues></_>
        <_>
          <internalNodes>
            0 -1 845 6.3412631861865520e-03</internalNodes>
          <leafValues>
            -7.1946218609809875e-02 2.5353404879570007e-01</leafValues></_>
        <_>
          <internalNodes>
            0 -1 1323 -4.7722324961796403e-04</internalNodes>
          <leafValues>
            1.4423274993896484e-01 -1.2388501316308975e-01</leafValues></_>
        <_>
          <internalNodes>
            0 -1 452 1.7729587852954865e-02</internalNodes>
          <leafValues>
            -5.7889863848686218e-02 2.9558825492858887e-01</leafValues></_>
        <_>
          <internalNodes>
            0 -1 531 1.4014345407485962e-01</internalNodes>
          <leafValues>
            -4.2685095220804214e-02 4.0499934554100037e-01</leafValues></_>
        <_>
          <internalNodes>
            0 -1 1351 -2.6483624242246151e-03</internalNodes>
          <leafValues>
            2.0529185235500336e-01 -7.8889533877372742e-02</leafValues></_>
        <_>
          <internalNodes>
            0 -1 1092 -5.5547561496496201e-03</internalNodes>
          <leafValues>
            2.7716034650802612e-01 -6.5201453864574432e-02</leafValues></_>
        <_>
          <internalNodes>
            0 -1 1185 -1.1725851334631443e-02</internalNodes>
          <leafValues>
            -6.8978846073150635e-01 2.6165755465626717e-02</leafValues></_>
        <_>
          <internalNodes>
            0 -1 1201 -1.6789087094366550e-03</internalNodes>
          <leafValues>
            1.7729659378528595e-01 -9.4952769577503204e-02</leafValues></_>
        <_>
          <internalNodes>
            0 -1 1184 -1.7648356733843684e-03</internalNodes>
          <leafValues>
            1.7851172387599945e-01 -1.0222703963518143e-01</leafValues></_>
        <_>
          <internalNodes>
            0 -1 822 -2.4402330163866282e-03</internalNodes>
          <leafValues>
            -4.6044272184371948e-01 3.7173591554164886e-02</leafValues></_>
        <_>
          <internalNodes>
            0 -1 1372 -3.4565456211566925e-02</internalNodes>
          <leafValues>
            -5.9278167784214020e-02 3.1110936403274536e-01</leafValues></_>
        <_>
          <internalNodes>
            0 -1 525 -9.1602936387062073e-02</internalNodes>
          <leafValues>
            3.6203641444444656e-02 -5.2689224481582642e-01</leafValues></_>
        <_>
          <internalNodes>
            0 -1 4 1.1162064038217068e-02</internalNodes>
          <leafValues>
            -4.4487744569778442e-02 4.2526629567146301e-01</leafValues></_>
        <_>
          <internalNodes>
            0 -1 1389 1.1919064447283745e-02</internalNodes>
          <leafValues>
            2.2037861868739128e-02 -8.8150590658187866e-01</leafValues></_>
        <_>
          <internalNodes>
            0 -1 523 -7.3925398290157318e-02</internalNodes>
          <leafValues>
            -5.9140676259994507e-01 2.2771762683987617e-02</leafValues></_>
        <_>
          <internalNodes>
            0 -1 866 7.9359393566846848e-03</internalNodes>
          <leafValues>
            -8.3975888788700104e-02 2.3098948597908020e-01</leafValues></_>
        <_>
          <internalNodes>
            0 -1 514 -6.0514558572322130e-04</internalNodes>
          <leafValues>
            1.7019866406917572e-01 -9.5424525439739227e-02</leafValues></_>
        <_>
          <internalNodes>
            0 -1 939 -4.9323715269565582e-02</internalNodes>
          <leafValues>
            -4.8904526233673096e-01 3.1481999903917313e-02</leafValues></_>
        <_>
          <internalNodes>
            0 -1 386 -5.2121866494417191e-02</internalNodes>
          <leafValues>
            -5.3093010187149048e-01 2.8188295662403107e-02</leafValues></_>
        <_>
          <internalNodes>
            0 -1 1066 1.4438841026276350e-03</internalNodes>
          <leafValues>
            1.7219951376318932e-02 -7.3285216093063354e-01</leafValues></_>
        <_>
          <internalNodes>
            0 -1 879 -3.2179134432226419e-03</internalNodes>
          <leafValues>
            2.3198799788951874e-01 -7.5081884860992432e-02</leafValues></_>
        <_>
          <internalNodes>
            0 -1 869 -2.1864108741283417e-02</internalNodes>
          <leafValues>
            -5.5022281408309937e-01 2.9017396271228790e-02</leafValues></_>
        <_>
          <internalNodes>
            0 -1 602 -3.2076162751764059e-03</internalNodes>
          <leafValues>
            2.3626245558261871e-01 -6.2936782836914063e-02</leafValues></_>
        <_>
          <internalNodes>
            0 -1 798 3.0130101367831230e-04</internalNodes>
          <leafValues>
            -1.1506582051515579e-01 1.4611257612705231e-01</leafValues></_>
        <_>
          <internalNodes>
            0 -1 411 5.0694987177848816e-02</internalNodes>
          <leafValues>
            -1.8488850444555283e-02 8.8798767328262329e-01</leafValues></_>
        <_>
          <internalNodes>
            0 -1 1177 2.0351079292595387e-03</internalNodes>
          <leafValues>
            -7.4489362537860870e-02 1.9369778037071228e-01</leafValues></_>
        <_>
          <internalNodes>
            0 -1 1104 -1.8208645284175873e-02</internalNodes>
          <leafValues>
            -4.0457269549369812e-01 3.6585416644811630e-02</leafValues></_>
        <_>
          <internalNodes>
            0 -1 1208 -1.0767108760774136e-03</internalNodes>
          <leafValues>
            1.5623642131686211e-02 -7.9764211177825928e-01</leafValues></_>
        <_>
          <internalNodes>
            0 -1 28 -9.0363919734954834e-03</internalNodes>
          <leafValues>
            -5.0673097372055054e-02 3.3663389086723328e-01</leafValues></_>
        <_>
          <internalNodes>
            0 -1 543 -2.8885984793305397e-03</internalNodes>
          <leafValues>
            -4.6077448129653931e-01 3.6116518080234528e-02</leafValues></_>
        <_>
          <internalNodes>
            0 -1 1324 1.1616330593824387e-03</internalNodes>
          <leafValues>
            -8.4726564586162567e-02 1.6849833726882935e-01</leafValues></_>
        <_>
          <internalNodes>
            0 -1 1196 1.7990835011005402e-02</internalNodes>
          <leafValues>
            -6.2106218189001083e-02 2.2927230596542358e-01</leafValues></_></weakClassifiers></_>
    <!-- stage 7 -->
    <_>
      <maxWeakCount>100</maxWeakCount>
      <stageThreshold>-1.0528968572616577e+00</stageThreshold>
      <weakClassifiers>
        <_>
          <internalNodes>
            0 -1 62 1.9125156104564667e-01</internalNodes>
          <leafValues>
            -4.9173027276992798e-01 3.3923305571079254e-02</leafValues></_>
        <_>
          <internalNodes>
            0 -1 1459 1.3151676394045353e-03</internalNodes>
          <leafValues>
            6.6125541925430298e-02 -3.7206950783729553e-01</leafValues></_>
        <_>
          <internalNodes>
            0 -1 610 -5.3204573690891266e-02</internalNodes>
          <leafValues>
            -3.7827348709106445e-01 7.8983202576637268e-02</leafValues></_>
        <_>
          <internalNodes>
            0 -1 865 5.7618464343249798e-03</internalNodes>
          <leafValues>
            -1.2692601978778839e-01 2.1974156796932220e-01</leafValues></_>
        <_>
          <internalNodes>
            0 -1 937 -7.5912913307547569e-03</internalNodes>
          <leafValues>
            2.2899825870990753e-01 -1.1205071210861206e-01</leafValues></_>
        <_>
          <internalNodes>
            0 -1 1542 -5.6539615616202354e-04</internalNodes>
          <leafValues>
            -2.9474982619285583e-01 9.6062406897544861e-02</leafValues></_>
        <_>
          <internalNodes>
            0 -1 821 4.0169280022382736e-02</internalNodes>
          <leafValues>
            3.4596934914588928e-02 -5.0570553541183472e-01</leafValues></_>
        <_>
          <internalNodes>
            0 -1 1288 2.8601728845387697e-03</internalNodes>
          <leafValues>
            -4.7461438924074173e-02 4.0954005718231201e-01</leafValues></_>
        <_>
          <internalNodes>
            0 -1 1066 -5.1729241386055946e-04</internalNodes>
          <leafValues>
            -3.4236699342727661e-01 5.5925231426954269e-02</leafValues></_>
        <_>
          <internalNodes>
            0 -1 832 1.6293210210278630e-03</internalNodes>
          <leafValues>
            4.5340582728385925e-02 -4.2108112573623657e-01</leafValues></_>
        <_>
          <internalNodes>
            0 -1 8 1.1118024587631226e-02</internalNodes>
          <leafValues>
            -8.8361233472824097e-02 2.1653226017951965e-01</leafValues></_>
        <_>
          <internalNodes>
            0 -1 1313 7.1804627776145935e-02</internalNodes>
          <leafValues>
            -3.4287177026271820e-02 6.1945742368698120e-01</leafValues></_>
        <_>
          <internalNodes>
            0 -1 43 -4.5221164822578430e-02</internalNodes>
          <leafValues>
            3.8411468267440796e-01 -5.9454493224620819e-02</leafValues></_>
        <_>
          <internalNodes>
            0 -1 1165 -4.3495681893546134e-05</internalNodes>
          <leafValues>
            9.5959939062595367e-02 -2.1164232492446899e-01</leafValues></_>
        <_>
          <internalNodes>
            0 -1 605 -1.2940175831317902e-02</internalNodes>
          <leafValues>
            2.5395888090133667e-01 -8.5395306348800659e-02</leafValues></_>
        <_>
          <internalNodes>
            0 -1 633 -8.5397146176546812e-04</internalNodes>
          <leafValues>
            -2.8849285840988159e-01 6.1250623315572739e-02</leafValues></_>
        <_>
          <internalNodes>
            0 -1 889 -4.5304314699023962e-04</internalNodes>
          <leafValues>
            2.4290338158607483e-01 -7.8600011765956879e-02</leafValues></_>
        <_>
          <internalNodes>
            0 -1 1428 -1.4795789029449224e-03</internalNodes>
          <leafValues>
            2.8395467996597290e-01 -6.0694701969623566e-02</leafValues></_>
        <_>
          <internalNodes>
            0 -1 1604 1.5720391820650548e-04</internalNodes>
          <leafValues>
            7.5547806918621063e-02 -2.2235716879367828e-01</leafValues></_>
        <_>
          <internalNodes>
            0 -1 1604 -1.7407590348739177e-04</internalNodes>
          <leafValues>
            -2.3013265430927277e-01 1.0932992398738861e-01</leafValues></_>
        <_>
          <internalNodes>
            0 -1 45 -6.8232066929340363e-02</internalNodes>
          <leafValues>
            -5.4224961996078491e-01 3.0994592234492302e-02</leafValues></_>
        <_>
          <internalNodes>
            0 -1 1024 -3.8700820878148079e-03</internalNodes>
          <leafValues>
            2.1664288640022278e-01 -9.5065459609031677e-02</leafValues></_>
        <_>
          <internalNodes>
            0 -1 1256 -1.7197411507368088e-03</internalNodes>
          <leafValues>
            2.3129175603389740e-01 -8.0160118639469147e-02</leafValues></_>
        <_>
          <internalNodes>
            0 -1 974 -3.9733825251460075e-03</internalNodes>
          <leafValues>
            -6.5209043025970459e-01 2.8718790039420128e-02</leafValues></_>
        <_>
          <internalNodes>
            0 -1 1479 -6.1750886961817741e-03</internalNodes>
          <leafValues>
            2.3052115738391876e-01 -8.2028970122337341e-02</leafValues></_>
        <_>
          <internalNodes>
            0 -1 370 5.0078012049198151e-02</internalNodes>
          <leafValues>
            4.4590041041374207e-02 -4.1726720333099365e-01</leafValues></_>
        <_>
          <internalNodes>
            0 -1 856 6.4460025168955326e-04</internalNodes>
          <leafValues>
            4.4636674225330353e-02 -3.6155426502227783e-01</leafValues></_>
        <_>
          <internalNodes>
            0 -1 339 9.5041526947170496e-04</internalNodes>
          <leafValues>
            -8.5018813610076904e-02 1.9293197989463806e-01</leafValues></_>
        <_>
          <internalNodes>
            0 -1 1512 2.6788346469402313e-02</internalNodes>
          <leafValues>
            2.9310276731848717e-02 -4.6555334329605103e-01</leafValues></_>
        <_>
          <internalNodes>
            0 -1 410 6.5882876515388489e-04</internalNodes>
          <leafValues>
            -1.0733348876237869e-01 1.4792126417160034e-01</leafValues></_>
        <_>
          <internalNodes>
            0 -1 1277 -5.3752085659652948e-04</internalNodes>
          <leafValues>
            -2.5367560982704163e-01 6.4933322370052338e-02</leafValues></_>
        <_>
          <internalNodes>
            0 -1 880 -2.9642716050148010e-02</internalNodes>
          <leafValues>
            -5.8189088106155396e-01 2.4933077394962311e-02</leafValues></_>
        <_>
          <internalNodes>
            0 -1 1213 -4.9049581866711378e-04</internalNodes>
          <leafValues>
            1.2986566126346588e-01 -1.1793456226587296e-01</leafValues></_>
        <_>
          <internalNodes>
            0 -1 1454 9.2651433078572154e-05</internalNodes>
          <leafValues>
            -9.5184288918972015e-02 1.5982784330844879e-01</leafValues></_>
        <_>
          <internalNodes>
            0 -1 901 3.0603366903960705e-03</internalNodes>
          <leafValues>
            -1.3152544200420380e-01 1.2126922607421875e-01</leafValues></_>
        <_>
          <internalNodes>
            0 -1 1253 1.8172264099121094e-03</internalNodes>
          <leafValues>
            -7.4229396879673004e-02 2.4626091122627258e-01</leafValues></_>
        <_>
          <internalNodes>
            0 -1 940 3.4347695112228394e-01</internalNodes>
          <leafValues>
            4.6645887196063995e-02 -4.1080787777900696e-01</leafValues></_>
        <_>
          <internalNodes>
            0 -1 850 -6.1827024910598993e-04</internalNodes>
          <leafValues>
            1.7795008420944214e-01 -8.9686259627342224e-02</leafValues></_>
        <_>
          <internalNodes>
            0 -1 160 3.4692784538492560e-04</internalNodes>
          <leafValues>
            5.9063177555799484e-02 -2.5657829642295837e-01</leafValues></_>
        <_>
          <internalNodes>
            0 -1 275 -2.2024527192115784e-02</internalNodes>
          <leafValues>
            -4.3579369783401489e-01 3.5710215568542480e-02</leafValues></_>
        <_>
          <internalNodes>
            0 -1 1275 -1.5691888984292746e-03</internalNodes>
          <leafValues>
            -2.8654834628105164e-01 4.9477152526378632e-02</leafValues></_>
        <_>
          <internalNodes>
            0 -1 718 -8.6655496852472425e-04</internalNodes>
          <leafValues>
            2.0274673402309418e-01 -7.5686432421207428e-02</leafValues></_>
        <_>
          <internalNodes>
            0 -1 1027 -2.9135972727090120e-03</internalNodes>
          <leafValues>
            1.8766690790653229e-01 -8.4977470338344574e-02</leafValues></_>
        <_>
          <internalNodes>
            0 -1 1005 1.5745021402835846e-02</internalNodes>
          <leafValues>
            -7.3360793292522430e-02 2.3581582307815552e-01</leafValues></_>
        <_>
          <internalNodes>
            0 -1 1123 6.0780886560678482e-03</internalNodes>
          <leafValues>
            2.6614019647240639e-02 -6.6201531887054443e-01</leafValues></_>
        <_>
          <internalNodes>
            0 -1 131 1.1257713660597801e-02</internalNodes>
          <leafValues>
            -1.1489768326282501e-01 1.4086240530014038e-01</leafValues></_>
        <_>
          <internalNodes>
            0 -1 737 -3.0721726943738759e-05</internalNodes>
          <leafValues>
            1.2069331854581833e-01 -1.3242602348327637e-01</leafValues></_>
        <_>
          <internalNodes>
            0 -1 779 -3.5582510754466057e-03</internalNodes>
          <leafValues>
            -6.3617110252380371e-01 2.2917779162526131e-02</leafValues></_>
        <_>
          <internalNodes>
            0 -1 325 -4.8782175872474909e-04</internalNodes>
          <leafValues>
            1.8016737699508667e-01 -8.5343889892101288e-02</leafValues></_>
        <_>
          <internalNodes>
            0 -1 243 2.7952248230576515e-02</internalNodes>
          <leafValues>
            4.9352794885635376e-02 -3.2196554541587830e-01</leafValues></_>
        <_>
          <internalNodes>
            0 -1 474 -5.4857209324836731e-03</internalNodes>
          <leafValues>
            -2.4065081030130386e-02 6.9982653856277466e-01</leafValues></_>
        <_>
          <internalNodes>
            0 -1 1424 -3.1622842652723193e-04</internalNodes>
          <leafValues>
            1.6574859619140625e-01 -9.0046301484107971e-02</leafValues></_>
        <_>
          <internalNodes>
            0 -1 1522 -1.3052310096099973e-03</internalNodes>
          <leafValues>
            1.5621401369571686e-01 -1.0195478796958923e-01</leafValues></_>
        <_>
          <internalNodes>
            0 -1 193 2.3746070265769958e-01</internalNodes>
          <leafValues>
            -1.1523602157831192e-01 1.3992308080196381e-01</leafValues></_>
        <_>
          <internalNodes>
            0 -1 1020 8.3016674034297466e-04</internalNodes>
          <leafValues>
            -1.1930356919765472e-01 1.4331218600273132e-01</leafValues></_>
        <_>
          <internalNodes>
            0 -1 688 -1.9768062047660351e-03</internalNodes>
          <leafValues>
            2.5572142004966736e-01 -6.8127512931823730e-02</leafValues></_>
        <_>
          <internalNodes>
            0 -1 134 -8.3874762058258057e-02</internalNodes>
          <leafValues>
            2.2509008646011353e-01 -7.1598894894123077e-02</leafValues></_>
        <_>
          <internalNodes>
            0 -1 656 1.8341881223022938e-03</internalNodes>
          <leafValues>
            -1.2578789889812469e-01 1.6618201136589050e-01</leafValues></_>
        <_>
          <internalNodes>
            0 -1 262 -5.0445040687918663e-04</internalNodes>
          <leafValues>
            -2.9419043660163879e-01 5.4202310740947723e-02</leafValues></_>
        <_>
          <internalNodes>
            0 -1 1571 1.4694353565573692e-02</internalNodes>
          <leafValues>
            -3.8952741771936417e-02 4.0652206540107727e-01</leafValues></_>
        <_>
          <internalNodes>
