<?xml version="1.0"?>
<opencv_storage>
<cascade>
  <stageType>BOOST</stageType>
  <featureType>HAAR</featureType>
  <height>24</height>
  <width>24</width>
  <stageParams>
    <boostType>GAB</boostType>
    <minHitRate>9.9500000476837158e-01</minHitRate>
    <maxFalseAlarm>3.0000001192092896e-01</maxFalseAlarm>
    <weightTrimRate>9.4999999999999996e-01</weightTrimRate>
    <maxDepth>1</maxDepth>
    <maxWeakCount>100</maxWeakCount></stageParams>
  <featureParams>
    <maxCatCount>0</maxCatCount>
    <featSize>1</featSize>
    <mode>BASIC</mode></featureParams>
  <stageNum>12</stageNum>
  <stages>
    <!-- stage 0 -->
    <_>
      <maxWeakCount>7</maxWeakCount>
      <stageThreshold>-1.1532884836196899e+00</stageThreshold>
      <weakClassifiers>
        <_>
          <internalNodes>
            0 -1 179 8.3300918340682983e-02</internalNodes>
          <leafValues>
            -8.2098174095153809e-01 7.6572668552398682e-01</leafValues></_>
        <_>
          <internalNodes>
            0 -1 495 -5.4247516393661499e-01</internalNodes>
          <leafValues>
            -9.7413682937622070e-01 3.3543175458908081e-01</leafValues></_>
        <_>
          <internalNodes>
            0 -1 288 -4.0110684931278229e-03</internalNodes>
          <leafValues>
            5.2358090877532959e-01 -4.9894344806671143e-01</leafValues></_>
        <_>
          <internalNodes>
            0 -1 256 2.2478070110082626e-02</internalNodes>
          <leafValues>
            -6.7375719547271729e-01 3.0709010362625122e-01</leafValues></_>
        <_>
          <internalNodes>
            0 -1 546 -2.4251468479633331e-02</internalNodes>
          <leafValues>
            -7.5102704763412476e-01 2.6811251044273376e-01</leafValues></_>
        <_>
          <internalNodes>
            0 -1 87 -2.8755483217537403e-03</internalNodes>
          <leafValues>
            5.9780150651931763e-01 -3.4627550840377808e-01</leafValues></_>
        <_>
          <internalNodes>
            0 -1 116 -2.0094532519578934e-03</internalNodes>
          <leafValues>
            5.8312517404556274e-01 -2.1159727871417999e-01</leafValues></_></weakClassifiers></_>
    <!-- stage 1 -->
    <_>
      <maxWeakCount>18</maxWeakCount>
      <stageThreshold>-1.5270754098892212e+00</stageThreshold>
      <weakClassifiers>
        <_>
          <internalNodes>
            0 -1 266 4.9364652484655380e-02</internalNodes>
          <leafValues>
            -7.8491336107254028e-01 5.2023118734359741e-01</leafValues></_>
        <_>
          <internalNodes>
            0 -1 242 -2.4472482502460480e-02</internalNodes>
          <leafValues>
            4.7952747344970703e-01 -4.2380589246749878e-01</leafValues></_>
        <_>
          <internalNodes>
            0 -1 216 2.8247309848666191e-02</internalNodes>
          <leafValues>
            -6.1960941553115845e-01 2.7343508601188660e-01</leafValues></_>
        <_>
          <internalNodes>
            0 -1 165 -2.0050120353698730e-01</internalNodes>
          <leafValues>
            -9.2790454626083374e-01 1.1265333741903305e-01</leafValues></_>
        <_>
          <internalNodes>
            0 -1 290 -1.1705128476023674e-02</internalNodes>
          <leafValues>
            3.4621700644493103e-01 -3.6666342616081238e-01</leafValues></_>
        <_>
          <internalNodes>
            0 -1 384 -3.6607801914215088e-02</internalNodes>
          <leafValues>
            1.5199583768844604e-01 -6.7110025882720947e-01</leafValues></_>
        <_>
          <internalNodes>
            0 -1 219 2.3432490415871143e-03</internalNodes>
          <leafValues>
            -2.0299904048442841e-01 4.1767561435699463e-01</leafValues></_>
        <_>
          <internalNodes>
            0 -1 36 4.0176101028919220e-02</internalNodes>
          <leafValues>
            7.7460817992687225e-02 -9.1119921207427979e-01</leafValues></_>
        <_>
          <internalNodes>
            0 -1 598 -1.3614121824502945e-02</internalNodes>
          <leafValues>
            4.3624520301818848e-01 -1.9536958634853363e-01</leafValues></_>
        <_>
          <internalNodes>
            0 -1 235 1.2284901458770037e-03</internalNodes>
          <leafValues>
            -1.3630837202072144e-01 4.5277494192123413e-01</leafValues></_>
        <_>
          <internalNodes>
            0 -1 48 -4.3587252497673035e-02</internalNodes>
          <leafValues>
            5.7662808895111084e-01 -1.2223675847053528e-01</leafValues></_>
        <_>
          <internalNodes>
            0 -1 127 1.7321635037660599e-02</internalNodes>
          <leafValues>
            -4.5043843984603882e-01 1.7450541257858276e-01</leafValues></_>
        <_>
          <internalNodes>
            0 -1 269 -1.6000628471374512e-02</internalNodes>
          <leafValues>
            -1. 8.4368214011192322e-02</leafValues></_>
        <_>
          <internalNodes>
            0 -1 6 1.9903625361621380e-03</internalNodes>
          <leafValues>
            -2.0002619922161102e-01 4.1928908228874207e-01</leafValues></_>
        <_>
          <internalNodes>
            0 -1 358 -4.4916681945323944e-03</internalNodes>
          <leafValues>
            2.3789772391319275e-01 -3.2767778635025024e-01</leafValues></_>
        <_>
          <internalNodes>
            0 -1 240 4.6217157505452633e-03</internalNodes>
          <leafValues>
            -1.3236208260059357e-01 5.5696785449981689e-01</leafValues></_>
        <_>
          <internalNodes>
            0 -1 648 -2.0094590261578560e-02</internalNodes>
          <leafValues>
            5.4311078786849976e-01 -1.1769499629735947e-01</leafValues></_>
        <_>
          <internalNodes>
            0 -1 493 2.3071996867656708e-02</internalNodes>
          <leafValues>
            -3.5335823893547058e-01 1.8061289191246033e-01</leafValues></_></weakClassifiers></_>
    <!-- stage 2 -->
    <_>
      <maxWeakCount>32</maxWeakCount>
      <stageThreshold>-1.3905026912689209e+00</stageThreshold>
      <weakClassifiers>
        <_>
          <internalNodes>
            0 -1 217 1.1430171877145767e-01</internalNodes>
          <leafValues>
            -5.7806283235549927e-01 4.1542625427246094e-01</leafValues></_>
        <_>
          <internalNodes>
            0 -1 286 -4.9273241311311722e-03</internalNodes>
          <leafValues>
            4.9277034401893616e-01 -3.6430230736732483e-01</leafValues></_>
        <_>
          <internalNodes>
            0 -1 365 -2.9861452057957649e-03</internalNodes>
          <leafValues>
            3.3028718829154968e-01 -3.7753605842590332e-01</leafValues></_>
        <_>
          <internalNodes>
            0 -1 140 -2.0283737778663635e-01</internalNodes>
          <leafValues>
            -8.7827491760253906e-01 9.8100878298282623e-02</leafValues></_>
        <_>
          <internalNodes>
            0 -1 382 -2.4745420087128878e-03</internalNodes>
          <leafValues>
            2.2166149318218231e-01 -4.2145749926567078e-01</leafValues></_>
        <_>
          <internalNodes>
            0 -1 42 9.8716001957654953e-03</internalNodes>
          <leafValues>
            -2.3733407258987427e-01 3.4134411811828613e-01</leafValues></_>
        <_>
          <internalNodes>
            0 -1 496 -9.7860302776098251e-03</internalNodes>
          <leafValues>
            4.9315357208251953e-01 -1.7359259724617004e-01</leafValues></_>
        <_>
          <internalNodes>
            0 -1 106 2.9838369227945805e-03</internalNodes>
          <leafValues>
            -1.6629652678966522e-01 5.2833646535873413e-01</leafValues></_>
        <_>
          <internalNodes>
            0 -1 360 -1.0257108137011528e-02</internalNodes>
          <leafValues>
            3.3655086159706116e-01 -1.6879235208034515e-01</leafValues></_>
        <_>
          <internalNodes>
            0 -1 103 -2.8572520241141319e-03</internalNodes>
          <leafValues>
            4.6872323751449585e-01 -1.3118202984333038e-01</leafValues></_>
        <_>
          <internalNodes>
            0 -1 610 3.7768036127090454e-03</internalNodes>
          <leafValues>
            -1.8425785005092621e-01 3.0272892117500305e-01</leafValues></_>
        <_>
          <internalNodes>
            0 -1 171 -3.0523716122843325e-04</internalNodes>
          <leafValues>
            3.3216017484664917e-01 -1.4751383662223816e-01</leafValues></_>
        <_>
          <internalNodes>
            0 -1 609 -3.3361490815877914e-02</internalNodes>
          <leafValues>
            5.6489318609237671e-01 -8.9797213673591614e-02</leafValues></_>
        <_>
          <internalNodes>
            0 -1 654 4.2821740498766303e-04</internalNodes>
          <leafValues>
            -1.3977935910224915e-01 3.8648182153701782e-01</leafValues></_>
        <_>
          <internalNodes>
            0 -1 89 1.1609522998332977e-01</internalNodes>
          <leafValues>
            -4.0384331345558167e-01 1.3450179994106293e-01</leafValues></_>
        <_>
          <internalNodes>
            0 -1 560 -5.4621724411845207e-03</internalNodes>
          <leafValues>
            4.0607568621635437e-01 -1.4988358318805695e-01</leafValues></_>
        <_>
          <internalNodes>
            0 -1 561 5.9109060093760490e-03</internalNodes>
          <leafValues>
            -1.0548638552427292e-01 4.9686390161514282e-01</leafValues></_>
        <_>
          <internalNodes>
            0 -1 154 6.5666856244206429e-04</internalNodes>
          <leafValues>
            -1.4901190996170044e-01 3.2788148522377014e-01</leafValues></_>
        <_>
          <internalNodes>
            0 -1 582 1.1364186182618141e-02</internalNodes>
          <leafValues>
            -1.2880851328372955e-01 3.7278187274932861e-01</leafValues></_>
        <_>
          <internalNodes>
            0 -1 8 -3.2339747995138168e-02</internalNodes>
          <leafValues>
            -7.8225576877593994e-01 6.3321068882942200e-02</leafValues></_>
        <_>
          <internalNodes>
            0 -1 20 -4.4217761605978012e-03</internalNodes>
          <leafValues>
            3.1066989898681641e-01 -1.5274085104465485e-01</leafValues></_>
        <_>
          <internalNodes>
            0 -1 4 5.4740044288337231e-03</internalNodes>
          <leafValues>
            -1.1536433547735214e-01 5.7449793815612793e-01</leafValues></_>
        <_>
          <internalNodes>
            0 -1 475 3.3763425890356302e-03</internalNodes>
          <leafValues>
            8.4536902606487274e-02 -6.4740777015686035e-01</leafValues></_>
        <_>
          <internalNodes>
            0 -1 220 -2.1320914849638939e-02</internalNodes>
          <leafValues>
            -4.4121906161308289e-01 1.0216097533702850e-01</leafValues></_>
        <_>
          <internalNodes>
            0 -1 206 -2.1232713479548693e-03</internalNodes>
          <leafValues>
            3.0193606019020081e-01 -1.6462080180644989e-01</leafValues></_>
        <_>
          <internalNodes>
            0 -1 451 -8.0304651055485010e-04</internalNodes>
          <leafValues>
            3.2788091897964478e-01 -1.3570915162563324e-01</leafValues></_>
        <_>
          <internalNodes>
            0 -1 616 -1.2126979231834412e-01</internalNodes>
          <leafValues>
            -8.9032286405563354e-01 5.3144656121730804e-02</leafValues></_>
        <_>
          <internalNodes>
            0 -1 115 3.9617060683667660e-03</internalNodes>
          <leafValues>
            -1.2237339466810226e-01 3.8834688067436218e-01</leafValues></_>
        <_>
          <internalNodes>
            0 -1 328 7.8667011111974716e-03</internalNodes>
          <leafValues>
            7.2203069925308228e-02 -6.7810195684432983e-01</leafValues></_>
        <_>
          <internalNodes>
            0 -1 70 1.4618106186389923e-02</internalNodes>
          <leafValues>
            5.2465692162513733e-02 -6.9839775562286377e-01</leafValues></_>
        <_>
          <internalNodes>
            0 -1 646 -1.0130230337381363e-02</internalNodes>
          <leafValues>
            4.4290041923522949e-01 -1.1903989315032959e-01</leafValues></_>
        <_>
          <internalNodes>
            0 -1 295 1.2393686920404434e-02</internalNodes>
          <leafValues>
            -1.3041678071022034e-01 3.4188243746757507e-01</leafValues></_></weakClassifiers></_>
    <!-- stage 3 -->
    <_>
      <maxWeakCount>52</maxWeakCount>
      <stageThreshold>-1.3073799610137939e+00</stageThreshold>
      <weakClassifiers>
        <_>
          <internalNodes>
            0 -1 267 8.2012176513671875e-02</internalNodes>
          <leafValues>
            -6.4113110303878784e-01 2.3412322998046875e-01</leafValues></_>
        <_>
          <internalNodes>
            0 -1 241 -1.1531589552760124e-02</internalNodes>
          <leafValues>
            2.5698938965797424e-01 -4.1128984093666077e-01</leafValues></_>
        <_>
          <internalNodes>
            0 -1 368 -1.0465832427144051e-02</internalNodes>
          <leafValues>
            2.3139667510986328e-01 -3.2122161984443665e-01</leafValues></_>
        <_>
          <internalNodes>
            0 -1 340 9.2330630868673325e-03</internalNodes>
          <leafValues>
            -1.2764126062393188e-01 4.5480966567993164e-01</leafValues></_>
        <_>
          <internalNodes>
            0 -1 494 -2.8540387749671936e-02</internalNodes>
          <leafValues>
            -8.8958334922790527e-01 1.1043462157249451e-01</leafValues></_>
        <_>
          <internalNodes>
            0 -1 138 6.6150516271591187e-02</internalNodes>
          <leafValues>
            -3.1932017207145691e-01 1.2005674093961716e-01</leafValues></_>
        <_>
          <internalNodes>
            0 -1 110 1.3001898303627968e-02</internalNodes>
          <leafValues>
            -9.7219228744506836e-02 4.2598411440849304e-01</leafValues></_>
        <_>
          <internalNodes>
            0 -1 19 -5.6665260344743729e-03</internalNodes>
          <leafValues>
            3.9968305826187134e-01 -1.1768363416194916e-01</leafValues></_>
        <_>
          <internalNodes>
            0 -1 629 -1.6072064638137817e-02</internalNodes>
          <leafValues>
            3.7557613849639893e-01 -1.2947234511375427e-01</leafValues></_>
        <_>
          <internalNodes>
            0 -1 128 1.0823848843574524e-01</internalNodes>
          <leafValues>
            5.3312577307224274e-02 -7.6551014184951782e-01</leafValues></_>
        <_>
          <internalNodes>
            0 -1 611 -8.6054680868983269e-03</internalNodes>
          <leafValues>
            3.0629235506057739e-01 -1.6451047360897064e-01</leafValues></_>
        <_>
          <internalNodes>
            0 -1 318 3.1312949955463409e-02</internalNodes>
          <leafValues>
            7.9161927103996277e-02 -8.9378601312637329e-01</leafValues></_>
        <_>
          <internalNodes>
            0 -1 539 -6.8658532109111547e-04</internalNodes>
          <leafValues>
            2.4734358489513397e-01 -1.7135573923587799e-01</leafValues></_>
        <_>
          <internalNodes>
            0 -1 415 -3.6109991371631622e-02</internalNodes>
          <leafValues>
            -8.3983784914016724e-01 4.3138977140188217e-02</leafValues></_>
        <_>
          <internalNodes>
            0 -1 39 5.8130668476223946e-03</internalNodes>
          <leafValues>
            -1.0092213004827499e-01 4.0422075986862183e-01</leafValues></_>
        <_>
          <internalNodes>
            0 -1 552 2.9432529583573341e-02</internalNodes>
          <leafValues>
            -1.2430703639984131e-01 2.9496705532073975e-01</leafValues></_>
        <_>
          <internalNodes>
            0 -1 659 -9.7365742549300194e-03</internalNodes>
          <leafValues>
            -6.9455689191818237e-01 6.0403477400541306e-02</leafValues></_>
        <_>
          <internalNodes>
            0 -1 509 -3.2002299558371305e-03</internalNodes>
          <leafValues>
            -7.5676149129867554e-01 3.7985514849424362e-02</leafValues></_>
        <_>
          <internalNodes>
            0 -1 624 -3.8787242956459522e-03</internalNodes>
          <leafValues>
            2.9507109522819519e-01 -1.3315597176551819e-01</leafValues></_>
        <_>
          <internalNodes>
            0 -1 55 -3.4997686743736267e-02</internalNodes>
          <leafValues>
            -8.1064021587371826e-01 3.7683129310607910e-02</leafValues></_>
        <_>
          <internalNodes>
            0 -1 263 -4.6407826244831085e-02</internalNodes>
          <leafValues>
            -3.0596700310707092e-01 1.0051909834146500e-01</leafValues></_>
        <_>
          <internalNodes>
            0 -1 468 2.4125410709530115e-03</internalNodes>
          <leafValues>
            -1.1314806342124939e-01 3.8010695576667786e-01</leafValues></_>
        <_>
          <internalNodes>
            0 -1 94 -1.6870133578777313e-02</internalNodes>
          <leafValues>
            2.4941386282444000e-01 -1.5391308069229126e-01</leafValues></_>
        <_>
          <internalNodes>
            0 -1 413 -2.3195859044790268e-02</internalNodes>
          <leafValues>
            2.0959028601646423e-01 -1.8535135686397552e-01</leafValues></_>
        <_>
          <internalNodes>
            0 -1 505 2.8477758169174194e-03</internalNodes>
          <leafValues>
            6.6693790256977081e-02 -5.4051595926284790e-01</leafValues></_>
        <_>
          <internalNodes>
            0 -1 540 -6.1245949473232031e-04</internalNodes>
          <leafValues>
            -4.5889341831207275e-01 7.0192359387874603e-02</leafValues></_>
        <_>
          <internalNodes>
            0 -1 284 -9.5408735796809196e-04</internalNodes>
          <leafValues>
            4.5252093672752380e-01 -8.2984790205955505e-02</leafValues></_>
        <_>
          <internalNodes>
            0 -1 587 1.2263871030882001e-03</internalNodes>
          <leafValues>
            -1.2144210934638977e-01 2.9119277000427246e-01</leafValues></_>
        <_>
          <internalNodes>
            0 -1 408 -7.4921376071870327e-03</internalNodes>
          <leafValues>
            5.0241488218307495e-01 -7.3968224227428436e-02</leafValues></_>
        <_>
          <internalNodes>
            0 -1 422 -3.1040233373641968e-01</internalNodes>
          <leafValues>
            -1.7871877551078796e-01 1.7972528934478760e-01</leafValues></_>
        <_>
          <internalNodes>
            0 -1 338 -3.5602028947323561e-03</internalNodes>
          <leafValues>
            8.6040779948234558e-02 -4.0748292207717896e-01</leafValues></_>
        <_>
          <internalNodes>
            0 -1 108 -8.7926033884286880e-03</internalNodes>
          <leafValues>
            -6.3782580196857452e-02 5.4716849327087402e-01</leafValues></_>
        <_>
          <internalNodes>
            0 -1 85 -2.0020189695060253e-03</internalNodes>
          <leafValues>
            4.2391583323478699e-01 -6.9990485906600952e-02</leafValues></_>
        <_>
          <internalNodes>
            0 -1 3 -1.1236685328185558e-02</internalNodes>
          <leafValues>
            -5.9701871871948242e-01 5.0109308212995529e-02</leafValues></_>
        <_>
          <internalNodes>
            0 -1 326 -4.1607450693845749e-03</internalNodes>
          <leafValues>
            2.5895878672599792e-01 -1.1971138417720795e-01</leafValues></_>
        <_>
          <internalNodes>
            0 -1 392 1.6495420131832361e-03</internalNodes>
          <leafValues>
            -1.0496067255735397e-01 2.9831808805465698e-01</leafValues></_>
        <_>
          <internalNodes>
            0 -1 361 5.1209758967161179e-03</internalNodes>
          <leafValues>
            4.9623835831880569e-02 -7.4474477767944336e-01</leafValues></_>
        <_>
          <internalNodes>
            0 -1 40 6.8332767114043236e-03</internalNodes>
          <leafValues>
            -1.1012659221887589e-01 2.8655803203582764e-01</leafValues></_>
        <_>
          <internalNodes>
            0 -1 457 1.6062131617218256e-03</internalNodes>
          <leafValues>
            3.0348392203450203e-02 -9.8946720361709595e-01</leafValues></_>
        <_>
          <internalNodes>
            0 -1 367 1.3683813449461013e-04</internalNodes>
          <leafValues>
            -2.2419068217277527e-01 1.3252839446067810e-01</leafValues></_>
        <_>
          <internalNodes>
            0 -1 321 5.2004144527018070e-03</internalNodes>
          <leafValues>
            5.1772050559520721e-02 -5.7710462808609009e-01</leafValues></_>
        <_>
          <internalNodes>
            0 -1 643 -2.4040766060352325e-02</internalNodes>
          <leafValues>
            3.6486083269119263e-01 -8.6202107369899750e-02</leafValues></_>
        <_>
          <internalNodes>
            0 -1 472 -1.1966335478064138e-05</internalNodes>
          <leafValues>
            1.8750874698162079e-01 -1.5716657042503357e-01</leafValues></_>
        <_>
          <internalNodes>
            0 -1 436 8.2183629274368286e-04</internalNodes>
          <leafValues>
            -1.1292396485805511e-01 2.6362037658691406e-01</leafValues></_>
        <_>
          <internalNodes>
            0 -1 300 2.7909819036722183e-02</internalNodes>
          <leafValues>
            8.6461961269378662e-02 -3.7774956226348877e-01</leafValues></_>
        <_>
          <internalNodes>
            0 -1 467 1.1820804793387651e-03</internalNodes>
          <leafValues>
            -1.0201224684715271e-01 3.2051607966423035e-01</leafValues></_>
        <_>
          <internalNodes>
            0 -1 642 -2.4735786020755768e-02</internalNodes>
          <leafValues>
            -6.0426026582717896e-01 5.0468776375055313e-02</leafValues></_>
        <_>
          <internalNodes>
            0 -1 665 5.2552870474755764e-03</internalNodes>
          <leafValues>
            -8.0589853227138519e-02 4.1285896301269531e-01</leafValues></_>
        <_>
          <internalNodes>
            0 -1 677 4.0196832269430161e-03</internalNodes>
          <leafValues>
            1.0355222225189209e-01 -3.4370529651641846e-01</leafValues></_>
        <_>
          <internalNodes>
            0 -1 504 1.3225513976067305e-03</internalNodes>
          <leafValues>
            9.2503622174263000e-02 -3.3663728833198547e-01</leafValues></_>
        <_>
          <internalNodes>
            0 -1 248 3.3064492046833038e-02</internalNodes>
          <leafValues>
            -2.6863816380500793e-01 1.2980280816555023e-01</leafValues></_>
        <_>
          <internalNodes>
            0 -1 329 9.2319294810295105e-02</internalNodes>
          <leafValues>
            8.9209198951721191e-02 -3.7834668159484863e-01</leafValues></_></weakClassifiers></_>
    <!-- stage 4 -->
    <_>
      <maxWeakCount>57</maxWeakCount>
      <stageThreshold>-1.1835817098617554e+00</stageThreshold>
      <weakClassifiers>
        <_>
          <internalNodes>
            0 -1 101 2.7566866949200630e-02</internalNodes>
          <leafValues>
            -5.6340956687927246e-01 7.8066915273666382e-02</leafValues></_>
        <_>
          <internalNodes>
            0 -1 397 -2.4843760766088963e-03</internalNodes>
          <leafValues>
            2.2125983238220215e-01 -3.0586859583854675e-01</leafValues></_>
        <_>
          <internalNodes>
            0 -1 492 -1.1144332587718964e-02</internalNodes>
          <leafValues>
            2.5631541013717651e-01 -2.6156857609748840e-01</leafValues></_>
        <_>
          <internalNodes>
            0 -1 460 9.1957464814186096e-02</internalNodes>
          <leafValues>
            -3.3629387617111206e-01 1.6216360032558441e-01</leafValues></_>
        <_>
          <internalNodes>
            0 -1 403 2.6551503688097000e-03</internalNodes>
          <leafValues>
            -1.0793554782867432e-01 3.5701355338096619e-01</leafValues></_>
        <_>
          <internalNodes>
            0 -1 528 -5.5756258964538574e-01</internalNodes>
          <leafValues>
            -8.7000674009323120e-01 5.3310014307498932e-02</leafValues></_>
        <_>
          <internalNodes>
            0 -1 285 1.6423008637502789e-03</internalNodes>
          <leafValues>
            -1.3718929886817932e-01 4.2126765847206116e-01</leafValues></_>
        <_>
          <internalNodes>
            0 -1 117 -1.1525235138833523e-02</internalNodes>
          <leafValues>
            4.1038480401039124e-01 -8.6457788944244385e-02</leafValues></_>
        <_>
          <internalNodes>
            0 -1 7 -6.5729846246540546e-03</internalNodes>
          <leafValues>
            2.0894958078861237e-01 -1.7686861753463745e-01</leafValues></_>
        <_>
          <internalNodes>
            0 -1 405 -1.3909661211073399e-03</internalNodes>
          <leafValues>
            3.3423390984535217e-01 -1.0252318531274796e-01</leafValues></_>
        <_>
          <internalNodes>
            0 -1 282 5.6332268286496401e-04</internalNodes>
          <leafValues>
            -1.7834898829460144e-01 1.8755538761615753e-01</leafValues></_>
        <_>
          <internalNodes>
            0 -1 127 2.2813785821199417e-02</internalNodes>
          <leafValues>
            -3.8592246174812317e-01 9.5436587929725647e-02</leafValues></_>
        <_>
          <internalNodes>
            0 -1 157 2.1738610230386257e-03</internalNodes>
          <leafValues>
            -1.3361176848411560e-01 3.1274133920669556e-01</leafValues></_>
        <_>
          <internalNodes>
            0 -1 668 5.2898433059453964e-03</internalNodes>
          <leafValues>
            -6.7148007452487946e-02 4.6096748113632202e-01</leafValues></_>
        <_>
          <internalNodes>
            0 -1 30 5.0425380468368530e-02</internalNodes>
          <leafValues>
            3.8269534707069397e-02 -8.3837437629699707e-01</leafValues></_>
        <_>
          <internalNodes>
            0 -1 65 -2.3339505423791707e-04</internalNodes>
          <leafValues>
            -1.8349105119705200e-01 1.7419911921024323e-01</leafValues></_>
        <_>
          <internalNodes>
            0 -1 82 -2.4515775963664055e-02</internalNodes>
          <leafValues>
            -3.9867885410785675e-02 6.9729530811309814e-01</leafValues></_>
        <_>
          <internalNodes>
            0 -1 381 -2.2657521069049835e-02</internalNodes>
          <leafValues>
            -4.5200735330581665e-01 7.7878966927528381e-02</leafValues></_>
        <_>
          <internalNodes>
            0 -1 649 1.3927200809121132e-02</internalNodes>
          <leafValues>
            5.5668655782938004e-02 -5.0514137744903564e-01</leafValues></_>
        <_>
          <internalNodes>
            0 -1 437 1.1553465155884624e-03</internalNodes>
          <leafValues>
            -1.3109660148620605e-01 2.3517110943794250e-01</leafValues></_>
        <_>
          <internalNodes>
            0 -1 344 -2.4011470377445221e-03</internalNodes>
          <leafValues>
            4.0294542908668518e-02 -6.9081264734268188e-01</leafValues></_>
        <_>
          <internalNodes>
            0 -1 314 5.3273369558155537e-03</internalNodes>
          <leafValues>
            3.1481821089982986e-02 -7.2872537374496460e-01</leafValues></_>
        <_>
          <internalNodes>
            0 -1 122 -1.4360400382429361e-04</internalNodes>
          <leafValues>
            -2.0557942986488342e-01 1.3118220865726471e-01</leafValues></_>
        <_>
          <internalNodes>
            0 -1 292 -9.7169816493988037e-02</internalNodes>
          <leafValues>
            -8.2330185174942017e-01 3.5735875368118286e-02</leafValues></_>
        <_>
          <internalNodes>
            0 -1 213 -2.5564124807715416e-03</internalNodes>
          <leafValues>
            2.0560456812381744e-01 -1.4719715714454651e-01</leafValues></_>
        <_>
          <internalNodes>
            0 -1 445 2.5426710490137339e-03</internalNodes>
          <leafValues>
            4.3506685644388199e-02 -5.6057208776473999e-01</leafValues></_>
        <_>
          <internalNodes>
            0 -1 356 -2.8279551770538092e-04</internalNodes>
          <leafValues>
            1.7269888520240784e-01 -1.5296743810176849e-01</leafValues></_>
        <_>
          <internalNodes>
            0 -1 25 1.5525694470852613e-03</internalNodes>
          <leafValues>
            -7.2214066982269287e-02 3.5834205150604248e-01</leafValues></_>
        <_>
          <internalNodes>
            0 -1 32 -3.2788862008601427e-03</internalNodes>
          <leafValues>
            3.9799535274505615e-01 -6.7583084106445313e-02</leafValues></_>
        <_>
          <internalNodes>
            0 -1 72 -5.2151381969451904e-03</internalNodes>
          <leafValues>
            -8.7308742105960846e-02 3.0494153499603271e-01</leafValues></_>
        <_>
          <internalNodes>
            0 -1 144 2.3197822272777557e-01</internalNodes>
          <leafValues>
            -4.2384218424558640e-02 6.0463875532150269e-01</leafValues></_>
        <_>
          <internalNodes>
            0 -1 380 1.2386778835207224e-03</internalNodes>
          <leafValues>
            1.4390084147453308e-01 -2.4824012815952301e-01</leafValues></_>
        <_>
          <internalNodes>
            0 -1 259 -7.6377084478735924e-03</internalNodes>
          <leafValues>
            2.4219146370887756e-01 -1.1986059695482254e-01</leafValues></_>
        <_>
          <internalNodes>
            0 -1 92 2.8567847609519958e-01</internalNodes>
          <leafValues>
            -1.6413359344005585e-01 1.6898889839649200e-01</leafValues></_>
        <_>
          <internalNodes>
            0 -1 24 2.8869119286537170e-01</internalNodes>
          <leafValues>
            5.4427798837423325e-02 -5.2938973903656006e-01</leafValues></_>
        <_>
          <internalNodes>
            0 -1 666 -7.0286127738654613e-03</internalNodes>
          <leafValues>
            3.7287205457687378e-01 -7.5971096754074097e-02</leafValues></_>
        <_>
          <internalNodes>
            0 -1 305 -8.5313860327005386e-03</internalNodes>
          <leafValues>
            -7.5368225574493408e-01 3.9644148200750351e-02</leafValues></_>
        <_>
          <internalNodes>
            0 -1 645 -3.5586315207183361e-03</internalNodes>
          <leafValues>
            3.3142206072807312e-01 -8.6973033845424652e-02</leafValues></_>
        <_>
          <internalNodes>
            0 -1 577 3.8846497773192823e-04</internalNodes>
          <leafValues>
            -1.0658039152622223e-01 2.3050594329833984e-01</leafValues></_>
        <_>
          <internalNodes>
            0 -1 455 -3.5809341352432966e-03</internalNodes>
          <leafValues>
            -8.2564580440521240e-01 3.2323457300662994e-02</leafValues></_>
        <_>
          <internalNodes>
            0 -1 591 -1.2134471908211708e-03</internalNodes>
          <leafValues>
            2.5393113493919373e-01 -1.0689843446016312e-01</leafValues></_>
        <_>
          <internalNodes>
            0 -1 572 4.1368752717971802e-03</internalNodes>
          <leafValues>
            3.5664770752191544e-02 -7.4912124872207642e-01</leafValues></_>
        <_>
          <internalNodes>
            0 -1 660 -1.5644580707885325e-04</internalNodes>
          <leafValues>
            -2.7648761868476868e-01 8.3451852202415466e-02</leafValues></_>
        <_>
          <internalNodes>
            0 -1 393 -1.9699409604072571e-02</internalNodes>
          <leafValues>
            1.9681946933269501e-01 -1.2855064868927002e-01</leafValues></_>
        <_>
          <internalNodes>
            0 -1 519 5.6197298690676689e-03</internalNodes>
          <leafValues>
            -7.6144725084304810e-02 4.7198024392127991e-01</leafValues></_>
        <_>
          <internalNodes>
            0 -1 416 5.3993873298168182e-03</internalNodes>
          <leafValues>
            5.2329707890748978e-02 -5.4649531841278076e-01</leafValues></_>
        <_>
          <internalNodes>
            0 -1 627 2.8427597135305405e-02</internalNodes>
          <leafValues>
            -7.0000521838665009e-02 3.8593983650207520e-01</leafValues></_>
        <_>
          <internalNodes>
            0 -1 63 1.8870439380407333e-03</internalNodes>
          <leafValues>
            -6.9486290216445923e-02 3.5059994459152222e-01</leafValues></_>
        <_>
          <internalNodes>
            0 -1 448 -4.5864842832088470e-03</internalNodes>
          <leafValues>
            -4.1346007585525513e-01 6.0141403228044510e-02</leafValues></_>
        <_>
          <internalNodes>
            0 -1 444 -2.3936659097671509e-02</internalNodes>
          <leafValues>
            -7.4721509218215942e-01 2.9022874310612679e-02</leafValues></_>
        <_>
          <internalNodes>
            0 -1 600 2.7981638908386230e-02</internalNodes>
          <leafValues>
            -8.4060013294219971e-02 2.9709947109222412e-01</leafValues></_>
        <_>
          <internalNodes>
            0 -1 255 -7.3513723909854889e-02</internalNodes>
          <leafValues>
            -7.8150057792663574e-01 3.3074878156185150e-02</leafValues></_>
        <_>
          <internalNodes>
            0 -1 13 -4.2762535810470581e-01</internalNodes>
          <leafValues>
            4.1201496124267578e-01 -6.8966120481491089e-02</leafValues></_>
        <_>
          <internalNodes>
            0 -1 565 1.0364193469285965e-02</internalNodes>
          <leafValues>
            -9.9039912223815918e-02 2.6911580562591553e-01</leafValues></_>
        <_>
          <internalNodes>
            0 -1 421 8.4121071267873049e-04</internalNodes>
          <leafValues>
            4.8244733363389969e-02 -6.1251217126846313e-01</leafValues></_>
        <_>
          <internalNodes>
            0 -1 400 2.7876798063516617e-02</internalNodes>
          <leafValues>
            -7.9949475824832916e-02 3.7566068768501282e-01</leafValues></_>
        <_>
          <internalNodes>
            0 -1 641 -6.6407984122633934e-03</internalNodes>
          <leafValues>
            -3.9265673607587814e-02 6.7536133527755737e-01</leafValues></_></weakClassifiers></_>
    <!-- stage 5 -->
    <_>
      <maxWeakCount>66</maxWeakCount>
      <stageThreshold>-1.0938007831573486e+00</stageThreshold>
      <weakClassifiers>
        <_>
          <internalNodes>
            0 -1 139 1.4845162630081177e-01</internalNodes>
          <leafValues>
            -4.7094675898551941e-01 2.9499071836471558e-01</leafValues></_>
        <_>
          <internalNodes>
            0 -1 287 -7.3096072301268578e-03</internalNodes>
          <leafValues>
            2.8463456034660339e-01 -2.1084541082382202e-01</leafValues></_>
        <_>
          <internalNodes>
            0 -1 423 -1.1173777282238007e-02</internalNodes>
          <leafValues>
            3.6550399661064148e-01 -1.2539055943489075e-01</leafValues></_>
        <_>
          <internalNodes>
            0 -1 497 5.2473753690719604e-02</internalNodes>
          <leafValues>
            -2.2351385653018951e-01 1.6362296044826508e-01</leafValues></_>
        <_>
          <internalNodes>
            0 -1 5 2.1852340549230576e-02</internalNodes>
          <leafValues>
            -9.3183651566505432e-02 3.4996861219406128e-01</leafValues></_>
        <_>
          <internalNodes>
            0 -1 41 -2.8589621186256409e-02</internalNodes>
          <leafValues>
            4.1344222426414490e-01 -7.0462748408317566e-02</leafValues></_>
        <_>
          <internalNodes>
            0 -1 119 -8.5263408254832029e-04</internalNodes>
          <leafValues>
            1.2380667775869370e-01 -2.5852116942405701e-01</leafValues></_>
        <_>
          <internalNodes>
            0 -1 376 -4.6445271000266075e-03</internalNodes>
          <leafValues>
            2.9911881685256958e-01 -1.0489215701818466e-01</leafValues></_>
        <_>
          <internalNodes>
            0 -1 621 -2.0616436377167702e-03</internalNodes>
          <leafValues>
            2.9698711633682251e-01 -9.6812345087528229e-02</leafValues></_>
        <_>
          <internalNodes>
            0 -1 406 -3.6544747650623322e-02</internalNodes>
          <leafValues>
            -3.3632898330688477e-01 8.9732654392719269e-02</leafValues></_>
        <_>
          <internalNodes>
            0 -1 625 7.7230203896760941e-03</internalNodes>
          <leafValues>
            -1.2912467122077942e-01 2.7766928076744080e-01</leafValues></_>
        <_>
          <internalNodes>
            0 -1 54 1.0395562276244164e-02</internalNodes>
          <leafValues>
            -6.9731660187244415e-02 3.0163848400115967e-01</leafValues></_>
        <_>
          <internalNodes>
            0 -1 412 -1.6359984874725342e-03</internalNodes>
          <leafValues>
            1.4958810806274414e-01 -1.8607525527477264e-01</leafValues></_>
        <_>
          <internalNodes>
            0 -1 614 5.0213489681482315e-02</internalNodes>
          <leafValues>
            2.5722932070493698e-02 -6.3789618015289307e-01</leafValues></_>
        <_>
          <internalNodes>
            0 -1 23 -5.5981479585170746e-02</internalNodes>
          <leafValues>
            -8.1622898578643799e-01 2.3463122546672821e-02</leafValues></_>
        <_>
          <internalNodes>
            0 -1 322 -2.4515623226761818e-04</internalNodes>
          <leafValues>
            2.2751770913600922e-01 -1.1403033137321472e-01</leafValues></_>
        <_>
          <internalNodes>
            0 -1 239 5.1987385377287865e-03</internalNodes>
          <leafValues>
            -8.7229043245315552e-02 2.6242285966873169e-01</leafValues></_>
        <_>
          <internalNodes>
            0 -1 124 -1.9427737221121788e-02</internalNodes>
          <leafValues>
            2.8546375036239624e-01 -8.6311541497707367e-02</leafValues></_>
        <_>
          <internalNodes>
            0 -1 135 2.8331696987152100e-01</internalNodes>
          <leafValues>
            -1.2513333559036255e-01 2.0451629161834717e-01</leafValues></_>
        <_>
          <internalNodes>
            0 -1 182 2.4607467930763960e-03</internalNodes>
          <leafValues>
            -1.2615421414375305e-01 1.9856885075569153e-01</leafValues></_>
        <_>
          <internalNodes>
            0 -1 60 8.3831295371055603e-02</internalNodes>
          <leafValues>
            -6.5190121531486511e-02 4.2589309811592102e-01</leafValues></_>
        <_>
          <internalNodes>
            0 -1 332 2.5688982009887695e-01</internalNodes>
          <leafValues>
            4.8268593847751617e-02 -6.4040052890777588e-01</leafValues></_>
        <_>
          <internalNodes>
            0 -1 500 5.3925565443933010e-03</internalNodes>
          <leafValues>
            -9.3810200691223145e-02 2.8364288806915283e-01</leafValues></_>
        <_>
          <internalNodes>
            0 -1 310 3.7484194617718458e-03</internalNodes>
          <leafValues>
            5.4493207484483719e-02 -5.7632368803024292e-01</leafValues></_>
        <_>
          <internalNodes>
            0 -1 638 -2.0207997295074165e-04</internalNodes>
          <leafValues>
            -1.7088852822780609e-01 1.2681333720684052e-01</leafValues></_>
        <_>
          <internalNodes>
            0 -1 293 1.2298194691538811e-02</internalNodes>
          <leafValues>
            -8.4945783019065857e-02 2.6658508181571960e-01</leafValues></_>
        <_>
          <internalNodes>
            0 -1 247 2.4262063205242157e-02</internalNodes>
          <leafValues>
            4.0734600275754929e-02 -7.1865379810333252e-01</leafValues></_>
        <_>
          <internalNodes>
            0 -1 612 1.7025355482473969e-03</internalNodes>
          <leafValues>
            -1.3236422836780548e-01 1.7658326029777527e-01</leafValues></_>
        <_>
          <internalNodes>
            0 -1 264 5.3406774997711182e-02</internalNodes>
          <leafValues>
            4.3046630918979645e-02 -4.8382273316383362e-01</leafValues></_>
        <_>
          <internalNodes>
            0 -1 311 -2.0923605188727379e-04</internalNodes>
          <leafValues>
            1.6411121189594269e-01 -1.4684976637363434e-01</leafValues></_>
        <_>
          <internalNodes>
            0 -1 271 5.0368092954158783e-02</internalNodes>
          <leafValues>
            7.3855631053447723e-02 -3.5828560590744019e-01</leafValues></_>
        <_>
          <internalNodes>
            0 -1 522 -7.4081518687307835e-04</internalNodes>
          <leafValues>
            -4.5208641886711121e-01 4.6994090080261230e-02</leafValues></_>
        <_>
          <internalNodes>
            0 -1 420 1.2063614558428526e-03</internalNodes>
          <leafValues>
            -8.2788191735744476e-02 2.8172686696052551e-01</leafValues></_>
        <_>
          <internalNodes>
            0 -1 107 4.0254918858408928e-03</internalNodes>
          <leafValues>
            -6.5810345113277435e-02 3.1449538469314575e-01</leafValues></_>
        <_>
          <internalNodes>
            0 -1 35 2.7117194607853889e-02</internalNodes>
          <leafValues>
            4.3574020266532898e-02 -5.3738445043563843e-01</leafValues></_>
        <_>
          <internalNodes>
            0 -1 181 1.3811625540256500e-03</internalNodes>
          <leafValues>
            -1.5651237964630127e-01 1.5670040249824524e-01</leafValues></_>
        <_>
          <internalNodes>
            0 -1 143 2.9703390318900347e-03</internalNodes>
          <leafValues>
            -1.0240314155817032e-01 2.1930374205112457e-01</leafValues></_>
        <_>
          <internalNodes>
            0 -1 658 -1.3740649446845055e-03</internalNodes>
          <leafValues>
            -3.0647868290543556e-02 6.7978167533874512e-01</leafValues></_>
        <_>
          <internalNodes>
            0 -1 511 3.8138064555823803e-03</internalNodes>
          <leafValues>
            4.5097552239894867e-02 -5.9374707937240601e-01</leafValues></_>
        <_>
          <internalNodes>
            0 -1 201 -2.2101451177150011e-03</internalNodes>
          <leafValues>
            2.8151792287826538e-01 -9.6207767724990845e-02</leafValues></_>
        <_>
          <internalNodes>
            0 -1 664 1.1316438030917197e-04</internalNodes>
          <leafValues>
            1.1865349858999252e-01 -2.0166932046413422e-01</leafValues></_>
        <_>
          <internalNodes>
            0 -1 471 8.8456063531339169e-04</internalNodes>
          <leafValues>
            -8.1607654690742493e-02 3.0793955922126770e-01</leafValues></_>
        <_>
          <internalNodes>
            0 -1 427 -1.4737721532583237e-02</internalNodes>
          <leafValues>
            3.5966357588768005e-01 -7.5705833733081818e-02</leafValues></_>
        <_>
          <internalNodes>
            0 -1 592 5.5945786880329251e-04</internalNodes>
          <leafValues>
            -9.5342561602592468e-02 2.3586758971214294e-01</leafValues></_>
        <_>
          <internalNodes>
            0 -1 268 -3.7113938014954329e-04</internalNodes>
          <leafValues>
            2.0105788111686707e-01 -1.1424928158521652e-01</leafValues></_>
        <_>
          <internalNodes>
            0 -1 663 -6.1134668067097664e-04</internalNodes>
          <leafValues>
            2.9560267925262451e-01 -7.9529009759426117e-02</leafValues></_>
        <_>
          <internalNodes>
            0 -1 147 2.7461355924606323e-01</internalNodes>
          <leafValues>
            -3.8435522466897964e-02 5.8048021793365479e-01</leafValues></_>
        <_>
          <internalNodes>
            0 -1 387 4.9455575644969940e-03</internalNodes>
          <leafValues>
            4.0692444890737534e-02 -6.4674729108810425e-01</leafValues></_>
        <_>
          <internalNodes>
            0 -1 73 1.7031570314429700e-04</internalNodes>
          <leafValues>
            1.0463576763868332e-01 -2.1128328144550323e-01</leafValues></_>
        <_>
          <internalNodes>
            0 -1 633 -1.9848506897687912e-02</internalNodes>
          <leafValues>
            3.3585122227668762e-01 -6.7911826074123383e-02</leafValues></_>
        <_>
          <internalNodes>
            0 -1 434 -2.2119970526546240e-03</internalNodes>
          <leafValues>
            -7.4261653423309326e-01 3.2004047185182571e-02</leafValues></_>
        <_>
          <internalNodes>
            0 -1 148 -1.2721418170258403e-03</internalNodes>
          <leafValues>
            2.3997025191783905e-01 -9.4987049698829651e-02</leafValues></_>
        <_>
          <internalNodes>
            0 -1 593 9.7236735746264458e-03</internalNodes>
          <leafValues>
            -9.6490703523159027e-02 2.2355619072914124e-01</leafValues></_>
        <_>
          <internalNodes>
            0 -1 180 -3.1990120187401772e-03</internalNodes>
          <leafValues>
            -8.4294527769088745e-01 2.3580141365528107e-02</leafValues></_>
        <_>
          <internalNodes>
            0 -1 261 1.7131665349006653e-01</internalNodes>
          <leafValues>
            -1.3968987762928009e-01 1.4320266246795654e-01</leafValues></_>
        <_>
          <internalNodes>
            0 -1 548 -1.9328964408487082e-03</internalNodes>
          <leafValues>
            2.1391002833843231e-01 -9.8377890884876251e-02</leafValues></_>
        <_>
          <internalNodes>
            0 -1 676 -7.8029430005699396e-04</internalNodes>
          <leafValues>
            -2.8324875235557556e-01 7.8325122594833374e-02</leafValues></_>
        <_>
          <internalNodes>
            0 -1 372 9.8019540309906006e-03</internalNodes>
          <leafValues>
            -8.7118826806545258e-02 2.3804004490375519e-01</leafValues></_>
        <_>
          <internalNodes>
            0 -1 464 1.9843785092234612e-02</internalNodes>
          <leafValues>
            4.7037295997142792e-02 -5.1547139883041382e-01</leafValues></_>
        <_>
          <internalNodes>
            0 -1 630 -8.9764129370450974e-05</internalNodes>
          <leafValues>
            1.6872599720954895e-01 -1.2053547799587250e-01</leafValues></_>
        <_>
          <internalNodes>
            0 -1 632 -2.7549799997359514e-03</internalNodes>
          <leafValues>
            -7.6433938741683960e-01 2.8822284191846848e-02</leafValues></_>
        <_>
          <internalNodes>
            0 -1 524 -1.1366852559149265e-02</internalNodes>
          <leafValues>
            2.7451983094215393e-01 -8.5453942418098450e-02</leafValues></_>
        <_>
          <internalNodes>
            0 -1 544 -3.7477398291230202e-03</internalNodes>
          <leafValues>
            -7.8414660692214966e-01 2.7515830472111702e-02</leafValues></_>
        <_>
          <internalNodes>
            0 -1 634 2.0388655364513397e-02</internalNodes>
          <leafValues>
            3.1174594536423683e-02 -5.6845396757125854e-01</leafValues></_>
        <_>
          <internalNodes>
            0 -1 111 -4.8618584871292114e-02</internalNodes>
          <leafValues>
            1.9047878682613373e-01 -1.1084758490324020e-01</leafValues></_>
        <_>
          <internalNodes>
            0 -1 228 -1.8551852554082870e-02</internalNodes>
          <leafValues>
            2.1712245047092438e-01 -9.6866175532341003e-02</leafValues></_></weakClassifiers></_>
    <!-- stage 6 -->
    <_>
      <maxWeakCount>53</maxWeakCount>
      <stageThreshold>-1.1994059085845947e+00</stageThreshold>
      <weakClassifiers>
        <_>
          <internalNodes>
            0 -1 97 1.7886669933795929e-01</internalNodes>
          <leafValues>
            -6.0333007574081421e-01 2.4217118322849274e-01</leafValues></_>
        <_>
          <internalNodes>
            0 -1 315 -5.3472325205802917e-02</internalNodes>
          <leafValues>
            1.8599826097488403e-01 -4.2875203490257263e-01</leafValues></_>
        <_>
          <internalNodes>
            0 -1 291 -1.1424907483160496e-02</internalNodes>
          <leafValues>
            1.9335213303565979e-01 -3.2248547673225403e-01</leafValues></_>
        <_>
          <internalNodes>
            0 -1 542 4.9837321043014526e-02</internalNodes>
          <leafValues>
            -3.2685413956642151e-01 1.5924523770809174e-01</leafValues></_>
        <_>
          <internalNodes>
            0 -1 211 1.7291847616434097e-02</internalNodes>
          <leafValues>
            -1.1718792468309402e-01 3.6673125624656677e-01</leafValues></_>
        <_>
          <internalNodes>
            0 -1 439 -1.5888357535004616e-02</internalNodes>
          <leafValues>
            -8.8924133777618408e-01 8.3101294934749603e-02</leafValues></_>
        <_>
          <internalNodes>
            0 -1 350 7.4646749999374151e-04</internalNodes>
          <leafValues>
            3.4610200673341751e-02 -6.2716668844223022e-01</leafValues></_>
        <_>
          <internalNodes>
            0 -1 442 -8.4273298853076994e-05</internalNodes>
          <leafValues>
            1.1904122680425644e-01 -3.3530792593955994e-01</leafValues></_>
        <_>
          <internalNodes>
            0 -1 389 -3.1648380681872368e-03</internalNodes>
          <leafValues>
            -6.5713101625442505e-01 6.7136235535144806e-02</leafValues></_>
        <_>
          <internalNodes>
            0 -1 71 -1.5748885925859213e-04</internalNodes>
          <leafValues>
            -2.8367403149604797e-01 1.3081869482994080e-01</leafValues></_>
        <_>
          <internalNodes>
            0 -1 639 -2.7605541981756687e-04</internalNodes>
          <leafValues>
            -2.7977246046066284e-01 1.1330988258123398e-01</leafValues></_>
        <_>
          <internalNodes>
            0 -1 71 1.2117879668949172e-04</internalNodes>
          <leafValues>
            1.3099549710750580e-01 -2.7148717641830444e-01</leafValues></_>
        <_>
          <internalNodes>
            0 -1 76 -1.0027926415205002e-02</internalNodes>
          <leafValues>
            2.5774967670440674e-01 -1.3746251165866852e-01</leafValues></_>
        <_>
          <internalNodes>
            0 -1 159 -9.2767523601651192e-03</internalNodes>
          <leafValues>
            -6.5476453304290771e-01 3.4869067370891571e-02</leafValues></_>
        <_>
          <internalNodes>
            0 -1 465 -6.5151853486895561e-03</internalNodes>
          <leafValues>
            4.3300986289978027e-02 -7.0096027851104736e-01</leafValues></_>
        <_>
          <internalNodes>
            0 -1 96 3.2243244349956512e-02</internalNodes>
          <leafValues>
            3.6927126348018646e-02 -6.3541126251220703e-01</leafValues></_>
        <_>
          <internalNodes>
            0 -1 531 9.5292169135063887e-04</internalNodes>
          <leafValues>
            -1.0928248614072800e-01 2.9657918214797974e-01</leafValues></_>
        <_>
          <internalNodes>
            0 -1 333 3.5568258166313171e-01</internalNodes>
          <leafValues>
            7.0511929690837860e-02 -4.1567486524581909e-01</leafValues></_>
        <_>
          <internalNodes>
            0 -1 452 -1.7397165065631270e-03</internalNodes>
          <leafValues>
            -7.8726375102996826e-01 3.6133095622062683e-02</leafValues></_>
        <_>
          <internalNodes>
            0 -1 449 2.1239216439425945e-03</internalNodes>
          <leafValues>
            5.4266635328531265e-02 -5.0574773550033569e-01</leafValues></_>
        <_>
          <internalNodes>
            0 -1 585 2.1525588817894459e-03</internalNodes>
          <leafValues>
            -1.0001284629106522e-01 2.8365325927734375e-01</leafValues></_>
        <_>
          <internalNodes>
            0 -1 366 -4.9642771482467651e-02</internalNodes>
          <leafValues>
            -5.0719755887985229e-01 5.3415320813655853e-02</leafValues></_>
        <_>
          <internalNodes>
            0 -1 514 -1.9784808158874512e-02</internalNodes>
          <leafValues>
            -5.8907872438430786e-01 3.6329220980405807e-02</leafValues></_>
        <_>
          <internalNodes>
            0 -1 533 -2.7292494196444750e-03</internalNodes>
          <leafValues>
            4.1370704770088196e-01 -7.0168346166610718e-02</leafValues></_>
        <_>
          <internalNodes>
            0 -1 438 -3.1347639858722687e-02</internalNodes>
          <leafValues>
            -8.1665635108947754e-01 4.4803973287343979e-02</leafValues></_>
        <_>
          <internalNodes>
            0 -1 327 1.6491499263793230e-03</internalNodes>
          <leafValues>
            4.1213363409042358e-02 -5.3643852472305298e-01</leafValues></_>
        <_>
          <internalNodes>
            0 -1 336 -1.6436264850199223e-03</internalNodes>
          <leafValues>
            3.4059184789657593e-01 -8.5992507636547089e-02</leafValues></_>
        <_>
          <internalNodes>
            0 -1 130 1.3414126634597778e-01</internalNodes>
          <leafValues>
            -2.9790985584259033e-01 9.7366861999034882e-02</leafValues></_>
        <_>
          <internalNodes>
            0 -1 69 -4.1772566735744476e-02</internalNodes>
          <leafValues>
            5.4138314723968506e-01 -5.9177584946155548e-02</leafValues></_>
        <_>
          <internalNodes>
            0 -1 374 7.2313500568270683e-03</internalNodes>
          <leafValues>
            -9.4473958015441895e-02 2.9526764154434204e-01</leafValues></_>
        <_>
          <internalNodes>
            0 -1 398 2.5619324296712875e-03</internalNodes>
          <leafValues>
            3.5642605274915695e-02 -6.6230762004852295e-01</leafValues></_>
        <_>
          <internalNodes>
            0 -1 584 -2.6146052405238152e-03</internalNodes>
          <leafValues>
            4.5651814341545105e-01 -5.9618428349494934e-02</leafValues></_>
        <_>
          <internalNodes>
            0 -1 482 2.8446908108890057e-03</internalNodes>
          <leafValues>
            4.6781495213508606e-02 -5.7208770513534546e-01</leafValues></_>
        <_>
          <internalNodes>
            0 -1 114 -2.9870425350964069e-03</internalNodes>
          <leafValues>
            3.7431675195693970e-01 -7.0720277726650238e-02</leafValues></_>
        <_>
          <internalNodes>
            0 -1 243 7.7857868745923042e-04</internalNodes>
          <leafValues>
            -6.7325353622436523e-02 3.7529769539833069e-01</leafValues></_>
        <_>
          <internalNodes>
            0 -1 502 1.5892669558525085e-01</internalNodes>
          <leafValues>
            -3.5469170659780502e-02 6.9301700592041016e-01</leafValues></_>
        <_>
          <internalNodes>
            0 -1 602 2.2090827114880085e-03</internalNodes>
          <leafValues>
            1.2126412987709045e-01 -2.5694680213928223e-01</leafValues></_>
        <_>
          <internalNodes>
            0 -1 574 -6.9928811863064766e-03</internalNodes>
          <leafValues>
            -5.2743721008300781e-01 5.5943001061677933e-02</leafValues></_>
        <_>
          <internalNodes>
            0 -1 471 2.7697582845576108e-04</internalNodes>
          <leafValues>
            -1.3463073968887329e-01 1.9522227346897125e-01</leafValues></_>
        <_>
          <internalNodes>
            0 -1 432 1.5820020344108343e-03</internalNodes>
          <leafValues>
            -1.0342524945735931e-01 2.6383584737777710e-01</leafValues></_>
        <_>
          <internalNodes>
            0 -1 278 -1.0112386662513018e-03</internalNodes>
          <leafValues>
            -5.1755994558334351e-01 5.0165064632892609e-02</leafValues></_>
        <_>
          <internalNodes>
            0 -1 51 3.1163389794528484e-03</internalNodes>
          <leafValues>
            -1.2305455654859543e-01 2.1574026346206665e-01</leafValues></_>
        <_>
          <internalNodes>
            0 -1 277 6.3631485681980848e-04</internalNodes>
          <leafValues>
            1.0393380373716354e-01 -2.6097270846366882e-01</leafValues></_>
        <_>
          <internalNodes>
            0 -1 399 -3.0604635830968618e-03</internalNodes>
          <leafValues>
            1.6046674549579620e-01 -1.6499237716197968e-01</leafValues></_>
        <_>
          <internalNodes>
            0 -1 334 3.6041717976331711e-05</internalNodes>
          <leafValues>
            -1.2592501938343048e-01 2.0931120216846466e-01</leafValues></_>
        <_>
          <internalNodes>
            0 -1 580 1.2781365076079965e-03</internalNodes>
          <leafValues>
            -7.9073451459407806e-02 3.1465566158294678e-01</leafValues></_>
        <_>
          <internalNodes>
            0 -1 306 -2.4261914659291506e-03</internalNodes>
          <leafValues>
            2.8848800063133240e-01 -8.6447015404701233e-02</leafValues></_>
        <_>
          <internalNodes>
            0 -1 272 3.6182068288326263e-02</internalNodes>
          <leafValues>
            8.3508752286434174e-02 -3.0831697583198547e-01</leafValues></_>
        <_>
          <internalNodes>
            0 -1 308 1.7488722503185272e-01</internalNodes>
          <leafValues>
            -6.2263902276754379e-02 4.5820233225822449e-01</leafValues></_>
        <_>
          <internalNodes>
            0 -1 590 1.1308667308185250e-04</internalNodes>
          <leafValues>
            -1.1756365001201630e-01 2.1630552411079407e-01</leafValues></_>
        <_>
          <internalNodes>
            0 -1 575 -1.6048516845330596e-03</internalNodes>
          <leafValues>
            -3.5948798060417175e-01 7.1120440959930420e-02</leafValues></_>
        <_>
          <internalNodes>
            0 -1 657 6.3983650761656463e-05</internalNodes>
          <leafValues>
            1.2095426023006439e-01 -2.0431660115718842e-01</leafValues></_>
        <_>
          <internalNodes>
            0 -1 636 -1.1208766409254167e-05</internalNodes>
          <leafValues>
            1.6009159386157990e-01 -1.6359163820743561e-01</leafValues></_></weakClassifiers></_>
    <!-- stage 7 -->
    <_>
      <maxWeakCount>66</maxWeakCount>
      <stageThreshold>-1.1225689649581909e+00</stageThreshold>
      <weakClassifiers>
        <_>
          <internalNodes>
            0 -1 175 2.6652860641479492e-01</internalNodes>
          <leafValues>
            -4.8157247900962830e-01 3.1541219353675842e-01</leafValues></_>
        <_>
          <internalNodes>
            0 -1 462 -1.0866430588066578e-02</internalNodes>
          <leafValues>
            3.5181432962417603e-01 -1.7466704547405243e-01</leafValues></_>
        <_>
          <internalNodes>
            0 -1 150 -6.5328098833560944e-02</internalNodes>
          <leafValues>
            -9.1593456268310547e-01 1.7552122473716736e-02</leafValues></_>
        <_>
          <internalNodes>
            0 -1 459 -7.7483928762376308e-03</internalNodes>
          <leafValues>
            2.3522770404815674e-01 -2.3615439236164093e-01</leafValues></_>
        <_>
          <internalNodes>
            0 -1 507 1.1287018656730652e-02</internalNodes>
          <leafValues>
            4.4693805277347565e-02 -5.1591354608535767e-01</leafValues></_>
        <_>
          <internalNodes>
            0 -1 520 -9.7350664436817169e-03</internalNodes>
          <leafValues>
            2.5557044148445129e-01 -1.5927806496620178e-01</leafValues></_>
        <_>
          <internalNodes>
            0 -1 204 3.4889787435531616e-02</internalNodes>
          <leafValues>
            9.7260139882564545e-02 -3.4979632496833801e-01</leafValues></_>
        <_>
          <internalNodes>
            0 -1 667 -6.6151039209216833e-04</internalNodes>
          <leafValues>
            -3.7717548012733459e-01 9.2193968594074249e-02</leafValues></_>
        <_>
          <internalNodes>
            0 -1 383 -5.5825551971793175e-03</internalNodes>
          <leafValues>
            -4.3374130129814148e-01 7.4501015245914459e-02</leafValues></_>
        <_>
          <internalNodes>
            0 -1 379 -1.3646141451317817e-04</internalNodes>
          <leafValues>
            1.4361111819744110e-01 -2.2580349445343018e-01</leafValues></_>
        <_>
          <internalNodes>
            0 -1 21 3.9313875138759613e-02</internalNodes>
          <leafValues>
            2.8390113264322281e-02 -6.9069546461105347e-01</leafValues></_>
        <_>
          <internalNodes>
            0 -1 456 -3.8763307034969330e-02</internalNodes>
          <leafValues>
            -4.9319815635681152e-01 6.0057722032070160e-02</leafValues></_>
        <_>
          <internalNodes>
            0 -1 601 -3.3922832459211349e-02</internalNodes>
          <leafValues>
            -7.8941422700881958e-01 3.6838568747043610e-02</leafValues></_>
        <_>
          <internalNodes>
            0 -1 556 1.2849905760958791e-03</internalNodes>
          <leafValues>
            5.5892165750265121e-02 -4.1958495974540710e-01</leafValues></_>
        <_>
          <internalNodes>
            0 -1 203 3.3872872591018677e-01</internalNodes>
          <leafValues>
            5.0298567861318588e-02 -5.0320553779602051e-01</leafValues></_>
        <_>
          <internalNodes>
            0 -1 102 1.7583850771188736e-02</internalNodes>
          <leafValues>
            -1.1155492812395096e-01 2.9503887891769409e-01</leafValues></_>
        <_>
          <internalNodes>
            0 -1 573 3.4922383725643158e-02</internalNodes>
          <leafValues>
            -4.4029612094163895e-02 6.0008966922760010e-01</leafValues></_>
        <_>
          <internalNodes>
            0 -1 14 -1.1482834815979004e-01</internalNodes>
          <leafValues>
            -5.5513268709182739e-01 5.4409936070442200e-02</leafValues></_>
        <_>
          <internalNodes>
            0 -1 457 -5.2862672600895166e-04</internalNodes>
          <leafValues>
            -3.7937235832214355e-01 7.7115885913372040e-02</leafValues></_>
        <_>
          <internalNodes>
            0 -1 289 -6.2505621463060379e-04</internalNodes>
          <leafValues>
            -4.7664943337440491e-01 5.2626512944698334e-02</leafValues></_>
        <_>
          <internalNodes>
            0 -1 289 1.1859082151204348e-03</internalNodes>
          <leafValues>
            3.9644367992877960e-02 -6.2414681911468506e-01</leafValues></_>
        <_>
          <internalNodes>
            0 -1 207 -2.9527798760682344e-03</internalNodes>
          <leafValues>
            3.8766732811927795e-01 -8.4699586033821106e-02</leafValues></_>
        <_>
          <internalNodes>
            0 -1 168 2.4429552722722292e-03</internalNodes>
          <leafValues>
            -8.2929395139217377e-02 3.5918274521827698e-01</leafValues></_>
        <_>
          <internalNodes>
            0 -1 349 -3.6408500745892525e-03</internalNodes>
          <leafValues>
            -5.6125450134277344e-01 4.8280458897352219e-02</leafValues></_>
        <_>
          <internalNodes>
            0 -1 283 1.7776153981685638e-03</internalNodes>
          <leafValues>
            -1.4023780822753906e-01 2.1223770081996918e-01</leafValues></_>
        <_>
          <internalNodes>
            0 -1 161 9.4313193112611771e-03</internalNodes>
          <leafValues>
            4.8777740448713303e-02 -6.2243556976318359e-01</leafValues></_>
        <_>
          <internalNodes>
            0 -1 473 -1.3184801209717989e-03</internalNodes>
          <leafValues>
            -4.5285725593566895e-01 4.6521779149770737e-02</leafValues></_>
        <_>
          <internalNodes>
            0 -1 530 1.2550573796033859e-02</internalNodes>
          <leafValues>
            -7.9875573515892029e-02 3.5330626368522644e-01</leafValues></_>
        <_>
          <internalNodes>
            0 -1 461 2.9491784516721964e-03</internalNodes>
          <leafValues>
            2.8744554147124290e-02 -8.3043640851974487e-01</leafValues></_>
        <_>
          <internalNodes>
            0 -1 435 -3.4382946789264679e-02</internalNodes>
          <leafValues>
            4.3568477034568787e-01 -6.3515052199363708e-02</leafValues></_>
        <_>
          <internalNodes>
            0 -1 553 5.6447321549057961e-04</internalNodes>
          <leafValues>
            5.3372763097286224e-02 -4.8202177882194519e-01</leafValues></_>
        <_>
          <internalNodes>
            0 -1 218 -4.2040090193040669e-05</internalNodes>
          <leafValues>
            1.5286283195018768e-01 -1.5577328205108643e-01</leafValues></_>
        <_>
          <internalNodes>
            0 -1 49 2.7574548125267029e-01</internalNodes>
          <leafValues>
            -5.0793994218111038e-02 5.4785501956939697e-01</leafValues></_>
        <_>
          <internalNodes>
            0 -1 234 6.6198292188346386e-04</internalNodes>
          <leafValues>
            -9.8845750093460083e-02 2.3037150502204895e-01</leafValues></_>
        <_>
          <internalNodes>
            0 -1 320 6.5456931479275227e-03</internalNodes>
          <leafValues>
            4.3028451502323151e-02 -6.7487370967864990e-01</leafValues></_>
        <_>
          <internalNodes>
            0 -1 538 -1.2151476694270968e-03</internalNodes>
          <leafValues>
            1.7990735173225403e-01 -1.3476039469242096e-01</leafValues></_>
        <_>
          <internalNodes>
            0 -1 355 3.8417507312260568e-05</internalNodes>
          <leafValues>
            -1.5808734297752380e-01 1.4730848371982574e-01</leafValues></_>
        <_>
          <internalNodes>
            0 -1 515 2.6133852079510689e-03</internalNodes>
          <leafValues>
            3.8944251835346222e-02 -5.9842342138290405e-01</leafValues></_>
        <_>
          <internalNodes>
            0 -1 484 -1.7188633501064032e-04</internalNodes>
          <leafValues>
            9.2829190194606781e-02 -2.6159694790840149e-01</leafValues></_>
        <_>
          <internalNodes>
            0 -1 607 -3.8594804937019944e-04</internalNodes>
          <leafValues>
            -2.5848358869552612e-01 1.1149933934211731e-01</leafValues></_>
        <_>
          <internalNodes>
            0 -1 257 1.8304891884326935e-02</internalNodes>
          <leafValues>
            -9.3444287776947021e-02 2.7612042427062988e-01</leafValues></_>
        <_>
          <internalNodes>
            0 -1 339 -1.7819446511566639e-03</internalNodes>
          <leafValues>
            3.0320295691490173e-01 -9.0716145932674408e-02</leafValues></_>
        <_>
          <internalNodes>
            0 -1 417 -4.6920882596168667e-05</internalNodes>
          <leafValues>
            1.7241586744785309e-01 -1.4617939293384552e-01</leafValues></_>
        <_>
          <internalNodes>
            0 -1 162 -4.8959627747535706e-04</internalNodes>
          <leafValues>
            -3.3181783556938171e-01 7.8209742903709412e-02</leafValues></_>
        <_>
          <internalNodes>
            0 -1 309 1.0904962196946144e-02</internalNodes>
          <leafValues>
            -8.5667170584201813e-02 2.8995802998542786e-01</leafValues></_>
        <_>
          <internalNodes>
            0 -1 265 6.2847454100847244e-03</internalNodes>
          <leafValues>
            -8.5770867764949799e-02 2.6126626133918762e-01</leafValues></_>
        <_>
          <internalNodes>
            0 -1 569 -3.1265933066606522e-02</internalNodes>
          <leafValues>
            -9.5716840028762817e-01 2.3559762164950371e-02</leafValues></_>
        <_>
          <internalNodes>
            0 -1 170 -3.7667292053811252e-04</internalNodes>
          <leafValues>
            1.2469848245382309e-01 -2.0522648096084595e-01</leafValues></_>
        <_>
          <internalNodes>
            0 -1 429 -4.0286118164658546e-03</internalNodes>
          <leafValues>
            3.1295964121818542e-01 -7.6758265495300293e-02</leafValues></_>
        <_>
          <internalNodes>
            0 -1 483 2.1630446426570415e-03</internalNodes>
          <leafValues>
            3.8297668099403381e-02 -6.4452952146530151e-01</leafValues></_>
        <_>
          <internalNodes>
            0 -1 210 -1.0486601851880550e-02</internalNodes>
          <leafValues>
            -7.6310366392135620e-01 2.4534892290830612e-02</leafValues></_>
        <_>
          <internalNodes>
            0 -1 43 -7.4550402350723743e-03</internalNodes>
          <leafValues>
            3.8054606318473816e-01 -6.5166540443897247e-02</leafValues></_>
        <_>
          <internalNodes>
            0 -1 27 7.7247577719390392e-03</internalNodes>
          <leafValues>
            -1.0709494352340698e-01 3.0991709232330322e-01</leafValues></_>
        <_>
          <internalNodes>
            0 -1 183 -6.7983716726303101e-02</internalNodes>
          <leafValues>
            -1.8336226046085358e-01 1.4443004131317139e-01</leafValues></_>
        <_>
          <internalNodes>
            0 -1 491 -5.3418530151247978e-03</internalNodes>
          <leafValues>
            -8.8031709194183350e-01 2.6087040081620216e-02</leafValues></_>
        <_>
          <internalNodes>
            0 -1 430 -2.5646961294114590e-03</internalNodes>
          <leafValues>
            4.1975509375333786e-02 -4.9663904309272766e-01</leafValues></_>
        <_>
          <internalNodes>
            0 -1 75 -1.6105908900499344e-02</internalNodes>
          <leafValues>
            -9.5743501186370850e-01 2.0146876573562622e-02</leafValues></_>
        <_>
          <internalNodes>
            0 -1 64 -1.4512082270812243e-04</internalNodes>
          <leafValues>
            -2.1345083415508270e-01 1.0670933872461319e-01</leafValues></_>
        <_>
          <internalNodes>
            0 -1 594 3.2739073503762484e-04</internalNodes>
          <leafValues>
            -8.4769502282142639e-02 2.8834581375122070e-01</leafValues></_>
        <_>
          <internalNodes>
            0 -1 536 -6.5395543351769447e-03</internalNodes>
          <leafValues>
            2.4667418003082275e-01 -1.1367788165807724e-01</leafValues></_>
        <_>
          <internalNodes>
            0 -1 678 -2.5656004436314106e-04</internalNodes>
          <leafValues>
            -2.7942630648612976e-01 9.5135353505611420e-02</leafValues></_>
        <_>
          <internalNodes>
            0 -1 678 7.4551309808157384e-05</internalNodes>
          <leafValues>
            1.1164404451847076e-01 -2.2694444656372070e-01</leafValues></_>
        <_>
          <internalNodes>
            0 -1 125 -4.3852045200765133e-04</internalNodes>
          <leafValues>
            -2.7843719720840454e-01 8.1668950617313385e-02</leafValues></_>
        <_>
          <internalNodes>
            0 -1 187 -5.4315553279593587e-04</internalNodes>
          <leafValues>
            1.9534382224082947e-01 -1.1969493329524994e-01</leafValues></_>
        <_>
          <internalNodes>
            0 -1 59 -2.9543626587837934e-03</internalNodes>
          <leafValues>
            -3.4098967909812927e-01 6.8852350115776062e-02</leafValues></_>
        <_>
          <internalNodes>
            0 -1 529 -1.6674506478011608e-03</internalNodes>
          <leafValues>
            1.9786533713340759e-01 -1.2231512367725372e-01</leafValues></_></weakClassifiers></_>
    <!-- stage 8 -->
    <_>
      <maxWeakCount>67</maxWeakCount>
      <stageThreshold>-1.0176949501037598e+00</stageThreshold>
      <weakClassifiers>
        <_>
          <internalNodes>
            0 -1 547 2.1121311932802200e-02</internalNodes>
          <leafValues>
            -5.1551550626754761e-01 2.9940119013190269e-02</leafValues></_>
        <_>
          <internalNodes>
            0 -1 466 -4.1154446080327034e-03</internalNodes>
          <leafValues>
            3.2752156257629395e-01 -1.5309217572212219e-01</leafValues></_>
        <_>
          <internalNodes>
            0 -1 250 -1.9393604248762131e-02</internalNodes>
          <leafValues>
            2.0017527043819427e-01 -2.1448208391666412e-01</leafValues></_>
        <_>
          <internalNodes>
            0 -1 245 -3.3078405540436506e-03</internalNodes>
          <leafValues>
            1.5947490930557251e-01 -2.5146040320396423e-01</leafValues></_>
        <_>
          <internalNodes>
            0 -1 12 8.3908446133136749e-02</internalNodes>
          <leafValues>
            1.3388584554195404e-01 -3.8822403550148010e-01</leafValues></_>
        <_>
          <internalNodes>
            0 -1 550 -1.3439068570733070e-03</internalNodes>
          <leafValues>
            -3.8558688759803772e-01 7.7122554183006287e-02</leafValues></_>
        <_>
          <internalNodes>
            0 -1 680 -1.3391929678618908e-04</internalNodes>
          <leafValues>
            -2.1764679253101349e-01 1.5417489409446716e-01</leafValues></_>
        <_>
          <internalNodes>
            0 -1 680 6.6263302869629115e-05</internalNodes>
          <leafValues>
            1.1493830382823944e-01 -2.5031337141990662e-01</leafValues></_>
        <_>
          <internalNodes>
            0 -1 500 6.0009714215993881e-03</internalNodes>
          <leafValues>
            -9.6399173140525818e-02 3.4190636873245239e-01</leafValues></_>
        <_>
          <internalNodes>
            0 -1 225 9.9994242191314697e-04</internalNodes>
          <leafValues>
            1.4591123163700104e-01 -2.0148958265781403e-01</leafValues></_>
        <_>
          <internalNodes>
            0 -1 29 -5.2704624831676483e-02</internalNodes>
          <leafValues>
            3.5324621200561523e-01 -8.9381739497184753e-02</leafValues></_>
        <_>
          <internalNodes>
            0 -1 226 -1.9389178603887558e-02</internalNodes>
          <leafValues>
            -5.6457293033599854e-01 5.0005335360765457e-02</leafValues></_>
        <_>
          <internalNodes>
            0 -1 296 1.1499193497002125e-03</internalNodes>
          <leafValues>
            -1.0954107344150543e-01 2.3290023207664490e-01</leafValues></_>
        <_>
          <internalNodes>
            0 -1 79 -3.6018696846440434e-04</internalNodes>
          <leafValues>
            -2.9522010684013367e-01 9.1483838856220245e-02</leafValues></_>
        <_>
          <internalNodes>
            0 -1 152 3.9043882861733437e-04</internalNodes>
          <leafValues>
            -1.2222330272197723e-01 2.0141968131065369e-01</leafValues></_>
        <_>
          <internalNodes>
            0 -1 421 -7.3609000537544489e-04</internalNodes>
          <leafValues>
            -4.2817538976669312e-01 5.6330233812332153e-02</leafValues></_>
        <_>
          <internalNodes>
            0 -1 298 -4.3001966550946236e-03</internalNodes>
          <leafValues>
            3.4251546859741211e-01 -7.0688642561435699e-02</leafValues></_>
        <_>
          <internalNodes>
            0 -1 294 5.7915467768907547e-03</internalNodes>
          <leafValues>
            -1.3860616087913513e-01 1.9923041760921478e-01</leafValues></_>
        <_>
          <internalNodes>
            0 -1 166 -9.9005170166492462e-02</internalNodes>
          <leafValues>
            -4.2389595508575439e-01 5.9118643403053284e-02</leafValues></_>
        <_>
          <internalNodes>
            0 -1 404 8.7473997846245766e-03</internalNodes>
          <leafValues>
            -1.0633612424135208e-01 2.6360374689102173e-01</leafValues></_>
        <_>
          <internalNodes>
            0 -1 174 3.5452127456665039e-02</internalNodes>
          <leafValues>
            4.3935343623161316e-02 -4.9580556154251099e-01</leafValues></_>
        <_>
          <internalNodes>
            0 -1 540 -7.4983481317758560e-04</internalNodes>
          <leafValues>
            -4.4931524991989136e-01 4.8526950180530548e-02</leafValues></_>
        <_>
          <internalNodes>
            0 -1 131 1.6709938645362854e-01</internalNodes>
          <leafValues>
            -2.9013492166996002e-02 8.6391067504882813e-01</leafValues></_>
        <_>
          <internalNodes>
            0 -1 324 1.8061398295685649e-03</internalNodes>
          <leafValues>
            -5.5558543652296066e-02 3.5485821962356567e-01</leafValues></_>
        <_>
          <internalNodes>
            0 -1 626 -2.3456174880266190e-02</internalNodes>
          <leafValues>
            3.0202648043632507e-01 -7.7011309564113617e-02</leafValues></_>
        <_>
          <internalNodes>
            0 -1 543 4.8449430614709854e-03</internalNodes>
          <leafValues>
            -9.0287536382675171e-02 2.4792227149009705e-01</leafValues></_>
        <_>
          <internalNodes>
            0 -1 330 -5.6718634441494942e-03</internalNodes>
          <leafValues>
            2.1238696575164795e-01 -1.1246988922357559e-01</leafValues></_>
        <_>
          <internalNodes>
            0 -1 169 5.1049310714006424e-02</internalNodes>
          <leafValues>
            2.7896264567971230e-02 -7.9248058795928955e-01</leafValues></_>
        <_>
          <internalNodes>
            0 -1 17 1.3001846149563789e-02</internalNodes>
          <leafValues>
            -5.3995788097381592e-01 3.7128351628780365e-02</leafValues></_>
        <_>
          <internalNodes>
            0 -1 57 -4.2102523148059845e-03</internalNodes>
          <leafValues>
            2.3087477684020996e-01 -1.0667937994003296e-01</leafValues></_>
        <_>
          <internalNodes>
            0 -1 113 1.1809465941041708e-03</internalNodes>
          <leafValues>
            -8.2581564784049988e-02 2.9056233167648315e-01</leafValues></_>
        <_>
          <internalNodes>
            0 -1 353 -1.8851109780371189e-03</internalNodes>
          <leafValues>
            -5.8696681261062622e-01 4.6753562986850739e-02</leafValues></_>
        <_>
          <internalNodes>
            0 -1 353 6.4661528449505568e-04</internalNodes>
          <leafValues>
            7.4401296675205231e-02 -3.0100512504577637e-01</leafValues></_>
        <_>
          <internalNodes>
            0 -1 652 2.0721761393360794e-04</internalNodes>
          <leafValues>
            -1.2338734418153763e-01 1.8476919829845428e-01</leafValues></_>
        <_>
          <internalNodes>
            0 -1 566 1.5930369496345520e-02</internalNodes>
          <leafValues>
            -6.9494754076004028e-02 3.1964629888534546e-01</leafValues></_>
        <_>
          <internalNodes>
            0 -1 66 -1.8275238107889891e-04</internalNodes>
          <leafValues>
            -2.1486312150955200e-01 1.0299998521804810e-01</leafValues></_>
        <_>
          <internalNodes>
            0 -1 66 6.6302309278398752e-05</internalNodes>
          <leafValues>
            1.0780500620603561e-01 -2.0426461100578308e-01</leafValues></_>
        <_>
          <internalNodes>
            0 -1 395 -1.9731473177671432e-02</internalNodes>
          <leafValues>
            -7.7821010351181030e-01 2.4878479540348053e-02</leafValues></_>
        <_>
          <internalNodes>
            0 -1 537 -3.5237889736890793e-02</internalNodes>
          <leafValues>
            1.5828941762447357e-01 -1.4315281808376312e-01</leafValues></_>
        <_>
          <internalNodes>
            0 -1 221 -1.2686045840382576e-02</internalNodes>
          <leafValues>
            3.7433523684740067e-02 -5.9073406457901001e-01</leafValues></_>
        <_>
          <internalNodes>
            0 -1 275 -7.2795346379280090e-02</internalNodes>
          <leafValues>
            -3.8280520588159561e-02 6.3478958606719971e-01</leafValues></_>
        <_>
          <internalNodes>
            0 -1 603 -7.1090022101998329e-03</internalNodes>
          <leafValues>
            -3.7657287716865540e-01 6.4166776835918427e-02</leafValues></_>
        <_>
          <internalNodes>
            0 -1 579 1.6077600419521332e-02</internalNodes>
          <leafValues>
            -7.5737625360488892e-02 3.0980250239372253e-01</leafValues></_>
        <_>
          <internalNodes>
            0 -1 644 1.2519061565399170e-02</internalNodes>
          <leafValues>
            3.8295570760965347e-02 -5.2273285388946533e-01</leafValues></_>
        <_>
          <internalNodes>
            0 -1 141 3.8411322981119156e-02</internalNodes>
          <leafValues>
            8.8424488902091980e-02 -2.8276640176773071e-01</leafValues></_>
        <_>
          <internalNodes>
            0 -1 458 2.3895055055618286e-02</internalNodes>
          <leafValues>
            -9.0949393808841705e-02 2.6899766921997070e-01</leafValues></_>
        <_>
          <internalNodes>
            0 -1 375 -1.4515969669446349e-03</internalNodes>
          <leafValues>
            3.2835522294044495e-01 -9.6212089061737061e-02</leafValues></_>
        <_>
          <internalNodes>
            0 -1 58 6.9785322993993759e-03</internalNodes>
          <leafValues>
            5.2688647061586380e-02 -4.6886548399925232e-01</leafValues></_>
        <_>
          <internalNodes>
            0 -1 472 4.1271364898420870e-04</internalNodes>
          <leafValues>
            7.0224978029727936e-02 -2.8300073742866516e-01</leafValues></_>
        <_>
          <internalNodes>
            0 -1 230 -4.0409521898254752e-04</internalNodes>
          <leafValues>
            2.1623127162456512e-01 -1.0869267582893372e-01</leafValues></_>
        <_>
          <internalNodes>
            0 -1 508 1.8672061851248145e-03</internalNodes>
          <leafValues>
            2.7838958427309990e-02 -8.2308542728424072e-01</leafValues></_>
        <_>
          <internalNodes>
            0 -1 15 -9.5617752522230148e-03</internalNodes>
          <leafValues>
            3.3546906709671021e-01 -6.7630246281623840e-02</leafValues></_>
        <_>
          <internalNodes>
            0 -1 307 1.0372339189052582e-01</internalNodes>
          <leafValues>
            -9.8178513348102570e-02 2.1078267693519592e-01</leafValues></_>
        <_>
          <internalNodes>
            0 -1 549 -1.1170073412358761e-04</internalNodes>
          <leafValues>
            1.1755271255970001e-01 -1.8506355583667755e-01</leafValues></_>
        <_>
          <internalNodes>
            0 -1 276 4.5980755239725113e-02</internalNodes>
          <leafValues>
            -7.9482391476631165e-02 2.5864282250404358e-01</leafValues></_>
        <_>
          <internalNodes>
            0 -1 16 1.7784163355827332e-02</internalNodes>
          <leafValues>
            -1.5902048349380493e-01 1.4439687132835388e-01</leafValues></_>
        <_>
          <internalNodes>
            0 -1 98 -1.7055198550224304e-02</internalNodes>
          <leafValues>
            -5.8650797605514526e-01 3.6138322204351425e-02</leafValues></_>
        <_>
          <internalNodes>
            0 -1 443 8.6169835412874818e-04</internalNodes>
          <leafValues>
            -9.0934813022613525e-02 2.4811303615570068e-01</leafValues></_>
        <_>
          <internalNodes>
            0 -1 681 2.2212773910723627e-04</internalNodes>
          <leafValues>
            7.4679993093013763e-02 -2.7474340796470642e-01</leafValues></_>
        <_>
          <internalNodes>
            0 -1 391 3.9421223104000092e-02</internalNodes>
          <leafValues>
            -5.9872549027204514e-02 3.6137193441390991e-01</leafValues></_>
        <_>
          <internalNodes>
            0 -1 539 -8.1442482769489288e-04</internalNodes>
          <leafValues>
            1.9990415871143341e-01 -1.2006576359272003e-01</leafValues></_>
        <_>
          <internalNodes>
            0 -1 112 -8.3794862031936646e-02</internalNodes>
          <leafValues>
            -5.6583636999130249e-01 3.8240168243646622e-02</leafValues></_>
        <_>
          <internalNodes>
            0 -1 158 3.4219706431031227e-03</internalNodes>
          <leafValues>
            -1.1134058982133865e-01 1.8927820026874542e-01</leafValues></_>
        <_>
          <internalNodes>
            0 -1 227 5.4212082177400589e-03</internalNodes>
          <leafValues>
            5.4317422211170197e-02 -5.0743740797042847e-01</leafValues></_>
        <_>
          <internalNodes>
            0 -1 80 7.0381320256274194e-05</internalNodes>
          <leafValues>
            1.0976459830999374e-01 -1.8214780092239380e-01</leafValues></_>
        <_>
          <internalNodes>
            0 -1 274 2.2866071958560497e-04</internalNodes>
          <leafValues>
            1.3104207813739777e-01 -1.5809860825538635e-01</leafValues></_>
        <_>
          <internalNodes>
            0 -1 352 -1.1166850890731439e-04</internalNodes>
          <leafValues>
            1.8400165438652039e-01 -1.0461153835058212e-01</leafValues></_></weakClassifiers></_>
    <!-- stage 9 -->
    <_>
      <maxWeakCount>94</maxWeakCount>
      <stageThreshold>-1.0317974090576172e+00</stageThreshold>
      <weakClassifiers>
        <_>
          <internalNodes>
            0 -1 215 4.2194385081529617e-02</internalNodes>
          <leafValues>
            -4.5959594845771790e-01 1.4743590354919434e-01</leafValues></_>
        <_>
          <internalNodes>
            0 -1 246 -1.5924161300063133e-02</internalNodes>
          <leafValues>
            1.1558432877063751e-01 -3.6683744192123413e-01</leafValues></_>
        <_>
          <internalNodes>
            0 -1 545 -2.3939102888107300e-02</internalNodes>
          <leafValues>
            1.6437838971614838e-01 -1.6179476678371429e-01</leafValues></_>
        <_>
          <internalNodes>
            0 -1 81 -3.5896096378564835e-03</internalNodes>
          <leafValues>
            1.8397678434848785e-01 -1.3438531756401062e-01</leafValues></_>
        <_>
          <internalNodes>
            0 -1 145 -3.0463042203336954e-03</internalNodes>
          <leafValues>
            3.3959174156188965e-01 -4.9255196005105972e-02</leafValues></_>
        <_>
          <internalNodes>
            0 -1 177 1.3658803072758019e-04</internalNodes>
          <leafValues>
            -2.1111994981765747e-01 9.2361703515052795e-02</leafValues></_>
        <_>
          <internalNodes>
            0 -1 673 -6.4618288888595998e-05</internalNodes>
          <leafValues>
            -1.5149138867855072e-01 1.4854003489017487e-01</leafValues></_>
        <_>
          <internalNodes>
            0 -1 2 4.8939278349280357e-03</internalNodes>
          <leafValues>
            -6.7964427173137665e-02 3.1271815299987793e-01</leafValues></_>
        <_>
          <internalNodes>
            0 -1 244 9.4750034622848034e-04</internalNodes>
          <leafValues>
            -9.1477267444133759e-02 2.3151469230651855e-01</leafValues></_>
        <_>
          <internalNodes>
            0 -1 457 2.3616160615347326e-04</internalNodes>
          <leafValues>
            7.8332543373107910e-02 -2.7269247174263000e-01</leafValues></_>
        <_>
          <internalNodes>
            0 -1 425 -7.8094430267810822e-02</internalNodes>
          <leafValues>
            -8.4898370504379272e-01 1.8500570207834244e-02</leafValues></_>
        <_>
          <internalNodes>
            0 -1 586 2.2807908244431019e-03</internalNodes>
          <leafValues>
            -1.0445086658000946e-01 2.0838251709938049e-01</leafValues></_>
        <_>
          <internalNodes>
            0 -1 605 -5.7351654395461082e-03</internalNodes>
          <leafValues>
            3.0682629346847534e-01 -6.4170345664024353e-02</leafValues></_>
        <_>
          <internalNodes>
            0 -1 199 -7.1815593400970101e-05</internalNodes>
          <leafValues>
            8.8250450789928436e-02 -2.1007832884788513e-01</leafValues></_>
        <_>
          <internalNodes>
            0 -1 237 1.8554162234067917e-02</internalNodes>
          <leafValues>
            3.5720147192478180e-02 -5.6611704826354980e-01</leafValues></_>
        <_>
          <internalNodes>
            0 -1 45 4.4896304607391357e-03</internalNodes>
          <leafValues>
            4.2838685214519501e-02 -4.2524915933609009e-01</leafValues></_>
        <_>
          <internalNodes>
            0 -1 682 -1.2899778084829450e-04</internalNodes>
          <leafValues>
            -1.4958162605762482e-01 1.2277985364198685e-01</leafValues></_>
        <_>
          <internalNodes>
            0 -1 345 -3.7866206839680672e-03</internalNodes>
          <leafValues>
            2.4761075153946877e-02 -7.0120292901992798e-01</leafValues></_>
        <_>
          <internalNodes>
            0 -1 156 -4.0271338075399399e-02</internalNodes>
          <leafValues>
            -4.2361389845609665e-02 4.6384200453758240e-01</leafValues></_>
        <_>
          <internalNodes>
            0 -1 52 -1.0088288690894842e-03</internalNodes>
          <leafValues>
            1.9790366291999817e-01 -9.2408634722232819e-02</leafValues></_>
        <_>
          <internalNodes>
            0 -1 385 1.3350896537303925e-02</internalNodes>
          <leafValues>
            3.4186895936727524e-02 -6.2262696027755737e-01</leafValues></_>
        <_>
          <internalNodes>
            0 -1 316 -1.5402841381728649e-03</internalNodes>
          <leafValues>
            -4.3208524584770203e-01 3.3075876533985138e-02</leafValues></_>
        <_>
          <internalNodes>
            0 -1 196 -1.9693342037498951e-03</internalNodes>
          <leafValues>
            3.0940586328506470e-01 -6.2970176339149475e-02</leafValues></_>
        <_>
          <internalNodes>
            0 -1 149 -2.2887689992785454e-03</internalNodes>
          <leafValues>
            -5.6133145093917847e-01 3.5102289170026779e-02</leafValues></_>
        <_>
          <internalNodes>
            0 -1 281 1.1631653178483248e-03</internalNodes>
          <leafValues>
            -7.9525098204612732e-02 2.4251589179039001e-01</leafValues></_>
        <_>
          <internalNodes>
            0 -1 46 -3.1475594732910395e-04</internalNodes>
          <leafValues>
            -2.2881938517093658e-01 9.1350972652435303e-02</leafValues></_>
        <_>
          <internalNodes>
            0 -1 104 -1.4572683721780777e-02</internalNodes>
          <leafValues>
            3.9441458880901337e-02 -4.4748678803443909e-01</leafValues></_>
        <_>
          <internalNodes>
            0 -1 674 9.7508978797122836e-05</internalNodes>
          <leafValues>
            7.8542388975620270e-02 -2.3172029852867126e-01</leafValues></_>
        <_>
          <internalNodes>
            0 -1 176 5.5778282694518566e-04</internalNodes>
          <leafValues>
            -7.7636204659938812e-02 2.5246292352676392e-01</leafValues></_>
        <_>
          <internalNodes>
            0 -1 526 5.9423986822366714e-03</internalNodes>
          <leafValues>
            2.0416013896465302e-02 -8.6629217863082886e-01</leafValues></_>
        <_>
          <internalNodes>
            0 -1 197 -2.8780149295926094e-03</internalNodes>
          <leafValues>
            4.6432417631149292e-01 -4.2350739240646362e-02</leafValues></_>
        <_>
          <internalNodes>
            0 -1 369 -1.8576426431536674e-02</internalNodes>
          <leafValues>
            2.7352750301361084e-01 -6.7344278097152710e-02</leafValues></_>
        <_>
          <internalNodes>
            0 -1 260 5.1309011876583099e-02</internalNodes>
          <leafValues>
            6.2524713575839996e-02 -3.4438776969909668e-01</leafValues></_>
        <_>
          <internalNodes>
            0 -1 571 3.7109054625034332e-02</internalNodes>
          <leafValues>
            -4.8227839171886444e-02 5.4844611883163452e-01</leafValues></_>
        <_>
          <internalNodes>
            0 -1 388 -3.9098791778087616e-02</internalNodes>
          <leafValues>
            -5.5647063255310059e-01 3.5121776163578033e-02</leafValues></_>
        <_>
          <internalNodes>
            0 -1 555 -2.1641813218593597e-03</internalNodes>
          <leafValues>
            2.7321600914001465e-01 -7.1967326104640961e-02</leafValues></_>
        <_>
          <internalNodes>
            0 -1 409 2.7477595722302794e-04</internalNodes>
          <leafValues>
            -1.5308316051959991e-01 1.0933705419301987e-01</leafValues></_>
        <_>
          <internalNodes>
            0 -1 359 3.1174388714134693e-03</internalNodes>
          <leafValues>
            3.4543216228485107e-02 -4.9221971631050110e-01</leafValues></_>
        <_>
          <internalNodes>
            0 -1 123 1.3593511539511383e-04</internalNodes>
          <leafValues>
            8.1076003611087799e-02 -1.9498109817504883e-01</leafValues></_>
        <_>
          <internalNodes>
            0 -1 402 3.0674761533737183e-01</internalNodes>
          <leafValues>
            2.0153732970356941e-02 -8.2048523426055908e-01</leafValues></_>
        <_>
          <internalNodes>
            0 -1 559 -4.4138543307781219e-04</internalNodes>
          <leafValues>
            1.3842976093292236e-01 -1.1564113944768906e-01</leafValues></_>
        <_>
          <internalNodes>
            0 -1 56 -8.5519801359623671e-04</internalNodes>
          <leafValues>
            -2.9200232028961182e-01 5.1501207053661346e-02</leafValues></_>
        <_>
          <internalNodes>
            0 -1 192 6.4805254805833101e-04</internalNodes>
          <leafValues>
            -1.2627187371253967e-01 1.2804475426673889e-01</leafValues></_>
        <_>
          <internalNodes>
            0 -1 396 -5.4936031810939312e-03</internalNodes>
          <leafValues>
            2.6903402060270309e-02 -6.6182976961135864e-01</leafValues></_>
        <_>
          <internalNodes>
            0 -1 191 -1.3306447304785252e-02</internalNodes>
          <leafValues>
            -3.6006070673465729e-02 6.6917926073074341e-01</leafValues></_>
        <_>
          <internalNodes>
            0 -1 583 7.1971297264099121e-02</internalNodes>
          <leafValues>
            -5.6048665195703506e-02 2.9127287864685059e-01</leafValues></_>
        <_>
          <internalNodes>
            0 -1 22 -3.6896150559186935e-02</internalNodes>
          <leafValues>
            -5.0763726234436035e-01 3.0491102486848831e-02</leafValues></_>
        <_>
          <internalNodes>
            0 -1 617 -2.4467634502798319e-03</internalNodes>
          <leafValues>
            2.8014963492751122e-02 -5.5343842506408691e-01</leafValues></_>
        <_>
          <internalNodes>
            0 -1 129 -4.9120548367500305e-01</internalNodes>
          <leafValues>
            5.4865419864654541e-01 -3.6012172698974609e-02</leafValues></_>
        <_>
          <internalNodes>
            0 -1 190 1.4526303857564926e-03</internalNodes>
          <leafValues>
            -5.7345125824213028e-02 2.9106286168098450e-01</leafValues></_>
        <_>
          <internalNodes>
            0 -1 184 4.8671066761016846e-02</internalNodes>
          <leafValues>
            -2.5870185345411301e-02 6.0948753356933594e-01</leafValues></_>
        <_>
          <internalNodes>
            0 -1 674 -4.0770421037450433e-04</internalNodes>
          <leafValues>
            -2.3251147568225861e-01 7.8172832727432251e-02</leafValues></_>
        <_>
          <internalNodes>
            0 -1 622 -2.3217940703034401e-02</internalNodes>
          <leafValues>
            3.1467220187187195e-01 -6.3331097364425659e-02</leafValues></_>
        <_>
          <internalNodes>
            0 -1 312 -1.2771377805620432e-03</internalNodes>
          <leafValues>
            1.2408271431922913e-01 -1.4330109953880310e-01</leafValues></_>
        <_>
          <internalNodes>
            0 -1 619 -1.3723051175475121e-02</internalNodes>
          <leafValues>
            -4.2942386865615845e-01 5.1106523722410202e-02</leafValues></_>
        <_>
          <internalNodes>
            0 -1 477 3.1867006327956915e-05</internalNodes>
          <leafValues>
            -1.0627853125333786e-01 1.7345573008060455e-01</leafValues></_>
        <_>
          <internalNodes>
            0 -1 441 -1.3099801435600966e-04</internalNodes>
          <leafValues>
            8.3893977105617523e-02 -2.0032384991645813e-01</leafValues></_>
        <_>
          <internalNodes>
            0 -1 178 2.9521721601486206e-01</internalNodes>
          <leafValues>
            -3.5217262804508209e-02 5.4467773437500000e-01</leafValues></_>
        <_>
          <internalNodes>
            0 -1 650 1.5561478212475777e-02</internalNodes>
          <leafValues>
            -7.5636290013790131e-02 2.3292005062103271e-01</leafValues></_>
        <_>
          <internalNodes>
            0 -1 9 4.3986432254314423e-02</internalNodes>
          <leafValues>
            -1.0553844273090363e-01 1.7594952881336212e-01</leafValues></_>
        <_>
          <internalNodes>
            0 -1 407 -3.9379652589559555e-03</internalNodes>
          <leafValues>
            2.5790402293205261e-01 -7.7506884932518005e-02</leafValues></_>
        <_>
          <internalNodes>
            0 -1 499 2.9454908799380064e-03</internalNodes>
          <leafValues>
            -6.6950656473636627e-02 2.7683249115943909e-01</leafValues></_>
        <_>
          <internalNodes>
            0 -1 498 -1.4874775661155581e-03</internalNodes>
          <leafValues>
            1.8852857872843742e-02 -9.6274560689926147e-01</leafValues></_>
        <_>
          <internalNodes>
            0 -1 501 -4.6777403913438320e-03</internalNodes>
          <leafValues>
            -4.4924408197402954e-01 3.1535450369119644e-02</leafValues></_>
        <_>
          <internalNodes>
            0 -1 480 -1.0470068082213402e-03</internalNodes>
          <leafValues>
            3.2205832004547119e-01 -5.7926114648580551e-02</leafValues></_>
        <_>
          <internalNodes>
            0 -1 398 3.6430577747523785e-03</internalNodes>
          <leafValues>
            2.2185727953910828e-02 -8.4694445133209229e-01</leafValues></_>
        <_>
          <internalNodes>
            0 -1 74 1.0380232706665993e-02</internalNodes>
          <leafValues>
            -6.3251800835132599e-02 2.6591083407402039e-01</leafValues></_>
        <_>
          <internalNodes>
            0 -1 68 -1.5697075286880136e-04</internalNodes>
          <leafValues>
            -1.9693276286125183e-01 9.8809272050857544e-02</leafValues></_>
        <_>
          <internalNodes>
            0 -1 394 -3.4748204052448273e-03</internalNodes>
          <leafValues>
            -4.0674570947885513e-02 4.4414702057838440e-01</leafValues></_>
        <_>
          <internalNodes>
            0 -1 137 9.6417218446731567e-03</internalNodes>
          <leafValues>
            -4.4232234358787537e-02 3.1178674101829529e-01</leafValues></_>
        <_>
          <internalNodes>
            0 -1 37 1.8664270639419556e-01</internalNodes>
          <leafValues>
            -1.1870736628770828e-01 1.4189022779464722e-01</leafValues></_>
        <_>
          <internalNodes>
            0 -1 188 1.1539088154677302e-04</internalNodes>
          <leafValues>
            1.0289297252893448e-01 -1.8487475812435150e-01</leafValues></_>
        <_>
          <internalNodes>
            0 -1 222 -4.0218602865934372e-02</internalNodes>
          <leafValues>
            4.7496390342712402e-01 -3.4619513899087906e-02</leafValues></_>
        <_>
          <internalNodes>
            0 -1 95 -1.4738507568836212e-02</internalNodes>
          <leafValues>
            3.7557393312454224e-01 -3.7344265729188919e-02</leafValues></_>
        <_>
          <internalNodes>
            0 -1 34 1.6594734042882919e-02</internalNodes>
          <leafValues>
            2.7981577441096306e-02 -6.2429791688919067e-01</leafValues></_>
        <_>
          <internalNodes>
            0 -1 99 5.0778172910213470e-02</internalNodes>
          <leafValues>
            -1.8824258446693420e-01 8.2147665321826935e-02</leafValues></_>
        <_>
          <internalNodes>
            0 -1 53 1.2067460455000401e-02</internalNodes>
          <leafValues>
